210 100
of 0.17905527 0.15884234 0.06266255 0.2817624 0.11048601 -0.13149309 0.49564227 0.13733487 0.2845581 0.28024665 0.2944106 0.31806853 0.15025508 -0.016595189 0.0349574 -0.20496666 0.063166186 -0.18970102 -0.61414766 0.07783183 0.24923621 -0.013042546 0.2964945 -0.2919912 -0.0040980726 -0.5185088 -0.71883917 -0.26376292 0.05583119 -0.13919695 0.1540028 -0.18064459 -0.17939615 0.1127068 -0.3139547 -0.22785191 -0.24270791 0.07079228 -0.021439929 -0.1583624 0.20570274 0.17174166 -0.3412688 0.29783657 0.24756551 -0.15842247 -0.11014427 0.21887754 -0.18946475 0.07244165 -0.04590816 -0.1039553 0.039806627 -0.11714967 -0.20663087 -0.09475429 0.21218358 0.020351566 0.33379897 -0.1616709 0.18966648 0.4098794 -0.057528418 0.16887753 0.28952557 -0.38877913 -0.40740964 -0.053707287 0.14786737 -0.32076588 0.12980117 -0.19856693 0.07469146 0.029156318 -0.37899378 -0.73316044 0.09453786 0.0155592365 -0.07036106 0.20896079 0.07103513 0.3213527 0.16367702 -0.016075954 0.16267005 -0.13021018 0.23761374 0.22382523 -0.45007873 -0.08613022 -0.34877303 -0.011420723 -0.3374748 -0.12683785 0.17317969 0.22312342 0.06522702 0.21948949 0.23861535 -0.1253904
subclassof 0.21754935 0.09915097 0.045187555 0.29299125 0.13702083 -0.08538355 0.4372116 0.128811 0.33426282 0.27761734 0.25433046 0.23501775 0.13024347 0.0044181687 0.055425216 -0.19915931 0.059587084 -0.1985138 -0.5455108 0.07111984 0.22719929 0.0058144014 0.24917132 -0.24863927 0.00039753056 -0.5309648 -0.6443403 -0.20102997 0.12041161 -0.12954363 0.19487809 -0.1534939 -0.14471728 0.107954375 -0.3217128 -0.20671304 -0.24260676 0.14295648 -0.015859602 -0.12696691 0.15426472 0.18484108 -0.2823159 0.2345453 0.24438736 -0.098280415 -0.08872764 0.15622583 -0.16393419 0.05397422 -0.07374876 -0.15006857 0.027648643 -0.11701235 -0.1761078 -0.08425832 0.20287144 0.05659275 0.3564138 -0.13274835 0.22386326 0.41667578 -0.075850226 0.137257 0.23310666 -0.366152 -0.37066475 -0.05336018 0.17153972 -0.29794636 0.07201909 -0.12927625 0.03679818 -0.031850427 -0.31389257 -0.658252 0.10275644 -8.877754e-05 -0.08672681 0.18552925 0.09346796 0.2850371 0.21167204 0.030516658 0.13348158 -0.14385617 0.25568238 0.14066507 -0.3903398 -0.12311183 -0.36763784 -0.053133994 -0.3089872 -0.1569286 0.13144955 0.23061533 0.03520537 0.1442669 0.20803973 -0.14893064
super 0.21146818 0.14151782 0.052311476 0.30924731 0.11022835 -0.100629374 0.44568908 0.18422882 0.40040755 0.29252738 0.32181972 0.26584372 0.16440618 -0.029468073 0.047835775 -0.23052548 0.074567795 -0.21901207 -0.66109467 0.1534074 0.2389299 -0.018263608 0.29449624 -0.27664304 0.029826915 -0.58051264 -0.7157095 -0.26406315 0.12663274 -0.11454482 0.2243053 -0.2291493 -0.23704737 0.12672058 -0.32271644 -0.2719258 -0.25135693 0.12876835 0.018185018 -0.20895864 0.21808319 0.19675563 -0.37686315 0.2908801 0.26828694 -0.08645625 -0.09002603 0.1658151 -0.19627555 0.11834311 -0.12876314 -0.11607477 0.07187402 -0.14935358 -0.20635703 -0.14202088 0.24278894 0.07155219 0.32087862 -0.17333604 0.21724087 0.4720848 -0.092285015 0.16527855 0.29639947 -0.45658052 -0.43022126 -0.037985273 0.24429208 -0.34499523 0.122189306 -0.13938275 0.015179817 -0.00021279913 -0.39037463 -0.78047204 0.16066572 -0.047086827 -0.11138589 0.2127458 0.12635975 0.3367497 0.30258998 -0.031472325 0.12849991 -0.18652382 0.22780043 0.19805343 -0.46293926 -0.13976507 -0.43521094 -0.10294691 -0.3152552 -0.12599823 0.11379698 0.2748403 0.03984782 0.20566398 0.2801921 -0.14247997
class 0.21441329 0.17732878 0.051098067 0.25808895 0.09830428 -0.10331736 0.4402482 0.18999936 0.3499531 0.31660166 0.32643032 0.30035296 0.15336546 -0.0061045787 0.0634006 -0.28205642 0.08761834 -0.22264412 -0.67140454 0.14738233 0.24204308 0.0048783487 0.28182778 -0.30244008 0.026528751 -0.58737594 -0.7169215 -0.278659 0.09452037 -0.13405752 0.18663496 -0.2530752 -0.18646367 0.13615568 -0.3391023 -0.26072362 -0.25100586 0.10262711 -0.017453253 -0.20943892 0.2144136 0.20248425 -0.40093344 0.32576293 0.25694236 -0.083686754 -0.115307905 0.15633984 -0.21042806 0.099282816 -0.108822376 -0.15218262 0.0835184 -0.15832363 -0.21483871 -0.09985382 0.21705414 0.085598655 0.34162894 -0.14863977 0.18876727 0.46844622 -0.071409605 0.1518185 0.29843867 -0.45806754 -0.42536467 -0.015545628 0.23857099 -0.360589 0.110422745 -0.17139152 -0.0020393392 -0.020020625 -0.3691137 -0.79888266 0.13885775 -0.040747512 -0.11132296 0.22953948 0.11767949 0.34521893 0.28011453 -0.03873704 0.10643949 -0.18335982 0.23605695 0.22681719 -0.5007236 -0.103977926 -0.44036517 -0.0810226 -0.3160708 -0.104718395 0.13066055 0.27345994 0.014316269 0.20407604 0.28071064 -0.14229408
http://www.w3.org/2000/01/rdf-schema#subClassOf 0.2906216 -0.15715545 -0.20225845 0.42550004 0.1570133 0.20074002 0.2932728 -0.060462598 0.5423577 0.4094315 0.11860998 0.072356634 0.26065174 0.2450784 0.085890755 -0.17633459 -0.12245605 -0.12941118 -0.11313715 -0.033180688 0.07579233 0.26542285 -0.14920358 0.013790595 0.17187245 -0.51936334 -0.59727985 -0.06865491 0.38839048 -0.055081286 0.51251227 0.052554354 0.043849196 0.120316625 -0.39880097 -0.31672597 -0.32894164 0.5920209 -0.021373276 0.03649164 -0.1975017 0.2475896 0.14102943 0.042566974 0.2597479 0.11772172 0.021406034 -0.19829845 0.059064336 0.03487591 -0.10756161 -0.26427713 -0.19709475 0.069653116 0.00024678287 0.21696198 0.062958896 0.22872923 0.641599 0.02548512 0.4444954 0.47232446 -0.012772143 0.036509823 -0.011381096 -0.19264159 -0.16044071 -0.05008245 0.221039 -0.21924214 -0.161353 0.058948863 -0.13669507 -0.28876534 -0.06548874 -0.4237436 0.12331507 0.16441505 -0.10954236 0.24835816 0.18565346 0.017555159 0.25382045 0.080873795 -0.10147096 -0.21584836 0.25288033 -0.18621244 -0.18115294 -0.32136473 -0.44547743 -0.21973372 -0.070352 -0.26800787 0.092685245 0.113711536 -0.080612145 -0.23063576 0.12577811 -0.16807151
http://www.semanticweb.org/owl2vec#superClassOf 0.2928082 -0.1609472 -0.19771758 0.43064594 0.15802218 0.19426695 0.27506235 -0.05281767 0.58135504 0.42060316 0.13138378 0.048540965 0.2691451 0.22866556 0.09668177 -0.18176413 -0.11617981 -0.12590301 -0.12319538 -0.021794157 0.070993386 0.2531734 -0.13928115 -0.010899114 0.17968999 -0.54552966 -0.5941055 -0.079484284 0.40385717 -0.063124545 0.5272263 0.0413899 0.012722373 0.1420582 -0.4124272 -0.31813815 -0.344149 0.5872732 0.002249494 0.011222654 -0.19937494 0.2579158 0.123027876 0.050211377 0.25478265 0.14476983 0.028759735 -0.20735821 0.049205232 0.03733935 -0.12442096 -0.28045872 -0.18485586 0.044991925 -0.010469577 0.21364991 0.08220343 0.25639138 0.64170223 0.0249083 0.47399634 0.4895239 -0.023045834 0.034288656 0.0042522014 -0.20904985 -0.18304138 -0.047388207 0.25321373 -0.2284749 -0.15786354 0.07344156 -0.13183245 -0.29784605 -0.07038829 -0.4313277 0.15763685 0.12979668 -0.112182416 0.2663534 0.21128125 0.006882066 0.29677016 0.08076683 -0.099274024 -0.22655556 0.27153277 -0.19619729 -0.18565609 -0.32686526 -0.4642464 -0.24845657 -0.065215945 -0.2616236 0.075409785 0.14087544 -0.096392676 -0.23456298 0.12504785 -0.18707924
topping 0.0029355441 0.16785915 -0.07235446 0.13862239 0.14964671 -0.061285354 0.62907064 0.122735284 0.047090013 0.16264948 0.1930361 0.55061936 0.20553201 0.11869294 -0.019525247 -0.12730528 -0.11746638 -0.28914088 -0.52570254 -0.0016553912 0.213503 0.14692621 0.25375742 -0.13357799 0.13566306 -0.39923656 -0.7688124 -0.23970631 -0.0071173916 -0.19061048 0.18830988 -0.2387634 -0.027990848 -0.09175227 -0.29299736 -0.30793396 -0.06788345 0.10001247 -0.2422886 -0.051301405 0.29418892 0.19343767 -0.4026786 0.30158058 0.23182662 -0.28846294 -0.23646717 0.25051436 -0.121871136 0.078287534 0.076827064 -0.02205917 -0.100322746 0.026017515 -0.07812048 -0.04571074 0.047604214 -0.0976136 0.24290785 -0.24056332 -0.12978563 0.25156823 -0.043139033 0.13732854 0.21361107 -0.40886334 -0.2068884 -0.012488571 -0.039709684 -0.2463819 0.074137405 -0.43990538 -0.019024033 0.07810353 -0.4003963 -0.68725103 -0.20885725 0.3085592 0.04600068 0.1541795 -0.01832861 0.34488964 -0.09788831 -0.013418436 0.01979871 -0.026040506 0.010156407 0.38428867 -0.6298482 -0.18178439 -0.35267475 0.104276046 -0.26844645 -0.13689953 0.33233225 0.07512629 0.16349918 0.2522004 0.30617777 0.00038846457
is 0.22234383 0.019548949 0.0547882 0.23472653 0.33023256 -0.17893593 0.75550824 0.002412862 -0.08986498 0.12953486 0.12700981 0.46818936 0.036266822 0.1916652 0.03463549 -0.04661763 0.034859963 -0.35878286 -0.3101082 -0.27879173 0.2161453 0.04493178 0.3412347 -0.13351974 -0.03022104 -0.40397918 -0.7078373 -0.12696218 -0.08369158 -0.28385895 0.059058566 0.013385924 0.21131438 -0.058148365 -0.27076516 0.040574275 -0.14045523 0.11753378 -0.25582817 0.15219416 0.31587076 0.1816361 -0.13409974 0.20121245 0.14997326 -0.36223155 -0.23661993 0.35128382 -0.10201396 -0.18557581 0.29274055 -0.08642103 -0.19646491 -0.024237584 -0.06674629 -0.0034458344 -0.0020604646 -0.23585461 0.42669708 -0.21263328 -0.14937614 0.11496515 -0.0071744337 0.17726429 0.079986334 -0.20675513 -0.14328095 -0.11726565 -0.29538894 -0.24765827 0.019469937 -0.32411626 0.13805638 0.0855952 -0.19833782 -0.5179365 -0.3249163 0.40038922 0.13024427 0.067619756 -0.0746284 0.31112716 -0.34492287 0.23811947 0.22521445 0.03071794 0.14160913 0.20481999 -0.44508246 -0.09791233 -0.13896286 0.29898503 -0.4799922 -0.29415673 0.43175474 0.004285788 0.1792269 0.25294584 0.20098943 0.04252788
has 0.19193462 0.036236238 0.028286852 0.2344613 0.32316214 -0.16033648 0.7957556 0.007491371 -0.10284836 0.11506753 0.11109435 0.49577898 0.04343946 0.2118795 0.038331706 -0.044087317 0.0012229653 -0.37744835 -0.2931772 -0.27940518 0.20426321 0.08593429 0.32758248 -0.14070445 0.009761478 -0.39681652 -0.7389945 -0.1425852 -0.10040136 -0.29673946 0.05345721 0.003989439 0.22274221 -0.085250586 -0.27070075 0.016185502 -0.12264327 0.12126268 -0.2775152 0.16536674 0.31491742 0.1883103 -0.12507948 0.2340098 0.15840563 -0.39874178 -0.24359427 0.37210512 -0.08953081 -0.19994363 0.29973972 -0.0790682 -0.21480633 -0.011928225 -0.052018825 0.0038912666 -0.012087278 -0.2615164 0.43457845 -0.23036556 -0.1711683 0.1004222 -0.0009933598 0.17949829 0.0754657 -0.18615107 -0.13564418 -0.12610532 -0.33138385 -0.24023315 -0.0018245133 -0.36518043 0.14752263 0.08599273 -0.19593681 -0.5240207 -0.36297357 0.453049 0.15253554 0.058092628 -0.07507626 0.33723423 -0.3640537 0.22912385 0.20373371 0.0544773 0.13421926 0.23455623 -0.45536754 -0.12960857 -0.12820952 0.31091452 -0.4790791 -0.29763812 0.47797248 -0.013294022 0.1849522 0.25959206 0.20669965 0.042672213
pizza 0.24350074 -0.04247923 0.04862037 0.2085801 0.3051306 -0.1653578 0.59199864 0.040248323 0.03867259 0.12796913 0.1847449 0.38287732 0.05601028 0.13966365 0.059769552 -0.04782225 0.022198325 -0.26101407 -0.35477266 -0.1871729 0.23261335 0.031028304 0.26467907 -0.15487741 -0.06371425 -0.3887153 -0.58409387 -0.10419334 -0.036854193 -0.20529202 0.04826596 0.006883661 0.10510552 -0.0076569193 -0.2848659 -0.025931178 -0.1388185 0.13675606 -0.1969637 0.10795962 0.27957845 0.14689274 -0.056994982 0.13303101 0.2249575 -0.30250975 -0.11257064 0.22087185 -0.13702732 -0.13506946 0.14763927 -0.1274662 -0.14832123 -0.05002248 -0.13927056 -0.032865435 0.0781036 -0.17908536 0.39377844 -0.1041174 0.080443315 0.20924167 -0.04298562 0.1263497 0.115359396 -0.2498539 -0.15870705 -0.10785371 -0.15820281 -0.28809232 0.029596372 -0.23118299 0.12276879 0.10843675 -0.22569239 -0.45905343 -0.08783891 0.2946035 0.049741413 0.0403291 0.0008467054 0.25838405 -0.24223034 0.1594296 0.27078164 -0.041906122 0.21807054 0.12265129 -0.3405236 -0.07664117 -0.16422696 0.21445358 -0.40448463 -0.2246663 0.31382582 0.05658616 0.20921424 0.18087655 0.12673923 -0.032242514
pork 0.23226164 0.10816638 0.0124651445 0.36244318 0.11312758 -0.14268675 0.37931818 0.11421639 0.5047057 0.3715937 0.33226553 0.14224695 0.1349818 -0.094981976 0.067115046 -0.29377255 0.14674671 -0.17933722 -0.6379073 0.1660748 0.21566112 -0.054971132 0.32342094 -0.32314304 0.05125214 -0.69785994 -0.7009907 -0.33172813 0.15659097 -0.14248471 0.2745538 -0.25048372 -0.28491455 0.20588222 -0.3575308 -0.19465421 -0.28329635 0.15395105 0.06554241 -0.27207917 0.16432855 0.22232865 -0.37424526 0.29467112 0.248301 -0.0049182787 -0.07823124 0.13354239 -0.17846732 0.12240334 -0.12304076 -0.18854977 0.11822661 -0.21644123 -0.2652601 -0.147781 0.28259718 0.14389776 0.3601465 -0.12464373 0.31137714 0.5506478 -0.074755505 0.14346471 0.2568728 -0.42543924 -0.48469317 -0.062332682 0.3163332 -0.38129246 0.10880818 -0.0714427 0.07054364 -0.028774604 -0.33116123 -0.80207115 0.26689878 -0.16585423 -0.16450252 0.2579432 0.1949725 0.31998086 0.37553775 -0.027647624 0.11898518 -0.1839948 0.3667657 0.11183246 -0.43432617 -0.12733048 -0.5173994 -0.1353374 -0.31648344 -0.14094642 0.06646055 0.27574936 -0.05845516 0.14619368 0.2852401 -0.21356991
label 0.20611535 -0.0038356464 0.04670255 0.25395313 0.22489832 -0.10734938 0.5074727 0.037830878 0.09784385 0.15161458 0.14649944 0.26802668 0.059123434 0.09622622 0.030248968 -0.10582083 0.040962968 -0.20688976 -0.30252093 -0.13791947 0.19230983 0.03308948 0.2580286 -0.14753586 -0.012468036 -0.41615856 -0.57209736 -0.11392246 0.0047576455 -0.17585875 0.09700271 -0.024273591 0.04660904 0.028399887 -0.25210992 -0.033257693 -0.18020712 0.13694735 -0.11586216 0.036784187 0.16791284 0.16900519 -0.11078775 0.18420087 0.15730289 -0.19375835 -0.12637706 0.22180781 -0.08733457 -0.08591334 0.11999591 -0.108553015 -0.11420091 -0.05795002 -0.09216143 -0.021867292 0.07400789 -0.09518409 0.38251087 -0.13018875 0.07204293 0.2120749 -0.03094329 0.11666013 0.10945213 -0.1929461 -0.21036641 -0.104036614 -0.10340769 -0.24341922 0.01755176 -0.1870973 0.10444114 0.0340949 -0.1915725 -0.46156672 -0.09356379 0.20321828 0.009772016 0.107990615 0.028005881 0.2638626 -0.11544159 0.11375285 0.1770794 -0.040787484 0.21428193 0.09488049 -0.30900967 -0.091698274 -0.17520684 0.11639692 -0.3321667 -0.20323865 0.2847187 0.065917395 0.09667799 0.14695504 0.14644983 -0.07219376
http://www.semanticweb.org/jake/ontologies/2021/2/jbrown/Seafood_topping 0.42849013 -0.17876491 -0.13463773 0.4436397 0.24354751 0.23991893 0.36073056 0.007846255 0.5501649 0.466206 0.10556724 0.095232606 0.22621746 0.31066188 0.1252671 -0.18036614 -0.10899877 -0.1832205 -0.195665 0.027704947 0.054521702 0.15266559 -0.17952742 0.0070178346 0.11637243 -0.49885446 -0.52235836 -0.027991228 0.3281351 -0.006068221 0.41790593 0.10285909 0.018584833 0.18187031 -0.38888916 -0.2862184 -0.33839917 0.5263012 -0.044535514 0.019803928 -0.17268799 0.23548537 0.09425239 0.04931166 0.24108385 0.122680396 0.0041482584 -0.24239767 0.03426056 -0.020851381 -0.13436607 -0.35010347 -0.16584966 0.03579133 -0.07840691 0.2223579 0.05020174 0.23231049 0.6231391 0.02703849 0.41109157 0.4989191 -0.044321068 0.034069397 0.016442966 -0.2600571 -0.13688289 0.045401216 0.25195435 -0.24124253 -0.15337844 0.09755183 -0.19904639 -0.3586876 -0.041585974 -0.41067803 0.028969016 0.11343878 -0.14133227 0.23356566 0.15192147 -0.02429676 0.36375967 0.12951331 -0.09511343 -0.27381298 0.24921519 -0.1612021 -0.19366153 -0.3332584 -0.41210636 -0.26304612 -0.07675921 -0.23214513 0.044313274 0.22823529 -0.093971156 -0.2507615 0.07553853 -0.18560445
http://www.semanticweb.org/jake/ontologies/2021/2/jbrown/Pork 0.20826858 -0.13031031 -0.18665819 0.43001887 0.15366095 0.13528058 0.19230327 -0.059693914 0.58850193 0.41772678 0.19647203 0.0060816635 0.23121618 0.13034247 0.064102836 -0.19764392 0.026179101 -0.0833691 -0.22668514 0.018048182 0.08299726 0.12462196 0.023597792 -0.06285742 0.17345078 -0.63134646 -0.5980183 -0.17409337 0.37184575 -0.1035027 0.4966028 -0.023742512 -0.04953102 0.19537018 -0.37370765 -0.23693858 -0.29492113 0.5051461 0.028581318 -0.09162137 -0.14990118 0.2727148 0.006955568 0.08416461 0.19915666 0.17483987 0.01171158 -0.14459755 0.007223375 0.062257797 -0.07118666 -0.31495303 -0.11212272 -0.02829354 -0.073069304 0.098834954 0.16605487 0.28120735 0.58069855 -0.0155405495 0.42841277 0.5185078 -0.040928572 0.03627693 0.02221294 -0.26519892 -0.24428241 -0.08160684 0.30001432 -0.25487697 -0.05377021 0.0701392 -0.035332642 -0.23066762 -0.083132125 -0.5071958 0.2140997 -0.04022031 -0.11728422 0.25251442 0.18637212 0.04180583 0.24705155 0.04157504 -0.062978014 -0.15350653 0.3424075 -0.16976091 -0.21879855 -0.23736282 -0.5110307 -0.2166347 -0.09922549 -0.22334833 0.002149252 0.12870501 -0.10315924 -0.16970582 0.14442691 -0.18706621
http://www.semanticweb.org/jake/ontologies/2021/2/jbrown/Pizza 0.24838515 -0.279633 -0.087328725 0.3382685 0.1938298 0.016635222 0.36898097 -0.124605484 0.22549981 0.20349827 0.12474756 0.09211861 0.12192348 0.2581427 0.15447171 -0.15633753 -0.16317637 -0.24040247 0.03370465 -0.27213562 0.04044338 0.11794132 -0.008932989 0.12578884 0.09768938 -0.42074895 -0.5479847 -0.04423118 0.18613723 -0.060817134 0.27478632 0.14985372 0.2007303 0.056337953 -0.37521905 -0.090483785 -0.38612694 0.5269814 -0.051971722 0.15567544 -0.07766911 0.2265938 0.4060985 0.037677657 0.21716277 -0.05080982 -0.02586245 -0.10290717 0.057165697 -0.19761215 0.13386035 -0.109438896 -0.33196878 0.082175285 0.07891522 0.2278878 -0.06507769 0.048782405 0.69730085 -0.01357161 0.3018889 0.28528613 0.12982288 0.028347116 -0.13926475 -0.09742593 0.010190742 -0.10753002 -0.16093224 -0.15623167 -0.11073412 0.067236416 -0.07754662 -0.09937915 0.063772604 -0.21041445 -0.08486716 0.33347863 -0.07520437 0.14900039 0.13444383 0.060625814 -0.08582644 0.13010262 0.012229341 -0.06989964 0.17334339 -0.13500004 -0.1064145 -0.27439994 -0.16829336 -0.07335152 -0.15155752 -0.18468359 0.3042488 0.009743412 0.07955525 -0.070748776 0.04217252 -0.08950361
http://www.w3.org/2000/01/rdf-schema#label 0.19950244 -0.20374009 -0.07486389 0.34553373 0.19643043 0.031511124 0.36672103 -0.09167622 0.21721333 0.18418583 0.113676235 0.08596813 0.10922344 0.21243778 0.09206098 -0.13988292 -0.098554276 -0.18578455 -0.013929413 -0.23645358 0.057384253 0.0993303 0.04536885 0.08290354 0.07873016 -0.43729535 -0.53350276 -0.050484102 0.16596095 -0.11123901 0.27664346 0.09228587 0.1733367 0.05629911 -0.30741972 -0.07364754 -0.32723597 0.4410483 -0.05084978 0.111060165 -0.06672376 0.23256822 0.26103342 0.05362046 0.174737 -0.039859254 -0.06528098 -0.026823318 0.053678453 -0.15693799 0.12460168 -0.10428533 -0.31019706 0.07578016 0.04676056 0.168834 -0.033850655 0.04474218 0.60689706 -0.032028824 0.234571 0.2662607 0.09683392 0.0425296 -0.108392596 -0.103645116 -0.04896111 -0.107959166 -0.12805587 -0.16396464 -0.07947737 0.028492648 -0.038689416 -0.08493382 0.02275236 -0.27217978 -0.08657614 0.2844878 -0.017993601 0.16433531 0.09648026 0.085735664 -0.078992195 0.11902159 0.023682488 -0.03954754 0.18281297 -0.10328067 -0.14493307 -0.20273 -0.17630254 -0.05197456 -0.17985031 -0.19418302 0.28030384 0.0005362243 0.053326342 -0.0390023 0.0666506 -0.07199968
hawaiian 0.07534513 0.13500485 -0.034406252 0.19212705 0.13624641 -0.08232382 0.5551033 0.093039 0.102824524 0.18718235 0.19668816 0.4496361 0.15890625 0.10353527 0.0111231115 -0.14004469 -0.049883172 -0.2572378 -0.46705338 -0.0077018198 0.18633312 0.090770945 0.23083353 -0.14766908 0.08042763 -0.40854368 -0.7008435 -0.22633319 0.0037029488 -0.15293527 0.15029727 -0.16453685 -0.028612595 -0.024151577 -0.26502106 -0.20640188 -0.123551466 0.098782636 -0.16557035 -0.049890038 0.24629061 0.16332307 -0.31349877 0.28110707 0.20638934 -0.24393669 -0.19331473 0.22756569 -0.13294351 0.042628456 0.08189015 -0.04516095 -0.06092921 -0.014700281 -0.10194834 -0.048541393 0.0633861 -0.07419927 0.2720969 -0.19216156 -0.060305443 0.26049906 -0.01941817 0.14197807 0.17597003 -0.32152203 -0.21683183 -0.026251694 -0.020988634 -0.23300831 0.07625838 -0.32655874 0.018300487 0.07048077 -0.31272534 -0.63534504 -0.1357546 0.22082499 0.017259793 0.1296324 0.011886516 0.31768748 -0.050760776 0.0040585166 0.051435124 -0.0395153 0.06245904 0.2917856 -0.51735497 -0.13020968 -0.29871684 0.08827066 -0.28581426 -0.14430192 0.27435386 0.09080611 0.10293426 0.22939655 0.26760677 -0.0026004734
establishment 0.32280448 -0.22758205 0.050107215 0.32264575 0.5616596 -0.18631218 0.90888065 -0.076700926 -0.1439069 0.08492862 0.1255174 0.46142823 -0.020089917 0.29484314 0.080783404 0.009217692 0.00042562 -0.3744171 -0.17037587 -0.5284465 0.26513866 0.06694854 0.3660495 -0.0657757 -0.08881822 -0.5009473 -0.7508922 0.007959507 -0.09979868 -0.3383095 0.046788495 0.20123789 0.37459788 -0.06605529 -0.35201514 0.1693239 -0.17022753 0.2906191 -0.34193444 0.3562822 0.31203026 0.2337047 0.13868412 0.094625086 0.22764301 -0.47189885 -0.21499586 0.328543 -0.019515548 -0.34811494 0.429014 -0.16000985 -0.41146514 -0.014334556 -0.0853208 0.06205074 -0.01952844 -0.35591164 0.6892037 -0.133066 -0.02406765 0.10403664 -0.014477086 0.120860256 -0.043145753 -0.15787694 -0.029111989 -0.20488402 -0.48574877 -0.3146324 -0.0660568 -0.3212696 0.20117037 0.13973506 -0.12820846 -0.43506962 -0.37323004 0.63020694 0.18167493 -0.0027995056 -0.08440448 0.30663937 -0.6190692 0.38250744 0.42433333 0.059454866 0.31062368 0.051653713 -0.3650051 -0.14530277 -0.05265954 0.43008062 -0.5908568 -0.40042415 0.60959184 -0.07924311 0.3077565 0.19940951 0.082546934 -0.008132159
http://www.semanticweb.org/jake/ontologies/2021/2/jbrown/Specific_pizza 0.18985783 -0.1562446 -0.17283647 0.36727485 0.10617345 0.100345574 0.30922234 -0.0914946 0.38914573 0.28537688 0.12788142 0.16311839 0.23437594 0.22542371 0.07381915 -0.15788236 -0.14891875 -0.18995112 -0.08871053 -0.10168948 0.10284922 0.25163057 -0.07809104 0.06302802 0.13655579 -0.45431155 -0.5767618 -0.06867881 0.28180838 -0.027112447 0.392397 0.075540625 0.06816007 0.044612173 -0.3239504 -0.21202587 -0.3220234 0.47503266 -0.038797524 0.08720787 -0.12852111 0.20793694 0.2094487 0.0771081 0.218474 0.012761727 -0.031006938 -0.09971909 0.041981548 -0.0054117423 0.009305215 -0.105519466 -0.228746 0.10443871 0.010859274 0.17907752 0.044215214 0.09690452 0.58192843 -0.0014057643 0.31271642 0.34062928 0.056978527 0.038815875 -0.050491113 -0.14842136 -0.08799895 -0.10166014 0.08096157 -0.14480762 -0.0767229 0.01820135 -0.08576337 -0.15668435 -0.063054815 -0.35562345 0.054810893 0.21777326 -0.074933685 0.20025928 0.12995127 0.07846821 0.06786316 0.028197305 -0.069264635 -0.13196002 0.16379727 -0.121086024 -0.15660015 -0.27373934 -0.31505907 -0.13901524 -0.10034787 -0.21340999 0.15473163 0.07134135 -0.012134495 -0.13511184 0.13305908 -0.1352212
http://www.semanticweb.org/jake/ontologies/2021/2/jbrown/Has_topping 0.1503568 -0.15547654 -0.20604429 0.3843235 0.08146133 0.16861515 0.31156558 -0.10462558 0.42731774 0.2930374 0.12671533 0.18888566 0.28188458 0.22283474 0.053555813 -0.15981191 -0.17944038 -0.13948159 -0.06271001 -0.08861288 0.08930659 0.3316794 -0.16302316 0.11936563 0.19735432 -0.45676252 -0.63896775 -0.08194687 0.32801646 -0.027046086 0.46127647 0.07337008 0.08802196 0.029305229 -0.34470895 -0.3002094 -0.3216239 0.5453053 -0.0630498 0.11542487 -0.16829154 0.19437152 0.17825446 0.08132061 0.24113953 0.027087068 -0.01766839 -0.114792034 0.063671246 0.0694593 -0.010273654 -0.12937944 -0.24443696 0.13676661 0.046977594 0.2236716 0.03791144 0.10321777 0.60257727 0.0033290728 0.3329837 0.34441325 0.04949032 0.048496675 -0.06539958 -0.1460874 -0.061653346 -0.09158303 0.09754461 -0.11679749 -0.12641984 -0.012643442 -0.11906347 -0.17858215 -0.059853654 -0.3931128 0.06198771 0.2894622 -0.057030883 0.22986418 0.11733811 0.090284124 0.07553301 0.027799455 -0.1113719 -0.14224158 0.15968855 -0.115566224 -0.15946501 -0.29837465 -0.38433105 -0.14222482 -0.074481875 -0.23992045 0.15157034 0.022250395 -0.030062506 -0.1625501 0.15386362 -0.13147348
http://www.semanticweb.org/jake/ontologies/2021/2/jbrown/Meat_topping 0.22869611 -0.14566413 -0.13653545 0.40077242 0.13103233 0.12767659 0.22507837 -0.07234576 0.45403904 0.32053816 0.1420266 0.05874723 0.20778774 0.20741363 0.093724795 -0.17927597 -0.057837084 -0.10550819 -0.12929177 -0.09193891 0.06502118 0.17489132 -0.04325656 -0.0017108268 0.15228665 -0.5209648 -0.554554 -0.0785785 0.30568737 -0.07825974 0.40881327 0.02448291 0.050294865 0.10706382 -0.335251 -0.22194155 -0.30601624 0.51224595 -0.008479703 -0.005229505 -0.11718974 0.25517768 0.12297405 0.06384609 0.2061948 0.097208425 -0.012952842 -0.13792498 0.00495758 -0.0031254238 -0.019825641 -0.22908716 -0.19621123 0.041238938 -0.019042002 0.17088129 0.07478435 0.20023456 0.5854618 -0.015960768 0.3858273 0.42758942 0.023846895 0.02628275 -0.026399698 -0.18529284 -0.15756355 -0.08870385 0.1524177 -0.2092925 -0.08980221 0.06381107 -0.07809884 -0.18252805 -0.055254124 -0.38856253 0.1179954 0.12370068 -0.08305899 0.22767232 0.1885693 0.019972038 0.15298904 0.046053194 -0.02506679 -0.13732575 0.26254368 -0.16579174 -0.16171594 -0.24480408 -0.36735022 -0.18354394 -0.109485306 -0.22833166 0.10099711 0.09584383 -0.027885986 -0.15353872 0.119391166 -0.17680104
americana 0.12800029 0.08041772 -0.001295463 0.21402171 0.16559874 -0.09785924 0.5316132 0.07720281 0.11119597 0.17165267 0.1984428 0.35836285 0.112611845 0.07872862 0.029639643 -0.12263621 -0.0017808322 -0.22968833 -0.4180524 -0.042415496 0.1873954 0.055587444 0.25651982 -0.15221708 0.03270558 -0.40747434 -0.6327715 -0.18551399 -0.0018129674 -0.14267106 0.11178114 -0.12059897 -0.029579418 0.014805142 -0.2389617 -0.13465688 -0.14660496 0.10045318 -0.1321762 -0.029481694 0.22141315 0.15348487 -0.23010094 0.23329838 0.19582315 -0.22086161 -0.15909167 0.2237489 -0.1253157 0.0138369445 0.08386946 -0.06017616 -0.060210463 -0.051754497 -0.10747746 -0.056292165 0.08307024 -0.07993503 0.31174475 -0.17161982 0.01099741 0.24328826 -0.04180765 0.116832055 0.16393146 -0.28315678 -0.22515555 -0.055283345 -0.024477845 -0.24552158 0.0666561 -0.25042748 0.05900951 0.056019355 -0.27268973 -0.5614185 -0.086125344 0.17774747 0.00042224966 0.122449264 0.008379973 0.2965954 -0.050447185 0.04410518 0.12177424 -0.042886928 0.1303847 0.20435578 -0.42063865 -0.10325456 -0.24981625 0.09108024 -0.30091712 -0.15092617 0.258942 0.08965271 0.09505415 0.20006835 0.21268168 -0.036487512
http://www.semanticweb.org/jake/ontologies/2021/2/jbrown/Is_topping_of 0.16790116 -0.17004499 -0.2434975 0.40310794 0.072753675 0.19007863 0.28833565 -0.1125275 0.46821225 0.32181537 0.11999998 0.18593398 0.30591133 0.24707933 0.05948792 -0.17293641 -0.21238491 -0.14544412 -0.03823505 -0.09325446 0.07945165 0.37595546 -0.2051679 0.13327625 0.22138524 -0.46553835 -0.650227 -0.068607815 0.36147016 -0.008424646 0.51871336 0.08080914 0.094121784 0.028130922 -0.36072022 -0.3369954 -0.32841477 0.5898457 -0.057181064 0.1245057 -0.18675707 0.20841438 0.20448172 0.08555377 0.24106307 0.048660118 -0.016570836 -0.14910096 0.076101035 0.07750865 -0.023020942 -0.14596263 -0.26738563 0.15406097 0.052223105 0.25398627 0.031837244 0.12728764 0.6335774 0.013472793 0.36292467 0.36783436 0.05745044 0.035161115 -0.08814044 -0.14190222 -0.047975063 -0.09157491 0.12519042 -0.1261061 -0.14702491 -0.0014803093 -0.15637171 -0.21329083 -0.05975368 -0.39910224 0.066760525 0.29730347 -0.054444827 0.24339822 0.14374551 0.07061368 0.10935352 0.014988185 -0.14176266 -0.15007195 0.14627579 -0.13869691 -0.17045906 -0.32170063 -0.41855294 -0.17321493 -0.04617939 -0.24809669 0.13459194 0.029508315 -0.051153474 -0.19654694 0.1683924 -0.13047986
http://www.semanticweb.org/jake/ontologies/2021/2/jbrown/Pizza_topping 0.24538346 -0.17886186 -0.12946704 0.37937337 0.1666598 0.13734023 0.30450833 -0.07625927 0.41208932 0.29793683 0.11712653 0.094114445 0.19918707 0.24626724 0.091300555 -0.17236158 -0.12883055 -0.15122214 -0.08303612 -0.10567042 0.05218829 0.20261905 -0.0910095 0.064825565 0.1434807 -0.46437836 -0.53283405 -0.06226756 0.2764192 -0.062415645 0.3966039 0.08466051 0.08371328 0.09444204 -0.35024223 -0.21614857 -0.32040113 0.49994186 -0.040017005 0.0715115 -0.117351614 0.22631694 0.18327305 0.078356095 0.20011042 0.07304811 -0.0142268725 -0.15577346 0.051082432 -0.05875721 -0.0025676652 -0.18587916 -0.22322446 0.06854035 0.0036038866 0.21177432 0.026102552 0.14934845 0.6105166 -0.010535323 0.3448735 0.37921315 0.037832413 0.018001845 -0.058208905 -0.17077966 -0.085881375 -0.040287476 0.078577824 -0.18203112 -0.12258222 0.05017641 -0.12652092 -0.2055595 -0.014822131 -0.34869748 0.033833034 0.21409842 -0.071292646 0.21695377 0.1452652 0.031209767 0.120100364 0.07386139 -0.05358726 -0.14646769 0.19445843 -0.15760222 -0.15172866 -0.2834141 -0.3031992 -0.15466781 -0.09035181 -0.22741878 0.13942505 0.08422475 -0.032704663 -0.15272866 0.0962194 -0.14534838
in 0.33549982 -0.22515644 0.083038576 0.4437515 0.61760306 -0.19041054 1.0832596 -0.08360323 -0.25510493 0.08396554 0.10038637 0.4909838 -0.061160296 0.30997008 0.08648886 -0.0053465217 -0.03374378 -0.40050164 -0.11581282 -0.6398505 0.24647991 0.05978174 0.49140856 -0.04606692 -0.07814514 -0.55647993 -0.9120854 -0.022543939 -0.14334674 -0.32953128 0.039144386 0.2271006 0.3914928 -0.06833387 -0.35163635 0.21896474 -0.21678448 0.30697337 -0.35853308 0.35120177 0.2700264 0.29059955 0.101498656 0.19340575 0.21896602 -0.47595537 -0.30939597 0.4593057 0.053179912 -0.33759275 0.5195684 -0.14478092 -0.49243253 0.047853783 -0.05714321 0.07899609 -0.09395489 -0.41631812 0.7868619 -0.19715652 -0.15383728 0.046175554 0.011420953 0.10772888 -0.035268296 -0.11208684 -0.072391935 -0.23145367 -0.602885 -0.2898712 -0.04297828 -0.4255422 0.25601393 0.10163984 -0.13643336 -0.46814692 -0.5434188 0.7173845 0.17828083 0.06856701 -0.122378156 0.38121906 -0.7075554 0.40377048 0.41796958 0.107804015 0.30540192 0.110714875 -0.46418467 -0.16938545 -0.033236068 0.46678826 -0.64943963 -0.44543406 0.7516495 -0.12099344 0.28945968 0.2556418 0.1301096 0.028111786
located 0.31133533 -0.21156457 0.019452738 0.4278663 0.56996685 -0.20870571 1.0979431 -0.0863356 -0.18630415 0.08475264 0.07856403 0.49281 -0.04726272 0.37024727 0.049538855 0.010165238 0.037627216 -0.45815986 -0.19123967 -0.64300376 0.25712144 0.0592539 0.47818196 -0.027488971 -0.03152152 -0.58767515 -0.87801754 -0.021053243 -0.17545386 -0.3968274 0.06984352 0.14928216 0.46515924 -0.07546078 -0.34596252 0.2575398 -0.21701394 0.30620128 -0.36328048 0.38207486 0.3587298 0.27304778 0.11292049 0.19558874 0.19530721 -0.5510206 -0.32729912 0.46163592 -0.040779397 -0.42428118 0.525687 -0.10404869 -0.48963293 -0.02414784 -0.058209293 0.06528598 -0.050986692 -0.41523424 0.8066833 -0.23198308 -0.109276004 0.05263574 -0.008048709 0.16193281 -0.06997311 -0.09879727 -0.026008163 -0.23247212 -0.5979003 -0.3223975 -0.07661733 -0.38321915 0.23661947 0.11314383 -0.12187025 -0.47722793 -0.5466413 0.7158247 0.22480379 0.029986143 -0.12710352 0.40730086 -0.6868239 0.45532852 0.39329115 0.113058195 0.32524642 0.057282384 -0.40017712 -0.14432174 0.0058008065 0.44555458 -0.67690027 -0.43487653 0.72992194 -0.13222659 0.33272612 0.20668042 0.1230677 -0.0053021032
http://www.semanticweb.org/jake/ontologies/2021/2/jbrown/Hawaiian 0.120995745 -0.148153 -0.18888904 0.3717604 0.06698233 0.15868855 0.2761514 -0.10422423 0.39946908 0.26155713 0.12280282 0.17954831 0.26297143 0.23010512 0.06678552 -0.17127995 -0.1985049 -0.14483503 -0.06554967 -0.114484206 0.07788208 0.32297242 -0.120671906 0.12465282 0.21202254 -0.45177427 -0.6165498 -0.09017599 0.28871775 -0.009936686 0.45803812 0.065989174 0.065543205 0.03675409 -0.31088224 -0.28141537 -0.3090387 0.5343104 -0.072086886 0.092469476 -0.14755355 0.19901979 0.16774647 0.114933066 0.21574782 0.01968725 -0.038310524 -0.13106789 0.07236426 0.06962679 0.015740307 -0.10725651 -0.2414946 0.13767673 0.03170224 0.21219397 0.023070771 0.113642134 0.5919639 -0.0075406157 0.2839943 0.33939958 0.07480563 0.0391122 -0.089344665 -0.14309618 -0.0492014 -0.07512035 0.071761146 -0.10876385 -0.11034942 -0.026028173 -0.122395836 -0.14726393 -0.06034891 -0.40505663 0.049907688 0.27422082 -0.043750633 0.2030743 0.14494874 0.1019855 0.05831045 -0.0070117963 -0.10282814 -0.099260725 0.12687314 -0.09748026 -0.19401394 -0.280265 -0.37945768 -0.12789546 -0.054677658 -0.23031479 0.14488967 0.017034829 -0.007870045 -0.13973822 0.17221273 -0.12093702
location 0.31847134 -0.19860165 0.051832836 0.4188852 0.5364247 -0.17174125 1.037036 -0.07846836 -0.19358788 0.07988779 0.0918207 0.4827992 -0.038055163 0.33089367 0.05771439 -0.007992598 -0.011749975 -0.41582823 -0.17980501 -0.56282085 0.24126306 0.049376003 0.45394623 -0.03422761 -0.03746003 -0.5315556 -0.8649858 -0.02080843 -0.13767421 -0.3264551 0.041035034 0.15674949 0.37160254 -0.080788925 -0.34213325 0.20349452 -0.20413063 0.2753215 -0.35227937 0.34649283 0.30755788 0.25324404 0.06916378 0.1873335 0.19833618 -0.48457178 -0.31781322 0.43274763 -0.00899223 -0.32120666 0.48342028 -0.12322064 -0.4414738 0.008039762 -0.039767426 0.08186894 -0.055161834 -0.38261577 0.72593665 -0.22645481 -0.13415764 0.04624526 -0.01782427 0.107881844 -0.030990385 -0.1020994 -0.053773604 -0.22071712 -0.5562677 -0.28114256 -0.051192634 -0.3958476 0.22162838 0.09552073 -0.14454737 -0.46664634 -0.5144539 0.6631764 0.15804297 0.055024937 -0.09646713 0.38366973 -0.6439399 0.3811495 0.37779713 0.09967545 0.29270923 0.083936885 -0.43349993 -0.16604523 -0.03136811 0.4086661 -0.5934979 -0.4040648 0.7074511 -0.102918066 0.26983806 0.22771725 0.1148751 -0.007102124
SubClassOf 0.1698212 -0.18094933 -0.102675855 0.3137778 0.1830527 0.03673033 0.3600204 -0.08022678 0.22347489 0.20321508 0.119798526 0.11803712 0.13862452 0.20924465 0.09573937 -0.15786009 -0.1335241 -0.19475232 -0.039982535 -0.19714794 0.066875875 0.14181797 0.016553152 0.08850245 0.09944278 -0.43046564 -0.5499891 -0.07580205 0.18462244 -0.09802779 0.29766402 0.071371906 0.15642919 0.044722628 -0.31709898 -0.12007839 -0.312797 0.43738663 -0.054430984 0.09530015 -0.06832388 0.23189227 0.2111656 0.07064298 0.19835852 -0.05434656 -0.06301444 -0.04505208 0.05868411 -0.11585969 0.09437915 -0.1047601 -0.292204 0.08621644 0.05984409 0.1746931 -0.031613532 0.055394255 0.5908792 -0.04872546 0.2188867 0.26940504 0.088845566 0.042199895 -0.10713972 -0.13400064 -0.03976826 -0.07501049 -0.08712671 -0.15070578 -0.08656858 -0.0041789645 -0.069352806 -0.091584235 0.0019084533 -0.3038494 -0.08680427 0.28920928 -0.0327642 0.1683169 0.09509962 0.10109786 -0.046202004 0.09925894 -0.0145750465 -0.055462375 0.13779669 -0.07432822 -0.18528153 -0.21838076 -0.22247827 -0.06030762 -0.16264053 -0.19010976 0.2746779 0.004380722 0.053470295 -0.043649744 0.09162456 -0.07276981
http://www.semanticweb.org/jake/ontologies/2021/2/jbrown/Meat_pizza 0.17432745 -0.19786441 -0.16975328 0.3841826 0.12036822 0.12908472 0.2772634 -0.10490756 0.4017115 0.27363867 0.13145252 0.13435422 0.23762617 0.23731746 0.066174775 -0.15973027 -0.13955617 -0.15490685 -0.060730904 -0.12339121 0.07773708 0.2424463 -0.10642432 0.10189393 0.16317654 -0.45948836 -0.58297783 -0.06409727 0.292481 -0.04595579 0.41339144 0.093559206 0.102660246 0.06083347 -0.34617025 -0.23120543 -0.31937006 0.5255054 -0.048673365 0.08519434 -0.13286932 0.20945235 0.2125959 0.07225534 0.21713518 0.042462084 -0.02354264 -0.14015657 0.048639935 -0.007906253 0.02870272 -0.15078488 -0.24028851 0.115097106 0.025474561 0.20365521 0.035742566 0.12188963 0.6159023 -0.0019398227 0.33324745 0.35779056 0.059857123 0.036111385 -0.083660185 -0.15366068 -0.050803736 -0.08759206 0.062011432 -0.14272907 -0.1048599 0.036376372 -0.1057413 -0.16893253 -0.03767421 -0.3585854 0.0502665 0.24045278 -0.05915588 0.20389311 0.13286652 0.049237356 0.052059405 0.040938783 -0.07291161 -0.11915559 0.18103625 -0.13941021 -0.14343828 -0.27029085 -0.3340416 -0.14208217 -0.07752187 -0.22871397 0.13879278 0.03632987 -0.0036895084 -0.16018878 0.125891 -0.13510469
http://www.semanticweb.org/jake/ontologies/2021/2/jbrown/Cheese_topping 0.11860694 -0.16877073 -0.17281698 0.36049622 0.099318296 0.1366136 0.331991 -0.10785618 0.3373038 0.22836201 0.11375604 0.19927838 0.2541646 0.22423972 0.048335396 -0.13587978 -0.18757956 -0.1552696 -0.039541185 -0.15027584 0.081849426 0.30977625 -0.112408735 0.1287305 0.18082456 -0.42484543 -0.6040768 -0.067294694 0.26299667 -0.036043268 0.41390452 0.101725936 0.09934046 -0.0013296362 -0.30897364 -0.2486414 -0.29498392 0.49684027 -0.08429586 0.14686248 -0.11166481 0.19709218 0.17187858 0.1117302 0.20506074 -0.008558476 -0.039906256 -0.0852202 0.064271726 0.03538181 0.059900485 -0.08934168 -0.26785338 0.14212649 0.04531734 0.19848265 0.004978779 0.0461795 0.59230185 -0.031693798 0.25520012 0.2982575 0.061858512 0.0445781 -0.096142516 -0.1191704 -0.02932555 -0.10172687 0.0030625206 -0.094688654 -0.10300943 -0.037110295 -0.103782974 -0.12781484 -0.058441643 -0.3651924 -0.013389127 0.31572992 -0.028534258 0.20112857 0.08884361 0.090138525 -0.023287017 0.03667415 -0.077289075 -0.07820628 0.12909004 -0.11668825 -0.16551559 -0.27078006 -0.32263866 -0.09098405 -0.07326568 -0.23389077 0.1858412 -0.0020475558 -0.008792938 -0.12831497 0.15061925 -0.12055925
city 0.31242138 -0.1844074 0.056970716 0.40376016 0.5471596 -0.19331379 1.0280846 -0.08014049 -0.19867562 0.08486148 0.0966587 0.47186247 -0.03427818 0.31414703 0.083366066 -0.018987391 0.015007222 -0.42208365 -0.1560584 -0.59057236 0.22827996 0.05441601 0.45417234 -0.04660043 -0.052113768 -0.55145013 -0.85632324 -0.029072596 -0.14295098 -0.33594903 0.042408418 0.16922636 0.39549312 -0.057905708 -0.32883933 0.22429256 -0.21218954 0.27796388 -0.33123675 0.35159314 0.29678 0.249761 0.09167422 0.18336543 0.18800563 -0.47545797 -0.31776834 0.42463505 0.008019827 -0.35285485 0.49376392 -0.10258434 -0.43072093 -0.006872219 -0.05163219 0.08096824 -0.067135386 -0.37572634 0.73836964 -0.22559129 -0.1493478 0.06269443 0.006255585 0.12299157 -0.057079785 -0.11336399 -0.06267564 -0.21724017 -0.5504593 -0.2965666 -0.05139945 -0.3809063 0.20414329 0.12010226 -0.1187785 -0.45881554 -0.51314527 0.652856 0.19794932 0.04698275 -0.12411932 0.37477624 -0.6294095 0.4040618 0.39649528 0.11079185 0.29169214 0.08680764 -0.41188028 -0.15933478 -0.032365065 0.4206361 -0.6130248 -0.40896145 0.69322866 -0.10235203 0.26668456 0.23665048 0.11985898 0.00026279435
http://www.semanticweb.org/jake/ontologies/2021/2/jbrown/Vegetarian_friendly_topping 0.1828006 -0.11871419 -0.19187982 0.33656403 0.12438238 0.14630517 0.31351244 -0.085178375 0.40634102 0.28569728 0.10307925 0.16272262 0.24432033 0.2163097 0.05797298 -0.16921724 -0.1764332 -0.127475 -0.067643754 -0.09858445 0.052852444 0.29611158 -0.13451262 0.07209409 0.18461016 -0.45023933 -0.5743045 -0.08254326 0.29529947 -0.06931776 0.4280576 0.067591086 0.071827844 0.038455587 -0.34549335 -0.2713112 -0.29597166 0.50025386 -0.0740957 0.095910214 -0.116017334 0.24265213 0.1615553 0.09170742 0.2081841 0.0716686 -0.026538145 -0.13321926 0.05623236 0.004293179 -0.006519394 -0.13502888 -0.22344334 0.08042161 0.007323503 0.21885209 0.015122777 0.109714575 0.59127396 -0.014763917 0.32249132 0.34667742 0.021614784 0.0205788 -0.07007285 -0.14862213 -0.07555444 -0.0774379 0.098515995 -0.14819546 -0.13925272 -0.0027190268 -0.13485362 -0.18843137 -0.03850241 -0.38898176 0.03889217 0.24680188 -0.046230398 0.24727665 0.15608078 0.07028935 0.11099469 0.047697578 -0.08069196 -0.13170515 0.14812224 -0.15660165 -0.183254 -0.31294563 -0.3263019 -0.15325704 -0.09413674 -0.2380435 0.140506 0.07982802 -0.045201115 -0.13427629 0.13632749 -0.15533169
country 0.32140848 -0.20403464 0.055775415 0.4075427 0.563935 -0.19859168 1.0360563 -0.09199323 -0.20588234 0.09347078 0.09948289 0.47394258 -0.043033402 0.3336132 0.09321265 -0.014512653 0.018118758 -0.4286463 -0.1471917 -0.6203884 0.23264675 0.06370827 0.4468071 -0.03325985 -0.06310673 -0.5610438 -0.86134624 -0.021649897 -0.1413567 -0.35514453 0.05488352 0.18800819 0.42568088 -0.052740667 -0.33089915 0.24477635 -0.22255236 0.2920857 -0.34336457 0.37066352 0.29233268 0.25348476 0.10778173 0.16535044 0.18166086 -0.4800367 -0.31397495 0.41902587 0.004553604 -0.3777039 0.5159298 -0.11218296 -0.4453012 -0.015330453 -0.04782361 0.088705435 -0.06835148 -0.37865406 0.76710707 -0.22218427 -0.14573815 0.056066368 0.016832871 0.1298615 -0.07611552 -0.10117559 -0.0483326 -0.22111633 -0.5699498 -0.29768538 -0.056382075 -0.37044814 0.2123131 0.114588015 -0.099625506 -0.45380953 -0.5269211 0.6635278 0.21227463 0.047945414 -0.13131484 0.3594157 -0.6509826 0.42346784 0.4078486 0.10251442 0.30056214 0.07826303 -0.39565182 -0.16766644 -0.016179932 0.44245332 -0.6381501 -0.43298224 0.6963542 -0.10108757 0.27262074 0.23583193 0.11774061 0.004831059
margherita 0.15484123 0.039803535 0.003392399 0.2359426 0.13269378 -0.07606903 0.45406467 0.07397017 0.1825239 0.19824268 0.21107993 0.27850562 0.12809154 0.074107796 0.055426426 -0.15194233 0.0012799323 -0.21594828 -0.39254504 -0.021167625 0.17290479 0.038905967 0.20725904 -0.15177993 0.021083772 -0.42348945 -0.6023741 -0.170865 0.052293282 -0.10634521 0.14730012 -0.09908626 -0.04254021 0.042629465 -0.26124948 -0.14743386 -0.20730117 0.15001044 -0.066332184 -0.053207 0.14981295 0.17712785 -0.1547829 0.21189766 0.20389955 -0.15510343 -0.12458042 0.15571554 -0.111452535 0.013448705 0.025671756 -0.06498774 -0.06325792 -0.04896966 -0.097891 -0.033783857 0.09036041 -0.025429681 0.36659917 -0.13413711 0.09723796 0.296767 -0.014097134 0.10247514 0.14849496 -0.27734762 -0.24216625 -0.058944523 0.036618456 -0.24249876 0.0651252 -0.15770695 0.024813248 0.02647232 -0.23916711 -0.52723324 -0.0074797585 0.13006297 -0.044084318 0.14881732 0.051425382 0.26049033 0.028048752 0.022636667 0.11370553 -0.08221092 0.140358 0.1501796 -0.34945625 -0.12223951 -0.27502155 0.01293238 -0.2681106 -0.13767429 0.21780005 0.124203436 0.06405101 0.15572484 0.19601803 -0.05786627
state 0.31833205 -0.20816492 0.055117697 0.4061018 0.551192 -0.18597478 1.017487 -0.08835813 -0.20020369 0.08744412 0.09788183 0.45525053 -0.045147322 0.33001372 0.103234515 -0.025651457 0.009267768 -0.42969203 -0.11630864 -0.60914004 0.2169916 0.06891833 0.42840654 -0.025411932 -0.054043584 -0.5469405 -0.83706015 -0.017747557 -0.12286522 -0.3474092 0.052492615 0.20060451 0.40925863 -0.051080145 -0.32548946 0.24545383 -0.22179617 0.30448377 -0.32798162 0.36499014 0.27539358 0.2553112 0.12597047 0.15428613 0.17845237 -0.45915172 -0.30531707 0.3999402 0.024363723 -0.37513664 0.5115064 -0.10831806 -0.44300097 -0.0026256256 -0.03771427 0.10157662 -0.07590322 -0.3629895 0.75513786 -0.2163892 -0.1415722 0.05565918 0.028191969 0.113087215 -0.084477164 -0.09420379 -0.05043046 -0.22743942 -0.56930906 -0.28216112 -0.060436834 -0.3565246 0.19716652 0.113104545 -0.08347281 -0.42709744 -0.5261751 0.6534129 0.20364843 0.050755333 -0.11834116 0.35245192 -0.63791376 0.4168555 0.39402914 0.111517645 0.2833154 0.07341968 -0.37634328 -0.1721801 -0.017228052 0.42779458 -0.60840255 -0.42277414 0.6932536 -0.10879038 0.25675857 0.23120521 0.10294774 0.0002845731
http://www.semanticweb.org/jake/ontologies/2021/2/jbrown/Establishment 0.1944202 -0.44213504 0.06272852 0.43321007 0.3268551 -0.17559552 0.5870295 -0.17004247 -0.012744607 0.106660366 0.25548443 -0.029483957 -0.07924006 0.26251364 0.2583871 -0.31817695 -0.14016919 -0.37187496 0.0825664 -0.5278765 0.009881889 -0.1982221 0.26829374 0.2845996 0.005087989 -0.6449322 -0.7538707 -0.1462945 0.064606346 -0.17169447 0.15119478 0.16605675 0.40741393 0.16790208 -0.45034996 0.18235497 -0.6752097 0.59081507 0.074241474 0.17005518 -0.058445726 0.41582933 0.6544055 0.06979244 0.23426616 -0.19835107 -0.15794116 -0.026137844 0.1342683 -0.52919775 0.4260042 0.037874386 -0.61207 0.08555058 0.21204787 0.2581574 -0.2208523 0.028419528 0.97550344 -0.11690345 0.19739328 0.26537785 0.36838007 0.063862465 -0.36964583 -0.14442427 0.068181366 -0.13198555 -0.55943817 -0.16019744 -0.02080941 0.166042 -0.08697291 0.08767911 0.23647925 -0.20529188 -0.38836274 0.46493435 -0.04166911 0.21464679 0.06569163 0.20044601 -0.32951355 0.21686353 0.1141772 0.14526413 0.09965066 -0.060424633 -0.13413766 -0.19839627 -0.008932694 -0.05394175 -0.3283765 -0.06697413 0.72033954 -0.08820455 0.23630242 0.17342229 0.0022743575 0.027545705
http://www.semanticweb.org/jake/ontologies/2021/2/jbrown/Americana 0.16110533 -0.16125475 -0.18408449 0.3739237 0.10209266 0.15162815 0.2953523 -0.10869785 0.4058793 0.27649784 0.1306356 0.14787541 0.24829616 0.22931209 0.062885255 -0.15745541 -0.1584024 -0.14130713 -0.055662114 -0.11632031 0.077021964 0.28705892 -0.10620329 0.08866404 0.17939126 -0.46996194 -0.5993647 -0.08737823 0.29085794 -0.025533333 0.42920768 0.07523201 0.06781415 0.051545992 -0.3185845 -0.24880931 -0.31381163 0.52456594 -0.060863696 0.084831424 -0.13597363 0.20254056 0.18452354 0.08748681 0.21774735 0.029929856 -0.023713823 -0.11793904 0.05423052 0.031711712 0.010826337 -0.14648496 -0.24073637 0.10219741 0.024450172 0.20096035 0.031993743 0.104094654 0.60185945 -0.016682008 0.30792296 0.3421743 0.050322153 0.034609165 -0.07535851 -0.1416606 -0.058862053 -0.09023751 0.072690144 -0.1313596 -0.102197304 0.0012555043 -0.09602999 -0.16311063 -0.043967616 -0.3825813 0.054612678 0.23713398 -0.04854413 0.2008117 0.13461438 0.075298585 0.06435785 0.024956666 -0.082568936 -0.10836284 0.17438091 -0.124034755 -0.17326055 -0.28374827 -0.36518097 -0.12963864 -0.0770574 -0.24035169 0.13277555 0.03877714 -0.02163522 -0.15202434 0.13623703 -0.12807706
beef 0.18777555 0.038340364 0.030395672 0.28524876 0.09942545 -0.050694644 0.346698 0.09514655 0.27721903 0.23067756 0.22672789 0.2042373 0.14067204 0.07784044 0.06099119 -0.21562484 0.035434075 -0.15026659 -0.39568618 -0.0030070993 0.14767799 0.009613339 0.213237 -0.15902399 0.023343725 -0.4691039 -0.6175462 -0.19818637 0.102092564 -0.10880183 0.1657921 -0.109795384 -0.054642066 0.11009906 -0.26854357 -0.1628394 -0.2268057 0.18993828 0.0011660644 -0.09590679 0.120914795 0.18481816 -0.13496618 0.22760314 0.19381969 -0.053990033 -0.07871332 0.10978177 -0.12456229 0.0027977333 0.00018651572 -0.11745221 -0.06461301 -0.06826095 -0.11650816 -0.0073225545 0.12062242 0.071472496 0.39869744 -0.11315005 0.2044751 0.35214463 -0.0032945923 0.115885004 0.14783065 -0.30438477 -0.27534184 -0.04995439 0.085866325 -0.2933047 0.063915245 -0.09424857 0.015466374 -0.00492839 -0.23152739 -0.58186793 0.05645736 0.07919403 -0.08342909 0.19415668 0.07904484 0.2160703 0.13723962 0.012935721 0.114682235 -0.13968614 0.22491802 0.101794355 -0.308304 -0.109549426 -0.28848365 -0.046071365 -0.26061907 -0.1409767 0.15961479 0.15432276 0.04465306 0.13144217 0.16962154 -0.12157853
pepperoni 0.15473562 0.10222497 0.003484681 0.24837814 0.13253532 -0.12605391 0.46389452 0.08693334 0.22538744 0.24072835 0.24423228 0.28833082 0.09669619 0.015303659 0.03810392 -0.17968427 0.05352287 -0.21036606 -0.49059278 0.030842597 0.21112557 0.013602674 0.28353864 -0.2166944 0.0370387 -0.50466764 -0.6196099 -0.22881353 0.040852055 -0.1576532 0.1592416 -0.16573444 -0.107191764 0.07888623 -0.27605766 -0.1361986 -0.17253716 0.10259581 -0.059940234 -0.11966562 0.1983259 0.17960277 -0.2933442 0.24852729 0.19248435 -0.14852902 -0.12945841 0.18097731 -0.15525757 0.04633492 0.012171957 -0.10931097 0.00084762333 -0.10758152 -0.16218331 -0.08623194 0.15410103 0.0022554316 0.3052742 -0.16986653 0.0938512 0.33634812 -0.055862427 0.1281629 0.20585985 -0.317017 -0.31577325 -0.050954822 0.08523294 -0.27727446 0.08441821 -0.18488948 0.06443037 0.035996184 -0.2951591 -0.6211061 0.022328455 0.040850453 -0.04431727 0.15719013 0.08238036 0.2974955 0.07911398 0.012250108 0.11577774 -0.08401267 0.20394823 0.16868989 -0.4289872 -0.09873957 -0.3465206 0.012046156 -0.29091766 -0.14412917 0.19744548 0.15624006 0.042704225 0.17787287 0.23938026 -0.09166345
ham 0.12829116 0.10254461 -0.0062319757 0.24830875 0.12943263 -0.10549362 0.46513486 0.08447573 0.2194112 0.2422301 0.23298511 0.29790166 0.11737879 0.032373883 0.03517657 -0.18273525 0.02181038 -0.20147324 -0.4782178 0.031714313 0.19766632 0.034057733 0.25971884 -0.18968575 0.0573484 -0.49079162 -0.6399827 -0.23837085 0.060587063 -0.14791739 0.17015916 -0.17312394 -0.114090346 0.06699734 -0.27415988 -0.1737418 -0.17270468 0.11437125 -0.061574817 -0.116815895 0.19541113 0.18317053 -0.2966256 0.25699008 0.19035782 -0.16267954 -0.12556483 0.17304002 -0.13809511 0.056298207 0.017641203 -0.100348815 -0.006606256 -0.08673183 -0.14897086 -0.07148481 0.14334421 0.0010294428 0.30467916 -0.17040643 0.08371035 0.34030282 -0.041787572 0.13435698 0.18912946 -0.31878057 -0.28988478 -0.04246222 0.07797506 -0.26106024 0.089937925 -0.18729493 0.0558724 0.037805066 -0.29034665 -0.62397295 0.009436038 0.0597641 -0.048217867 0.15233743 0.08905602 0.29743725 0.077076234 0.0049567427 0.07959034 -0.08018973 0.18107189 0.18091036 -0.43635672 -0.11858003 -0.3474223 0.00534627 -0.2729453 -0.13459048 0.19671342 0.14012952 0.049728297 0.18006279 0.24464586 -0.07234738
http://www.semanticweb.org/jake/ontologies/2021/2/jbrown/Is_located_in 0.19321708 -0.43625936 0.056613762 0.46639365 0.3830407 -0.20744757 0.71941555 -0.16340885 -0.11341877 0.07455441 0.26221967 0.026927963 -0.13960858 0.27479744 0.23616408 -0.29933804 -0.11624391 -0.37387192 0.08361618 -0.5904075 0.009820391 -0.24765992 0.38298917 0.28685877 0.0015220213 -0.6914264 -0.7961722 -0.15632465 -0.01310634 -0.22947028 0.09720044 0.16546594 0.47666305 0.14343998 -0.4232733 0.21088603 -0.68567646 0.57323825 0.0040022274 0.18448362 0.0032704088 0.4428888 0.65786713 0.14817342 0.24350712 -0.2645909 -0.22684044 0.10581787 0.13054004 -0.5832183 0.4887457 0.04103804 -0.6770946 0.11216879 0.22759157 0.20824587 -0.2510203 -0.071150534 1.0479336 -0.1599377 0.12315586 0.21882641 0.37485212 0.088826776 -0.37958792 -0.15404268 0.06530501 -0.1562528 -0.6762673 -0.16104731 0.008792404 0.10932466 -0.0074256724 0.12981746 0.23051758 -0.22560921 -0.48102102 0.5131567 -0.013758653 0.18707496 0.05705673 0.2505928 -0.48109782 0.28249943 0.14726447 0.19280836 0.12226152 -0.025534846 -0.19799322 -0.17100576 0.031508204 0.011807801 -0.44026554 -0.08854341 0.8406353 -0.13445927 0.2958057 0.21394634 0.008666877 0.060950503
http://www.semanticweb.org/jake/ontologies/2021/2/jbrown/Vegetarian_pizza 0.23302627 -0.17156178 -0.13100767 0.34542996 0.1601772 0.07177806 0.34140778 -0.07855725 0.3353176 0.27013355 0.12790573 0.12730142 0.17757654 0.2238726 0.09847674 -0.15601768 -0.13333125 -0.20511438 -0.060047343 -0.14322245 0.0828466 0.18664218 -0.04424848 0.04741444 0.107374236 -0.43635833 -0.5446549 -0.060042217 0.24533671 -0.046885237 0.3314685 0.09283244 0.09161095 0.06035067 -0.33444023 -0.15576932 -0.31875932 0.4684629 -0.046102736 0.0901927 -0.10278588 0.21449123 0.24133794 0.07081958 0.21383706 0.0033242935 -0.035428785 -0.08654644 0.032412875 -0.08434831 0.023700044 -0.12191986 -0.23677215 0.0690652 0.014295699 0.18648419 0.017569993 0.09069805 0.6052856 -0.014012508 0.29334933 0.32895762 0.060602847 0.037047558 -0.06004005 -0.12900786 -0.077693105 -0.09265312 0.024694461 -0.17501207 -0.08997021 0.036560446 -0.079018615 -0.1526796 -0.02507767 -0.3159991 0.017034663 0.22460207 -0.078079335 0.18836719 0.1378185 0.07087765 0.04805396 0.06931089 -0.029332574 -0.12290994 0.17496794 -0.12141422 -0.14803186 -0.26376072 -0.2569197 -0.109257355 -0.13682656 -0.21200368 0.20326203 0.080812484 0.016631622 -0.115060575 0.09163278 -0.12388768
dessert 0.099634066 0.0949031 -0.037414577 0.19392791 0.10748362 -0.053425115 0.46646312 0.07411735 0.16405644 0.21912657 0.20242372 0.3481253 0.16335833 0.09605342 0.01755555 -0.16365205 -0.055380654 -0.223834 -0.41252932 0.017193517 0.14762469 0.08380861 0.17481777 -0.11754978 0.09171079 -0.39786902 -0.64264756 -0.217132 0.06575308 -0.14469236 0.19304137 -0.15859884 -0.035430405 0.015395305 -0.26719105 -0.22513334 -0.16171174 0.14513668 -0.10071407 -0.067646705 0.18878776 0.1991634 -0.23717336 0.23111686 0.19381283 -0.15736216 -0.14569038 0.13620463 -0.1138866 0.039843783 0.03422344 -0.08051621 -0.08094365 -0.004662024 -0.066516936 -0.0023372485 0.07356867 0.0105993375 0.3167929 -0.18475172 0.02700395 0.2871655 -0.00706675 0.11894784 0.14984936 -0.32319987 -0.21066833 -0.012252992 0.03754829 -0.2393473 0.058846932 -0.20278352 -0.026243357 0.015266003 -0.26772875 -0.5895829 -0.07915962 0.16417383 -0.015785398 0.1549888 0.05212838 0.23896079 0.03343398 -0.006860064 0.01851861 -0.06581053 0.053420104 0.20626572 -0.4388429 -0.15423447 -0.31013104 -0.00296403 -0.23195599 -0.12234667 0.22309338 0.11140135 0.08374147 0.16408318 0.2492199 -0.018160352
http://www.semanticweb.org/jake/ontologies/2021/2/jbrown/Has_location 0.20333874 -0.45333192 0.05967221 0.49167067 0.39304814 -0.21861151 0.7258109 -0.16702883 -0.10660119 0.07120934 0.2772276 0.016668731 -0.14671673 0.27270553 0.24467295 -0.31733796 -0.12310344 -0.37879503 0.10013959 -0.6165663 0.008379328 -0.2577065 0.39109582 0.30163193 -0.015197434 -0.72236985 -0.8087683 -0.1683751 -0.011088888 -0.24041533 0.12178644 0.15744744 0.4769784 0.14998113 -0.43961293 0.20499884 -0.7226098 0.59845334 0.03209617 0.19031763 -0.0013037759 0.46990904 0.69807154 0.13662626 0.2604864 -0.26621768 -0.21603659 0.08783915 0.13158078 -0.59942335 0.5119935 0.034658175 -0.69888633 0.11455168 0.23741552 0.2237544 -0.25268555 -0.056566685 1.0888366 -0.1537994 0.14178954 0.22721027 0.39413843 0.09874833 -0.3913318 -0.15375485 0.05694096 -0.16538236 -0.69001037 -0.16531554 0.0063988217 0.13520794 -0.02545317 0.119630344 0.25406292 -0.22133711 -0.48748183 0.5199913 -0.01870485 0.18853612 0.06991853 0.25891572 -0.47930092 0.27694917 0.13432582 0.20694898 0.11656554 -0.04263397 -0.18955608 -0.16957816 0.030389814 -0.008023512 -0.44244704 -0.08193867 0.86067075 -0.12928998 0.2914703 0.22962835 0.005976726 0.06012286
http://www.semanticweb.org/jake/ontologies/2021/2/jbrown/Pizza_base 0.24378519 -0.2172976 -0.042571284 0.28902894 0.2109278 -0.019376565 0.41787112 -0.077621736 0.20476356 0.19518259 0.11411596 0.1712834 0.103726715 0.24530263 0.13146503 -0.09228146 -0.12571901 -0.26331842 -0.05855494 -0.23375754 0.08755558 0.103175506 0.045539867 0.043132477 0.089980416 -0.38912663 -0.5448606 -0.023494508 0.15274905 -0.102578714 0.2217807 0.10162596 0.14673412 0.03709233 -0.37670988 -0.08960588 -0.31131193 0.44260335 -0.108408526 0.13524276 0.012391744 0.18542218 0.29114872 0.0590211 0.18830685 -0.084628455 -0.032177594 -0.033439483 -0.014835041 -0.17618157 0.112356886 -0.13672878 -0.2507204 0.03586772 0.023465311 0.14165984 -0.025077902 0.008961502 0.6091929 -0.027537975 0.23404993 0.2891006 0.08533765 0.032884587 -0.056415442 -0.10181399 -0.055524237 -0.12066417 -0.14927912 -0.17982113 -0.104801804 -0.03900641 -0.02464024 -0.10040532 -0.037504666 -0.25087556 -0.0713362 0.30283445 -0.046025712 0.12364412 0.10991164 0.084141396 -0.10002536 0.15189199 0.049922235 -0.08526769 0.21025477 -0.08129192 -0.15834385 -0.2518056 -0.16616988 0.006634164 -0.20130427 -0.19480622 0.27243158 0.05044098 0.09265927 -0.046167586 0.05786461 -0.10787914
http://www.semanticweb.org/jake/ontologies/2021/2/jbrown/Seafood_pizza 0.27279687 -0.20828362 -0.13397317 0.37561885 0.19498836 0.1503308 0.32466665 -0.083878964 0.39413297 0.30102012 0.09860638 0.108675584 0.19655794 0.2699812 0.10009975 -0.16475189 -0.14660844 -0.18480475 -0.057406858 -0.119381435 0.05196919 0.19543292 -0.11690239 0.083815016 0.14186004 -0.44717935 -0.5391082 -0.041968543 0.27911752 -0.032374457 0.37919885 0.12568687 0.107401066 0.08797366 -0.3606572 -0.19808742 -0.3284147 0.52540135 -0.05981544 0.09776229 -0.1384262 0.20652391 0.21994561 0.064585626 0.2160494 0.04518717 -0.015639959 -0.16862895 0.06024196 -0.06457923 -0.0018874271 -0.21145006 -0.23897535 0.0766332 0.01053342 0.22649609 0.0035956674 0.12628567 0.6123086 0.0003217213 0.32443392 0.36811873 0.03433888 0.019807838 -0.06765148 -0.15286161 -0.052886605 -0.04099413 0.055085503 -0.15693092 -0.13643092 0.04432277 -0.13601337 -0.21271272 0.0066128485 -0.32011494 -0.006840574 0.23976752 -0.07904375 0.1858195 0.13300401 0.030366996 0.10926658 0.09568005 -0.05896217 -0.16228066 0.181261 -0.15175146 -0.14726904 -0.28981984 -0.29457557 -0.14220463 -0.08319939 -0.23542917 0.15199666 0.090403944 -0.021328855 -0.1788044 0.078394316 -0.13400584
comment 0.20267119 -0.14137624 0.004168569 0.25475952 0.2920429 -0.09010383 0.57811034 -0.0371283 0.0400101 0.10956779 0.11180298 0.27209428 0.040226158 0.20944618 0.08050126 -0.05671764 -0.05574054 -0.2767049 -0.19552945 -0.27514407 0.16382237 0.07640691 0.17921638 -0.05429686 -0.0011115146 -0.39948785 -0.5644821 -0.072275996 0.011299601 -0.17358106 0.10348553 0.0693192 0.17853437 -0.021003356 -0.29750678 -0.024471212 -0.1993443 0.2742747 -0.18660007 0.1701124 0.13687564 0.17989579 0.09045523 0.12468724 0.19759338 -0.24701844 -0.12118708 0.15269928 -0.06506532 -0.18873589 0.17203854 -0.11861469 -0.22079766 0.02239481 -0.011398316 0.051607985 -0.0053422945 -0.12998253 0.4973187 -0.109159045 0.08149152 0.16773078 0.026166517 0.07773906 0.020640913 -0.15739684 -0.081921265 -0.11120676 -0.25127974 -0.23291725 -0.038496166 -0.17803437 0.0633487 0.03537407 -0.1118934 -0.3393138 -0.16988312 0.37241945 0.027279973 0.08494643 0.014612513 0.2175374 -0.23447941 0.16654354 0.18083054 -0.0046659894 0.19582719 0.036967967 -0.2762842 -0.1385181 -0.12303492 0.16148785 -0.32566842 -0.23539315 0.35158354 0.0056363638 0.1733324 0.089163795 0.11175701 -0.033683784
some 0.15481026 -0.1644045 -0.024893833 0.2795116 0.27603757 -0.07484523 0.5415214 -0.08004546 -0.0032249107 0.11052759 0.11650474 0.24378194 0.04416607 0.20589225 0.07054524 -0.09646887 -0.07042945 -0.26281005 -0.06658611 -0.3190068 0.11265176 0.055762183 0.18326955 0.06593307 0.029578717 -0.40694767 -0.58791274 -0.066389024 0.022565844 -0.16801015 0.14718589 0.09012923 0.23738985 0.0029422014 -0.27854902 0.023335546 -0.25265685 0.32414398 -0.13459648 0.17625019 0.08641623 0.22304754 0.17749974 0.104358636 0.16091861 -0.22244217 -0.14900747 0.124054395 0.020555593 -0.2059512 0.26714942 -0.059174534 -0.3260323 0.054221142 0.037446767 0.12347576 -0.06750194 -0.11910534 0.5717075 -0.11389333 0.023073446 0.13903481 0.0935124 0.08739886 -0.099929504 -0.11981534 -0.0048027043 -0.11719741 -0.28567454 -0.16502345 -0.042096946 -0.12389475 0.036207244 0.04370121 -0.019491937 -0.3095946 -0.2531609 0.3914284 0.059187025 0.10126937 -0.008745861 0.1902106 -0.29290023 0.17180142 0.113522224 0.050253365 0.11679335 0.014625407 -0.24069306 -0.14381315 -0.106231466 0.1262741 -0.30372405 -0.19935419 0.42467126 -0.0592694 0.15331146 0.099136025 0.09997717 -0.00084031286
http://www.semanticweb.org/jake/ontologies/2021/2/jbrown/Margherita 0.19110577 -0.14484644 -0.1568175 0.34620157 0.12890679 0.11632564 0.30954087 -0.07806947 0.3853533 0.28568012 0.12813883 0.1393479 0.22827783 0.21696086 0.088689685 -0.1642899 -0.15385166 -0.18203521 -0.08203565 -0.11558099 0.08690341 0.2368947 -0.0748984 0.0454964 0.1367859 -0.44593865 -0.5666738 -0.088900745 0.26129633 -0.028049206 0.3689175 0.07453688 0.053837713 0.060559273 -0.3241334 -0.21178865 -0.31403092 0.47702417 -0.04633266 0.06354106 -0.11072477 0.20566721 0.19013464 0.07814308 0.22418132 0.022351373 -0.038508743 -0.10323822 0.03644555 -0.008198042 -0.0032877098 -0.11913089 -0.21902056 0.093834475 0.006775222 0.17814842 0.029837226 0.09759923 0.59314793 -0.0136926025 0.29440457 0.3458405 0.054068368 0.040464796 -0.043636523 -0.13307011 -0.0812526 -0.08828647 0.07125085 -0.14032577 -0.08309431 0.016413352 -0.082536705 -0.15693349 -0.031509813 -0.36345285 0.047763914 0.21292831 -0.08400909 0.20204668 0.13925076 0.07484333 0.073770046 0.034709718 -0.05579084 -0.12103713 0.16036507 -0.12004042 -0.17181443 -0.27946788 -0.31683397 -0.14156494 -0.104324445 -0.21851884 0.15400185 0.07356966 -0.021378633 -0.122298785 0.12812035 -0.13610272
http://www.semanticweb.org/jake/ontologies/2021/2/jbrown/State 0.2147441 -0.42709395 0.07608975 0.44500813 0.40357804 -0.20856713 0.70562947 -0.17357445 -0.083150625 0.08177193 0.26874694 0.042625323 -0.10727582 0.2774608 0.24250166 -0.29688227 -0.10480906 -0.3928333 0.051860757 -0.5893287 0.04029294 -0.22277533 0.3532025 0.27270973 -0.024408123 -0.6865246 -0.80869997 -0.15209483 0.004732125 -0.23293842 0.10421126 0.16553882 0.45381972 0.14689018 -0.4348944 0.24025784 -0.648368 0.5670959 0.017408498 0.20948032 0.0015653602 0.4313137 0.60087466 0.10525084 0.23223047 -0.26406097 -0.23140602 0.07182362 0.13788445 -0.5555727 0.49680912 0.040114537 -0.64195704 0.06811838 0.1845243 0.23987052 -0.22776632 -0.050850373 1.0027721 -0.144472 0.10735435 0.22031403 0.3526961 0.08921269 -0.37340555 -0.159537 0.05463817 -0.15884751 -0.63096845 -0.18529002 0.0021698002 0.0975811 -0.043331962 0.1400147 0.23143993 -0.2506797 -0.46707314 0.50911146 0.013865405 0.196547 0.022402115 0.24397688 -0.4288697 0.2680846 0.17253532 0.19758369 0.12336125 -0.032362424 -0.19421628 -0.17553023 0.00065979006 0.039698202 -0.42011306 -0.10447381 0.79170567 -0.11644218 0.27185664 0.22846647 0.017957991 0.055791456
http://www.semanticweb.org/jake/ontologies/2021/2/jbrown/Country 0.19276312 -0.41826105 0.07878323 0.4386445 0.40159103 -0.20907559 0.7105546 -0.16718102 -0.10679182 0.069837674 0.25273705 0.05228776 -0.111234106 0.27072752 0.23803662 -0.27423626 -0.10435365 -0.3833812 0.043694228 -0.57762384 0.041235935 -0.215379 0.36289248 0.26370883 -0.030510569 -0.66908544 -0.793931 -0.14537947 -0.009646741 -0.22705735 0.09580334 0.15905772 0.453186 0.14444628 -0.414107 0.23509519 -0.6269416 0.54046524 0.007082649 0.2048918 0.01791052 0.41675082 0.5825811 0.09769455 0.22812541 -0.27889812 -0.22724406 0.081342705 0.12838098 -0.5411635 0.4865037 0.03705026 -0.6182866 0.06424287 0.17424834 0.22680098 -0.2222372 -0.06310741 0.97020406 -0.15561228 0.08982412 0.19656765 0.3376929 0.090903975 -0.3623407 -0.15318467 0.051006958 -0.15631852 -0.624005 -0.17556658 0.010363823 0.06828019 -0.03060853 0.14083001 0.21583812 -0.2430199 -0.46990803 0.51610345 0.02457411 0.1895055 0.01169066 0.24627313 -0.4426346 0.2619038 0.18053968 0.19901352 0.11027786 -0.018684281 -0.19815734 -0.17099802 0.01697541 0.04453427 -0.42559177 -0.10519149 0.7835234 -0.11221627 0.26415917 0.22547366 0.016464235 0.05284008
http://www.semanticweb.org/jake/ontologies/2021/2/jbrown/City 0.203842 -0.44545218 0.07578572 0.45778182 0.39927214 -0.2149754 0.69483256 -0.1745869 -0.08580899 0.08104799 0.278395 0.012474648 -0.11056511 0.27987158 0.25898212 -0.3220809 -0.11483188 -0.3891777 0.06007174 -0.5969155 0.021632653 -0.23522696 0.35393006 0.29527086 -0.030816993 -0.7086931 -0.8167274 -0.15107425 0.002816352 -0.22264954 0.11270738 0.15561454 0.47067583 0.17005295 -0.44939741 0.23867442 -0.6893755 0.58911014 0.040804986 0.20459664 -0.013515071 0.45158786 0.6481142 0.095994055 0.24353695 -0.25284556 -0.22526759 0.046572614 0.14336517 -0.5769298 0.50000906 0.04467127 -0.6545961 0.073442064 0.20711073 0.24679132 -0.24230282 -0.02659206 1.0216807 -0.14388396 0.13085455 0.23242022 0.37962618 0.09362508 -0.40321204 -0.15578614 0.063523896 -0.1442634 -0.6458864 -0.18337868 0.0053960662 0.12695965 -0.04844664 0.1308399 0.25619006 -0.23573442 -0.46827206 0.50988334 0.006140587 0.20704615 0.027815595 0.23684536 -0.41937333 0.2541072 0.17126507 0.2045979 0.11037773 -0.044959273 -0.19032307 -0.18104632 0.006957348 0.0028973832 -0.41765398 -0.08595588 0.7942783 -0.10988007 0.26562896 0.2253063 0.010823552 0.050727222
http://www.semanticweb.org/jake/ontologies/2021/2/jbrown/Dessert_pizza 0.21159759 -0.17572701 -0.20045389 0.37688258 0.12964094 0.14384076 0.30199605 -0.122291155 0.42715168 0.29111013 0.109067865 0.13593128 0.25467277 0.24254884 0.097164154 -0.17764331 -0.19393393 -0.16464302 -0.0068585086 -0.15436494 0.053328913 0.30333748 -0.121517114 0.08574056 0.1759459 -0.47398168 -0.58598447 -0.06771817 0.31028402 -0.028414227 0.43070418 0.11600892 0.0981265 0.062052242 -0.35821885 -0.2256825 -0.33286875 0.55434066 -0.06642169 0.1149985 -0.17045939 0.23937143 0.26295015 0.06733663 0.22395144 0.060188048 -0.026882093 -0.14427142 0.0664362 -0.035480846 0.0026272894 -0.13011579 -0.27385727 0.10942897 0.028542338 0.23996063 -0.0019223518 0.12672599 0.66234356 -0.010380541 0.33760533 0.35651758 0.05706989 0.018930886 -0.09550135 -0.1150082 -0.052983165 -0.099220924 0.06262415 -0.13959806 -0.1272392 0.03919636 -0.10598037 -0.19700757 0.005228749 -0.33351555 0.04802653 0.24366273 -0.07786885 0.23799755 0.16725494 0.037326954 0.08023084 0.04346709 -0.06859164 -0.12794638 0.17384115 -0.18964745 -0.1581293 -0.32924858 -0.3229795 -0.15586162 -0.07969058 -0.25291649 0.15542129 0.07248518 -0.028097095 -0.17426193 0.12252537 -0.15774336
base 0.20405638 -0.07659606 0.008163343 0.23526736 0.28746396 -0.12057849 0.59898907 0.017649109 0.031968005 0.10988646 0.14473726 0.34247148 0.056092523 0.16804379 0.06703754 -0.04673799 -0.015683364 -0.25849837 -0.2825564 -0.19831723 0.20447797 0.06458219 0.23421413 -0.094341196 -0.007323489 -0.38228875 -0.5844078 -0.08524499 0.0021414536 -0.19152774 0.08299452 0.024070332 0.12644938 -0.028101744 -0.30367213 -0.030611452 -0.16681328 0.21245581 -0.19789317 0.13864776 0.19656934 0.15670915 -0.01867384 0.13369073 0.20747668 -0.27156872 -0.117598824 0.20453082 -0.09332228 -0.13076033 0.1600207 -0.10059689 -0.17535722 -0.015218547 -0.078401215 -0.0035203237 0.041297253 -0.15993184 0.41955793 -0.0942843 0.049900252 0.19351727 -0.041902393 0.085224 0.07159548 -0.2094615 -0.13401347 -0.12710394 -0.19338892 -0.24256217 -0.014871227 -0.23659429 0.07811836 0.055384353 -0.2027706 -0.4151383 -0.14511788 0.3353014 0.036758326 0.065313786 -0.011745756 0.25159162 -0.24181862 0.15573011 0.20212603 -0.023107158 0.19645375 0.09843497 -0.31586882 -0.12088683 -0.166574 0.19006222 -0.33985665 -0.23160355 0.34814882 0.042107467 0.1730758 0.13406946 0.114820965 -0.0481549
http://www.semanticweb.org/jake/ontologies/2021/2/jbrown/Ham 0.16328801 -0.14510448 -0.16968365 0.38147724 0.1113479 0.12032364 0.26121196 -0.09118216 0.43354285 0.3225254 0.1449736 0.101895355 0.2216193 0.18449831 0.07010464 -0.16803296 -0.080965154 -0.12899919 -0.13754307 -0.06696572 0.0808455 0.1880617 -0.035913892 0.031911828 0.16766739 -0.5180282 -0.56859463 -0.1120071 0.29752645 -0.0828566 0.42911658 0.033997543 0.033031046 0.09852214 -0.34066325 -0.22680421 -0.2845917 0.4864527 -0.036405902 0.00879095 -0.12929833 0.24667032 0.0812167 0.08439061 0.19740298 0.067055225 -0.02538866 -0.12624566 0.027022796 0.04130983 -0.0012207933 -0.20190637 -0.187031 0.06172166 -0.021916885 0.14185247 0.07231674 0.17284137 0.552989 -0.047564995 0.3088119 0.38794586 0.010448152 0.0341477 -0.03187579 -0.18332116 -0.1256549 -0.074794985 0.13826637 -0.16308008 -0.06493908 0.03675019 -0.058150876 -0.15960394 -0.06861326 -0.40355796 0.081065275 0.11776903 -0.06271787 0.20433861 0.14954305 0.051853783 0.09943028 0.03595204 -0.059647862 -0.110022694 0.21994112 -0.1277609 -0.19150048 -0.24558508 -0.4034466 -0.15549868 -0.08606848 -0.21393646 0.10102587 0.07181426 -0.030953335 -0.14025417 0.14065178 -0.1521588
tuna 0.1913877 0.059589583 0.021422608 0.27747747 0.12717967 -0.043780446 0.39120492 0.10760055 0.30995303 0.26951393 0.23301391 0.21922198 0.14295831 0.06607627 0.057105403 -0.21606867 0.024032228 -0.18153132 -0.45889854 0.039877318 0.16759224 0.014580079 0.18239906 -0.16562387 0.039898388 -0.4848742 -0.5925717 -0.19006473 0.11075322 -0.093903124 0.2033884 -0.12773494 -0.10058818 0.1139524 -0.28097013 -0.20177862 -0.24746315 0.18205585 -0.008828038 -0.11107567 0.11886367 0.18628994 -0.20156068 0.2160718 0.21465887 -0.0533015 -0.086585835 0.07216437 -0.11323351 0.040363085 -0.056063738 -0.14466284 -0.011424893 -0.07041996 -0.14176404 -0.014310156 0.13570191 0.07198993 0.38066477 -0.13525338 0.18477917 0.37649533 -0.035866346 0.10407006 0.17563123 -0.33698243 -0.27814117 -0.00025347524 0.1497608 -0.26422086 0.057499994 -0.10354734 -0.020987004 -0.042066343 -0.23373328 -0.583674 0.061346695 0.037667226 -0.08026739 0.19609658 0.09854921 0.22944039 0.17812575 0.0021306658 0.06482638 -0.14772604 0.1679953 0.120020404 -0.3562758 -0.13412836 -0.33249283 -0.08466677 -0.24455799 -0.11628774 0.14191091 0.20427184 0.035646595 0.11955259 0.20168594 -0.10662755
anchovy 0.1890486 0.049577486 0.011697664 0.27902925 0.12621863 -0.028033545 0.38367656 0.09729574 0.30270442 0.27174678 0.22570568 0.21182443 0.13937151 0.06709426 0.05453753 -0.21016578 0.02248679 -0.1842127 -0.43419078 0.03851828 0.15321523 0.02523424 0.17182317 -0.15665571 0.037229415 -0.4807498 -0.57935476 -0.18403563 0.11981588 -0.09452242 0.20383635 -0.12009426 -0.08885456 0.11234132 -0.2754335 -0.1975558 -0.23574512 0.19372714 -0.02146043 -0.10859778 0.107488446 0.18026592 -0.18882488 0.21694732 0.21009019 -0.04967877 -0.07932884 0.06310599 -0.10881839 0.04092837 -0.055993956 -0.14448503 -0.02177884 -0.06825341 -0.13565375 -0.014422795 0.12432461 0.07010639 0.38117743 -0.12765478 0.1871375 0.3764862 -0.028530404 0.10600187 0.16247407 -0.32595128 -0.27325016 -0.006093359 0.14854345 -0.2556263 0.04768592 -0.09329962 -0.024775244 -0.05330937 -0.22633547 -0.56300265 0.058826435 0.035387173 -0.07315487 0.19358999 0.092943944 0.22471482 0.17868213 0.008193826 0.062752046 -0.14136758 0.17091337 0.10492512 -0.3501926 -0.13050479 -0.32433656 -0.08693495 -0.23571451 -0.12409616 0.1314805 0.19808654 0.02609665 0.10308754 0.19962038 -0.10689253
mozzarella 0.14880466 0.013444083 -0.013829075 0.22975597 0.14950351 -0.06279679 0.4578611 0.053408615 0.14447282 0.17940804 0.18642893 0.29931095 0.11824553 0.10645801 0.04862155 -0.12567988 -0.020372111 -0.21130942 -0.33361134 -0.061091654 0.16437776 0.072921336 0.17941155 -0.10282677 0.03315382 -0.40569082 -0.58426607 -0.1534257 0.04034383 -0.111479804 0.14292593 -0.07374832 3.462279e-05 0.01907298 -0.25144058 -0.13247861 -0.18715258 0.16108747 -0.10327202 -0.01236614 0.15298207 0.17567581 -0.1276369 0.200979 0.19047882 -0.16684394 -0.13703606 0.15806437 -0.09210998 -0.003228451 0.062403753 -0.06113152 -0.10691441 -0.02504186 -0.07022667 -0.012454811 0.07019184 -0.039065044 0.3702553 -0.13765435 0.05675968 0.2535409 -0.017654732 0.09423737 0.1056142 -0.25376877 -0.19466893 -0.06291046 -0.0121029625 -0.21396415 0.04095761 -0.18091506 0.015033572 0.025672786 -0.21675341 -0.4839912 -0.0661569 0.18160096 -0.016391974 0.13906983 0.026831659 0.24797976 -0.026364828 0.03644123 0.09927673 -0.063264355 0.11813641 0.13693249 -0.34495378 -0.12303481 -0.25523132 0.046288446 -0.26263142 -0.1431503 0.24012682 0.083984494 0.081174545 0.13842744 0.18678772 -0.04745734
sardine 0.20575264 0.06431934 0.013807975 0.278151 0.13188761 -0.032865576 0.3881629 0.10631722 0.3198268 0.2735902 0.2387555 0.21495056 0.13552813 0.056989186 0.06280382 -0.21708193 0.034332737 -0.18120778 -0.46279487 0.055399045 0.16729794 0.00816375 0.17882983 -0.17078009 0.029328039 -0.48730844 -0.5831462 -0.18484648 0.11495911 -0.084903695 0.19980116 -0.13260658 -0.11209102 0.12039923 -0.27291438 -0.19889118 -0.24452765 0.1772832 -0.011457828 -0.11929128 0.11500441 0.18174598 -0.21056381 0.22173189 0.21195582 -0.05300076 -0.08663636 0.065515906 -0.11618879 0.044617634 -0.05984986 -0.14172886 -0.002359787 -0.0849727 -0.14248298 -0.02508439 0.14267363 0.07609427 0.3727266 -0.12787952 0.19152798 0.38552466 -0.042849883 0.10381679 0.17706022 -0.33755997 -0.28683215 0.0026842675 0.16867258 -0.2702784 0.066721566 -0.09414115 -0.017338557 -0.05254177 -0.23457508 -0.5831224 0.07368374 0.023606498 -0.08870718 0.19669403 0.09353545 0.22073399 0.19137004 0.007553618 0.065269396 -0.15078147 0.17599553 0.10994883 -0.34679556 -0.13160038 -0.32772502 -0.08915552 -0.23731047 -0.119931646 0.12227755 0.20710212 0.02635242 0.10503794 0.20161253 -0.11437097
crab 0.1959105 0.06466975 0.020254064 0.27659157 0.13193616 -0.044434458 0.3898252 0.10299079 0.29768842 0.27084628 0.24005443 0.21289091 0.1300685 0.06206214 0.055017047 -0.21314448 0.025495157 -0.18646203 -0.45861483 0.041107412 0.16366063 0.019312093 0.18765774 -0.16871692 0.029754085 -0.48383352 -0.59196997 -0.18894385 0.11103688 -0.09069023 0.19620958 -0.13352437 -0.09376978 0.10995101 -0.28291565 -0.19718534 -0.23972912 0.17743248 -0.008265262 -0.10634871 0.11647544 0.17940086 -0.20586747 0.21628147 0.21145621 -0.062740244 -0.085931696 0.07712199 -0.11461473 0.03726409 -0.057985205 -0.14504889 -0.012864257 -0.08180653 -0.13807228 -0.013682936 0.13073987 0.072311744 0.37574095 -0.13005818 0.18479665 0.38259742 -0.035861216 0.10677492 0.18039481 -0.3267906 -0.2777861 -0.0039727213 0.15106149 -0.26302826 0.06160916 -0.10268312 -0.017536445 -0.044484973 -0.23948091 -0.5791212 0.058799665 0.030763961 -0.075459756 0.19648129 0.0975427 0.22829773 0.18249157 0.0056284815 0.069071166 -0.14867929 0.17496058 0.11754699 -0.35096303 -0.12647666 -0.3212068 -0.08468292 -0.2398027 -0.12406464 0.13829592 0.20406447 0.029980281 0.11141551 0.1943421 -0.1067056
pancetta 0.18518856 0.083458915 0.0037696594 0.29598382 0.093466476 -0.102351844 0.34112167 0.088778555 0.3803254 0.31188208 0.28025106 0.15672547 0.12172717 -0.022673728 0.070982 -0.25636718 0.0697761 -0.15809618 -0.5081014 0.10111976 0.1920772 -0.017382601 0.2518473 -0.23409104 0.055244356 -0.5845385 -0.60176814 -0.2507512 0.13517375 -0.12530869 0.24209142 -0.18904231 -0.1932859 0.16136613 -0.30462688 -0.18556482 -0.24647126 0.16683829 0.035639413 -0.20105864 0.12383452 0.20207995 -0.26657787 0.23844212 0.20838486 -0.0404271 -0.06415949 0.08404944 -0.14588305 0.07152651 -0.090135604 -0.15073527 0.033957448 -0.13014293 -0.17967398 -0.081607334 0.19844572 0.11982517 0.35912475 -0.1388256 0.25369892 0.45511132 -0.033794504 0.11698691 0.20442171 -0.34701863 -0.37490907 -0.03699809 0.22818017 -0.30297315 0.08874193 -0.054022674 0.035465006 -0.0140710855 -0.27635697 -0.6462297 0.1681297 -0.08230887 -0.11521722 0.20910326 0.17223346 0.26460153 0.25489712 -0.024847018 0.080516465 -0.14549729 0.26331925 0.09397086 -0.37835258 -0.12993914 -0.42304274 -0.12064529 -0.2523286 -0.12440973 0.10922875 0.22080953 -0.010075433 0.12526451 0.23546836 -0.15626602
oyster 0.20643307 0.065072395 0.014922423 0.28675184 0.13282485 -0.03686608 0.39852977 0.11001325 0.31773183 0.27929 0.2384819 0.21505503 0.13443403 0.063817754 0.06450135 -0.2227893 0.030973423 -0.1817395 -0.46610427 0.048883196 0.1653596 0.015585946 0.1761437 -0.1682678 0.028921567 -0.492779 -0.6029615 -0.19353235 0.11292312 -0.09187068 0.19944124 -0.13272284 -0.10367834 0.11950799 -0.27886072 -0.20752567 -0.24831279 0.18377191 -0.011811216 -0.11153249 0.12090208 0.18226449 -0.21519141 0.21863882 0.22189087 -0.051569846 -0.083669126 0.068985656 -0.11936323 0.0422563 -0.06009191 -0.14390993 -0.008050393 -0.07923014 -0.1469867 -0.012404932 0.131064 0.07930233 0.37597615 -0.13120186 0.18523955 0.38587505 -0.036464572 0.11078244 0.18642798 -0.3416024 -0.28968465 -0.0019600163 0.15713973 -0.26829597 0.060591914 -0.095988564 -0.019206064 -0.046646647 -0.24141747 -0.58862495 0.06036225 0.028433356 -0.08089901 0.19713984 0.099117294 0.2270503 0.19545321 0.0014675029 0.066999175 -0.15514654 0.17967555 0.11547677 -0.35525525 -0.13663405 -0.3317652 -0.086402334 -0.24863487 -0.12566203 0.1308948 0.20930313 0.030211342 0.110180266 0.19824119 -0.11322371
salmon 0.196705 0.07048805 0.02241659 0.28063348 0.12908997 -0.037608877 0.39022213 0.1106567 0.31562588 0.278868 0.24932662 0.21473257 0.13892238 0.06243209 0.053469446 -0.22237214 0.02472445 -0.1789442 -0.47432172 0.052793223 0.16541576 0.009797182 0.18244955 -0.1774405 0.03266912 -0.48694915 -0.60216486 -0.20084795 0.113329016 -0.09206601 0.19867957 -0.14215688 -0.10752163 0.11840769 -0.2805512 -0.21562243 -0.24835019 0.17135291 -0.009702532 -0.12421879 0.12208379 0.18248068 -0.21667546 0.23206359 0.21516065 -0.048648935 -0.0866789 0.071097136 -0.11438688 0.04384354 -0.06928013 -0.14688551 -0.0024114316 -0.08425317 -0.14088178 -0.011263397 0.14114211 0.082839005 0.3767785 -0.12998825 0.1909031 0.38883403 -0.035944425 0.112734504 0.18558308 -0.34751797 -0.29150277 0.005939108 0.16882592 -0.27294576 0.069178365 -0.09813704 -0.02570219 -0.046227325 -0.24187028 -0.59727657 0.06571987 0.022772038 -0.08162621 0.20299104 0.10053079 0.23423624 0.19995438 -0.004905692 0.06398709 -0.15495223 0.1680626 0.12844627 -0.35872382 -0.12319403 -0.32866386 -0.088652 -0.24048814 -0.11505527 0.13337554 0.21442214 0.023178928 0.122903556 0.21022227 -0.11609216
chorizo 0.18966919 0.0771573 -0.0004239913 0.30026606 0.100856744 -0.08843624 0.33971673 0.08898232 0.39662322 0.32381073 0.27317747 0.16292298 0.12715767 -0.015471611 0.06257287 -0.2505676 0.06633316 -0.16762479 -0.5081695 0.09571558 0.18174623 0.00015257511 0.22911704 -0.22656985 0.06304319 -0.5703952 -0.6037432 -0.25572863 0.14384755 -0.120819926 0.24479572 -0.17603663 -0.18742844 0.15327902 -0.31080016 -0.1926593 -0.24871661 0.17421843 0.03381019 -0.18945168 0.1081522 0.20043124 -0.256742 0.23975395 0.20830089 -0.031918358 -0.060044214 0.06540551 -0.14007552 0.071447924 -0.09420116 -0.16281232 0.0350837 -0.12871955 -0.18089026 -0.06919064 0.20004374 0.13026127 0.36834735 -0.12706932 0.24951972 0.46081 -0.035953905 0.11375061 0.20033906 -0.34756207 -0.36265618 -0.038385276 0.22552632 -0.30418766 0.07429234 -0.060741473 0.018662764 -0.027936375 -0.263677 -0.6528363 0.16865726 -0.07513053 -0.11818332 0.20797169 0.17249663 0.2564482 0.257367 -0.028159823 0.060942583 -0.14708015 0.25819847 0.08775901 -0.37193078 -0.13730898 -0.423778 -0.12371973 -0.2390424 -0.12756388 0.103591174 0.22290398 -0.010334823 0.10933311 0.23558968 -0.1496818
mussel 0.1873376 0.08336832 0.028658492 0.2764549 0.11752577 -0.050121948 0.39337298 0.12624219 0.3118274 0.27985463 0.25585908 0.22359246 0.14367396 0.04480186 0.05421754 -0.22674032 0.03765672 -0.18737376 -0.50496924 0.066819064 0.17142986 -0.0017055039 0.20383778 -0.19573167 0.028836401 -0.4917887 -0.60924715 -0.20331068 0.10703218 -0.088415846 0.19184713 -0.15226139 -0.12766191 0.11944067 -0.27465308 -0.21865664 -0.23955025 0.15732054 0.0018302582 -0.13215885 0.14139387 0.18041086 -0.23868033 0.23908354 0.22168721 -0.06335681 -0.08645846 0.08639693 -0.13236225 0.05062659 -0.072215505 -0.12963602 0.0062824115 -0.08866644 -0.15980494 -0.037416905 0.14665431 0.07253306 0.3584926 -0.14211205 0.18210542 0.39693674 -0.0375495 0.11257172 0.2053994 -0.35552013 -0.31077188 0.0011451007 0.17593302 -0.27913243 0.08161095 -0.10468405 -0.014569823 -0.03031079 -0.26208752 -0.62154794 0.07921242 0.011972979 -0.08632369 0.20011213 0.09721085 0.25268918 0.20312047 -0.010286059 0.07510943 -0.15577057 0.17900507 0.14565445 -0.37099376 -0.123755656 -0.3400733 -0.09128718 -0.25473154 -0.10819411 0.1275917 0.22064328 0.030269563 0.13796924 0.21551473 -0.116456196
shrimp 0.20033889 0.050328698 0.014380391 0.2753826 0.13729838 -0.02340472 0.38550884 0.103537284 0.3101147 0.27082056 0.2228676 0.2072114 0.1416879 0.06910326 0.05682045 -0.2102961 0.018309833 -0.18667841 -0.43740085 0.036908075 0.15817964 0.025446258 0.16361946 -0.16042969 0.038743794 -0.47168398 -0.58221316 -0.17683274 0.11926741 -0.085083656 0.20233323 -0.11373763 -0.092129156 0.11581835 -0.279129 -0.2066117 -0.2420291 0.18557587 -0.0143407015 -0.09870801 0.10809082 0.17638864 -0.19016735 0.20719004 0.21115096 -0.05586089 -0.08255796 0.05763993 -0.10487152 0.034508616 -0.055072766 -0.15151969 -0.020732522 -0.06479596 -0.13219677 -0.007420543 0.12242274 0.078700155 0.3789043 -0.12478672 0.1849528 0.38049918 -0.038537525 0.10303408 0.17037176 -0.32460013 -0.2667338 0.0047310754 0.14846824 -0.25970235 0.044007212 -0.09195654 -0.026410023 -0.053126708 -0.2225508 -0.56547886 0.052332237 0.03647616 -0.07669249 0.1924557 0.09390882 0.21061815 0.17840116 0.017886681 0.0578727 -0.15039088 0.16709788 0.11156583 -0.34820443 -0.13742964 -0.32895663 -0.08252191 -0.23449302 -0.12425102 0.12909772 0.19769196 0.026208404 0.101636104 0.19631366 -0.11239939
http://www.w3.org/2000/01/rdf-schema#comment 0.18401389 -0.23291697 -0.056452602 0.32418635 0.18610731 -0.022214117 0.39656508 -0.09573412 0.17783713 0.15475895 0.1342501 0.10489505 0.08440872 0.22292748 0.11903962 -0.14575413 -0.12448151 -0.22358097 -0.037658576 -0.2633753 0.05870228 0.057966314 0.05022103 0.09720475 0.08410823 -0.43124998 -0.54582995 -0.06379277 0.14006305 -0.08900911 0.22149822 0.101498924 0.17410824 0.042749032 -0.3420068 -0.072789945 -0.36656842 0.4525059 -0.041205548 0.13343361 -0.031636536 0.22107731 0.30991772 0.08500509 0.19628263 -0.090847895 -0.055317678 -0.023437332 0.027158346 -0.18027487 0.1351232 -0.076818146 -0.29033935 0.055847947 0.080307 0.15520996 -0.049330283 0.006449568 0.6260815 -0.041233633 0.22570097 0.25222903 0.12755735 0.030112866 -0.10926313 -0.104669385 -0.026580505 -0.111032814 -0.19380146 -0.16051474 -0.088065185 0.02138987 -0.05686232 -0.055088066 0.030523302 -0.26333913 -0.10525929 0.31616405 -0.036140643 0.15790084 0.099335276 0.12198042 -0.10674351 0.12380085 0.025412839 -0.033979822 0.1546775 -0.075929284 -0.14256789 -0.22412357 -0.15489866 -0.043695528 -0.20570247 -0.15938555 0.33103925 0.0074467734 0.09128397 -0.004823503 0.07221434 -0.06584296
http://www.semanticweb.org/jake/ontologies/2021/2/jbrown/Beef 0.21302243 -0.13833746 -0.10426574 0.37218225 0.17648679 0.09297804 0.28307873 -0.050690077 0.3621281 0.27580625 0.12867112 0.08798216 0.18657424 0.22265211 0.06833459 -0.17724732 -0.06484918 -0.12614724 -0.12056543 -0.10732732 0.056630228 0.13371398 -0.0031362798 0.013063894 0.11172802 -0.48314765 -0.5319034 -0.0914601 0.24698173 -0.100240186 0.34323716 0.034309164 0.08559769 0.094146855 -0.33284956 -0.18393742 -0.27974278 0.46023816 -0.023751311 0.008956584 -0.06556026 0.23510271 0.13476172 0.06515856 0.19831222 0.068369135 -0.041231904 -0.10324184 0.008681801 -0.06361908 0.028821258 -0.1845527 -0.20149107 0.03393915 0.0005801402 0.14582923 0.065241374 0.14963606 0.58770055 -0.027261779 0.30666292 0.37442315 0.020273522 0.032642357 -0.04284067 -0.19341539 -0.11854601 -0.07880014 0.0630833 -0.21744843 -0.09347735 0.041690208 -0.068771526 -0.14701612 -0.044271547 -0.38924655 0.05611513 0.1838647 -0.06196385 0.2076075 0.13593267 0.048879396 0.09007681 0.0586744 -0.00954462 -0.12890759 0.23999041 -0.12505992 -0.18358035 -0.22789241 -0.3003155 -0.131831 -0.14668687 -0.21765792 0.12753636 0.07360516 0.0028803435 -0.10390722 0.113011815 -0.14722446
salami 0.1880586 0.07335973 0.00015636517 0.2924289 0.091946214 -0.094781175 0.33052418 0.080008075 0.39176145 0.31402552 0.27592176 0.16103785 0.117438436 -0.01506314 0.07131333 -0.25521353 0.0616281 -0.16021962 -0.49940506 0.095980145 0.19074225 -0.0077246544 0.22865067 -0.22260556 0.056953985 -0.5782433 -0.59061855 -0.24529341 0.14786966 -0.12099706 0.2457132 -0.17688602 -0.18530144 0.14949347 -0.30775613 -0.1838233 -0.2515895 0.17453165 0.039936572 -0.18662325 0.11306707 0.2014723 -0.25434443 0.22811058 0.20231278 -0.031795103 -0.06384713 0.070853524 -0.14358577 0.07077131 -0.088340275 -0.14966226 0.034653764 -0.12582445 -0.17531428 -0.0734693 0.19469187 0.12032516 0.36514965 -0.13342841 0.25598297 0.45696297 -0.034526516 0.11163707 0.19647354 -0.33706617 -0.3527822 -0.039513 0.22508644 -0.28910327 0.07322037 -0.05015526 0.028809285 -0.021391205 -0.26821005 -0.64020723 0.16041929 -0.08339017 -0.12246081 0.2122503 0.17838627 0.25572136 0.24763739 -0.025292093 0.06569982 -0.13863964 0.26156983 0.077167615 -0.36430752 -0.13561207 -0.42481592 -0.118746586 -0.23807956 -0.12806733 0.09845313 0.22149132 -0.01344792 0.11411442 0.23236752 -0.1566296
prosciutto 0.19220848 0.09650179 0.005512772 0.30108696 0.08623233 -0.10668783 0.3473888 0.09663026 0.40123773 0.32509458 0.30350038 0.16829292 0.1245992 -0.036466025 0.06707308 -0.26959193 0.07199333 -0.17023505 -0.53955644 0.11180698 0.2078802 -0.020119553 0.26106736 -0.25300613 0.04996423 -0.60911906 -0.62376314 -0.2738364 0.14351797 -0.12138599 0.2442638 -0.19570059 -0.2087322 0.16208963 -0.32395798 -0.19721447 -0.25844133 0.15832283 0.04488043 -0.21513245 0.12787302 0.21336773 -0.28948134 0.2561797 0.2196877 -0.041117944 -0.06340605 0.08134173 -0.16203028 0.08250124 -0.10175028 -0.15611337 0.045940157 -0.14242522 -0.201203 -0.0851677 0.21784455 0.12826006 0.37067854 -0.14107595 0.26904723 0.47712618 -0.037148137 0.120227136 0.2156037 -0.3614254 -0.3915929 -0.041738912 0.24125339 -0.3152297 0.095893614 -0.05192534 0.03222393 -0.016099775 -0.2914481 -0.6768532 0.18434913 -0.09832265 -0.1252306 0.21618187 0.19135615 0.27964273 0.26989764 -0.032109115 0.0769003 -0.15094556 0.2806676 0.09611034 -0.3870907 -0.12899505 -0.44696122 -0.124966815 -0.25793755 -0.12083868 0.10326813 0.23808788 -0.013646838 0.124949306 0.24511684 -0.16053972
sausage 0.19011295 0.08127343 0.0027161387 0.2953608 0.09495382 -0.09660017 0.33791277 0.08491602 0.38549238 0.31661323 0.28423822 0.15249176 0.11756513 -0.017720032 0.0647402 -0.25906107 0.06789285 -0.1693345 -0.5114066 0.09765517 0.19369943 -0.012175433 0.24412079 -0.22615719 0.052894276 -0.59129 -0.60330313 -0.2614727 0.13677855 -0.12205043 0.23880176 -0.18190487 -0.18776001 0.16028155 -0.3178979 -0.18247119 -0.25096977 0.16967781 0.04245071 -0.1927854 0.12292195 0.20576522 -0.26477802 0.24145217 0.20741795 -0.03218879 -0.06699825 0.07935231 -0.14122225 0.0678353 -0.08706792 -0.15336876 0.035518307 -0.13689664 -0.18414192 -0.07785841 0.19684987 0.12522212 0.36443982 -0.1273294 0.25206897 0.46672526 -0.035695404 0.11570288 0.19506553 -0.3480755 -0.36500242 -0.042405933 0.21553713 -0.3049149 0.08232816 -0.050887827 0.033613984 -0.016762294 -0.26694062 -0.64881384 0.16344935 -0.079970255 -0.12182756 0.21539623 0.17833017 0.26620317 0.25037074 -0.024730226 0.07810379 -0.14230984 0.2636249 0.085919395 -0.37717637 -0.12502433 -0.42545795 -0.11967232 -0.25434 -0.12544945 0.11383721 0.22725421 -0.015273348 0.115414746 0.23468824 -0.15745014
pineapple -0.026392655 0.20837033 -0.062426936 0.11408927 0.127906 -0.07673922 0.5845113 0.1256493 0.039239146 0.18054527 0.19528952 0.5429829 0.21093598 0.14046927 -0.030431287 -0.16766751 -0.1384442 -0.31481925 -0.5450604 0.028636271 0.1893036 0.12382097 0.23416902 -0.13653257 0.17413804 -0.38209966 -0.77610654 -0.28611523 0.016830463 -0.20660272 0.19180904 -0.27978152 -0.012559583 -0.094686665 -0.29471567 -0.33631882 -0.06332407 0.10652441 -0.23197755 -0.104537025 0.30733854 0.21619608 -0.41789195 0.32510427 0.21055472 -0.28855997 -0.23115517 0.21453539 -0.13523951 0.060677245 0.08047154 -0.061296668 -0.10391467 0.060961574 -0.03893957 -0.04111683 0.025314465 -0.04594773 0.25202543 -0.2778045 -0.17815055 0.27943364 0.017238926 0.17343315 0.19140744 -0.42382082 -0.1973112 0.050032757 -0.024700131 -0.26232997 0.078165874 -0.40481606 -0.052380074 0.08090947 -0.37826696 -0.72181356 -0.24593648 0.28436124 0.041457567 0.12947842 0.027638068 0.31468132 -0.079196006 -0.017404897 -0.06284661 -0.025795983 -0.054908797 0.42453164 -0.65942276 -0.163031 -0.3680674 0.06934102 -0.2555186 -0.1128631 0.31525 0.06917872 0.16882735 0.28235218 0.35917124 0.045169003
http://www.semanticweb.org/jake/ontologies/2021/2/jbrown/Dessert_topping 0.17169578 -0.13744754 -0.18090068 0.3621539 0.122253716 0.13241887 0.32259443 -0.107281365 0.39253262 0.27672595 0.10698367 0.1549512 0.23621984 0.21059772 0.06429968 -0.17097859 -0.17897774 -0.14381662 -0.035513524 -0.13407744 0.053549055 0.30457744 -0.090989694 0.09333538 0.17413247 -0.44575876 -0.55461055 -0.06062834 0.28780657 -0.06665984 0.43139905 0.088973425 0.08994982 0.04323253 -0.3195485 -0.22642854 -0.29690084 0.51147217 -0.06487833 0.117149495 -0.12254308 0.24173707 0.17917655 0.09441353 0.19512428 0.0539363 -0.017476534 -0.126806 0.07405325 -0.006167148 0.013234789 -0.108267486 -0.25840783 0.10905453 0.023493597 0.21400677 0.00665824 0.10778581 0.61494476 -0.01734085 0.3141735 0.3291981 0.04696721 0.019543413 -0.082689464 -0.14292656 -0.061057918 -0.06799426 0.048005078 -0.15142882 -0.12538745 0.00038699555 -0.11453415 -0.16193411 -0.03682814 -0.35987085 0.039166585 0.26655313 -0.041774347 0.23681626 0.14433351 0.061929855 0.07005429 0.03575272 -0.0607514 -0.124181874 0.16246064 -0.16643667 -0.17772318 -0.29377672 -0.3155433 -0.12425706 -0.085551456 -0.2534228 0.1644758 0.059891168 -0.022779886 -0.15548332 0.12404706 -0.14338455
bacon 0.18662427 0.07192333 0.0016999654 0.2966759 0.09894671 -0.10470255 0.3428152 0.08233356 0.38188183 0.31829002 0.2857174 0.16189824 0.11341212 -0.022481287 0.065111876 -0.24994598 0.07471651 -0.15994918 -0.50914925 0.09565596 0.19860049 -0.009561376 0.2511737 -0.23350483 0.052435935 -0.58096915 -0.6073829 -0.2581919 0.13306127 -0.1312263 0.2338232 -0.1809303 -0.18820906 0.1528043 -0.31098297 -0.17986459 -0.2446325 0.17435817 0.037143264 -0.19287495 0.1262588 0.21106818 -0.26085135 0.2330052 0.2083757 -0.04505536 -0.06851343 0.08360738 -0.15099438 0.07191249 -0.08709801 -0.153328 0.0381548 -0.13073136 -0.18308263 -0.0834528 0.1946337 0.12334821 0.36610663 -0.1394481 0.24592909 0.46005523 -0.035459723 0.11764805 0.19613707 -0.342426 -0.36556578 -0.04202398 0.21176685 -0.3027843 0.08732884 -0.058775794 0.04184373 -0.015151973 -0.26952168 -0.6542407 0.16051541 -0.08197234 -0.11883822 0.2025042 0.17687571 0.2686734 0.23822698 -0.020346016 0.0832116 -0.1453765 0.2668253 0.08323017 -0.38197324 -0.122576155 -0.42248484 -0.112773664 -0.25763467 -0.13124284 0.11557869 0.22248018 -0.011456654 0.124844134 0.23573516 -0.15121609
miscellaneous -0.12701531 0.35011518 -0.112363145 0.054749947 0.108521014 -0.051825065 0.53971773 0.1810581 0.12932958 0.26513535 0.28307799 0.6149068 0.35218325 0.19089444 -0.04813399 -0.31600702 -0.20968388 -0.4265949 -0.70516384 0.10503431 0.23003869 0.124999925 0.24887554 -0.17789894 0.29144534 -0.43846697 -0.9139252 -0.38666064 0.08162485 -0.24132968 0.37728918 -0.45655566 -0.09678589 -0.08749955 -0.36050168 -0.60444564 -0.09210534 0.1486174 -0.23737666 -0.27836153 0.31150422 0.28748614 -0.5985141 0.37631074 0.21751802 -0.18185613 -0.25107864 0.120093495 -0.16845115 0.08352234 -0.07212053 -0.062651075 -0.0795407 0.11119176 -0.07663283 -0.010093471 -0.014753866 0.10317868 0.26951867 -0.31389278 -0.18272881 0.43443322 0.09231456 0.24934441 0.22812435 -0.6251072 -0.272404 0.1349106 0.16417776 -0.31622863 0.041398168 -0.4689725 -0.17285605 0.026524138 -0.48477262 -0.95289755 -0.28097776 0.22748452 0.017871808 0.2807205 0.123475224 0.2943443 0.014926762 -0.12846546 -0.2388525 -0.08552847 -0.1570836 0.5646034 -0.88076144 -0.31830344 -0.6042145 -0.10620861 -0.20457187 -0.052021295 0.32323667 0.17383365 0.23377648 0.27128258 0.5142603 0.024623238
vegetarian -0.0716281 0.30492952 -0.12950328 0.042200677 0.031915028 -0.051427905 0.52653986 0.20578076 0.18843588 0.27792394 0.24209547 0.61738133 0.33402178 0.107604414 -0.018899448 -0.30487886 -0.24318448 -0.35440078 -0.7564156 0.2280037 0.17954564 0.18841012 0.19309646 -0.18138957 0.31519163 -0.4890955 -0.9396054 -0.4545706 0.12720588 -0.27236706 0.30519566 -0.48753855 -0.057434145 -0.12914065 -0.43457755 -0.53240234 -0.058777913 0.16578606 -0.23732194 -0.2897079 0.37603465 0.31209907 -0.5634045 0.4471111 0.3024828 -0.27310053 -0.25376207 0.12819839 -0.1711984 0.16949302 -0.017319974 -0.16385533 -0.13680327 0.13456824 0.021103425 -0.036496777 0.04133176 0.13065566 0.25769928 -0.37628347 -0.19689187 0.47141495 0.06022409 0.2012232 0.27322236 -0.6217723 -0.23678963 0.18658634 0.13020101 -0.38376823 0.09592773 -0.4299212 -0.19810727 0.04152688 -0.49780658 -0.9796079 -0.21128747 0.30412236 0.01048118 0.15377338 0.11234994 0.35500577 0.12864743 -0.08278484 -0.26485232 -0.114765786 -0.1937365 0.58239436 -0.8964183 -0.17456599 -0.556531 -0.059728943 -0.21318115 -0.07957277 0.24706829 0.12274186 0.13990846 0.37896994 0.49734366 0.060265515
http://www.semanticweb.org/jake/ontologies/2021/2/jbrown/Pepperoni 0.18692622 -0.21368566 -0.22098169 0.43757516 0.12922056 0.17686504 0.2292843 -0.1298913 0.51251155 0.35606816 0.13668032 0.043220878 0.25560185 0.2368807 0.08670625 -0.1810009 -0.09879147 -0.11328307 -0.06369797 -0.09128129 0.0730749 0.23405081 -0.09628486 0.07097519 0.1946224 -0.55472195 -0.58176243 -0.08060355 0.37585673 -0.076302886 0.51531833 0.07181611 0.062094565 0.11728733 -0.3756677 -0.24395119 -0.33601013 0.595245 -0.031030877 0.028578984 -0.20808028 0.27642232 0.17712337 0.05084756 0.20821139 0.11398651 -0.0070383637 -0.1949053 0.05930594 0.036514178 -0.011305368 -0.2517493 -0.23290499 0.087890424 0.008278911 0.19323704 0.0580371 0.22283061 0.6583103 -0.020848978 0.39566574 0.4274651 0.020991731 0.024594123 -0.074528486 -0.16674763 -0.10826327 -0.09641545 0.16763212 -0.15548316 -0.107385956 0.075345665 -0.087945506 -0.21560445 -0.02346273 -0.3711037 0.10284848 0.13163611 -0.06331234 0.22762685 0.17624426 0.0021271587 0.12073852 0.057094388 -0.09475154 -0.12353802 0.25647512 -0.21209794 -0.15524052 -0.2915037 -0.44549033 -0.20001802 -0.05199357 -0.25046962 0.089985564 0.0575634 -0.052998424 -0.22067918 0.11766832 -0.17631945
bianca 0.16628827 0.04190573 -0.0021836127 0.25224656 0.103761636 -0.05388592 0.3844192 0.08216762 0.26153105 0.24125786 0.2220964 0.23681562 0.13437591 0.06884286 0.054287262 -0.19283523 0.0068855323 -0.18622993 -0.39858675 0.010828702 0.16177905 0.036726017 0.19059484 -0.14693443 0.041870613 -0.46234906 -0.5909946 -0.19358239 0.08653313 -0.09166025 0.18629928 -0.11345964 -0.0747297 0.08463936 -0.26515567 -0.1677657 -0.241211 0.1753213 -0.02726616 -0.09053657 0.113362364 0.18329723 -0.1567463 0.21268266 0.20629318 -0.09090196 -0.096705765 0.09992079 -0.10685891 0.029690154 -0.019323323 -0.09773308 -0.041598562 -0.048838183 -0.11813129 -0.021733537 0.112595804 0.04560144 0.3817229 -0.11562962 0.15763941 0.34828126 -0.014052308 0.10165972 0.141771 -0.28357038 -0.2555941 -0.03946358 0.09739426 -0.25062737 0.06749201 -0.112770766 0.0020853004 -0.012509306 -0.22263879 -0.5560872 0.050103527 0.07772171 -0.071192235 0.16669042 0.083580405 0.24341868 0.11311281 -0.0032601755 0.082525186 -0.11296959 0.16970526 0.11625521 -0.34371725 -0.11650781 -0.30168498 -0.05220198 -0.24340853 -0.11907378 0.17179154 0.15110424 0.0450784 0.12980577 0.19779794 -0.08386347
lamb 0.17230068 0.0681061 0.027419094 0.2692858 0.107882716 -0.06852177 0.37366182 0.092070274 0.28378683 0.24370894 0.24368177 0.21405658 0.14269783 0.040823188 0.051185496 -0.21522878 0.03352198 -0.1699663 -0.43896106 0.02063004 0.15952419 0.009286029 0.20358644 -0.17553356 0.044505995 -0.47940376 -0.606862 -0.19397567 0.10441117 -0.1139906 0.17811136 -0.13407673 -0.092445195 0.114196666 -0.2783666 -0.17315045 -0.23298606 0.16268255 -0.0092148455 -0.12312647 0.13471518 0.17596401 -0.18572812 0.2304235 0.20737864 -0.065537035 -0.08741767 0.106113024 -0.120754465 0.028100822 -0.022120321 -0.12679766 -0.031219518 -0.0741427 -0.1378764 -0.02170319 0.12837806 0.05746323 0.36623865 -0.11926724 0.18932965 0.373443 -0.01781167 0.110947005 0.17412195 -0.30906537 -0.29571176 -0.036683608 0.11832948 -0.28032342 0.075524874 -0.107004546 0.0066814595 -0.012574599 -0.24927379 -0.59185255 0.0694814 0.05149517 -0.08123368 0.17742309 0.098061 0.23250155 0.13345118 0.007556851 0.09443811 -0.12703638 0.19971673 0.12264609 -0.35185727 -0.117390625 -0.30280167 -0.06747675 -0.25298816 -0.12954381 0.14731455 0.16971533 0.04143403 0.13772081 0.19380037 -0.102785714
chicken 0.18203604 0.030812385 0.022053104 0.26049516 0.1223196 -0.06163672 0.38038617 0.07826188 0.2533438 0.22783794 0.22410856 0.21814846 0.13009596 0.067367785 0.055118266 -0.19123267 0.024716977 -0.173144 -0.37751797 -0.01044518 0.15557273 0.027208097 0.19026165 -0.1439554 0.042066302 -0.46789068 -0.5902187 -0.17031659 0.08658665 -0.11598338 0.17538834 -0.10884188 -0.061621513 0.0859416 -0.2693408 -0.15853369 -0.22845931 0.18823643 -0.03453096 -0.08061065 0.11756936 0.1789815 -0.1472401 0.21372904 0.20127717 -0.08813067 -0.09569735 0.108159535 -0.10423412 0.012579851 -5.4106604e-06 -0.11606262 -0.05083962 -0.065273546 -0.110437565 -0.018187843 0.10848037 0.038108196 0.38038117 -0.10858922 0.16951177 0.33812562 -0.009157092 0.10985122 0.13077599 -0.28003088 -0.25475356 -0.043634396 0.08439555 -0.2615245 0.05098994 -0.10281556 0.013706706 -0.0077073434 -0.2182953 -0.54831165 0.037827555 0.08351505 -0.06296654 0.16408803 0.08238674 0.22486669 0.089654475 0.018288488 0.09506462 -0.10284702 0.19211861 0.098894514 -0.32731178 -0.12606718 -0.27847344 -0.040697493 -0.24987409 -0.13301209 0.17285365 0.13987422 0.046986956 0.12061469 0.18515141 -0.10202004
http://www.semanticweb.org/jake/ontologies/2021/2/jbrown/Shrimp 0.29851162 -0.13028796 -0.10522124 0.3685716 0.2093942 0.13881388 0.32278082 -0.024238234 0.4386746 0.34169587 0.12540312 0.090398654 0.18496102 0.23469448 0.086229935 -0.18131912 -0.0714534 -0.16325034 -0.17554896 -0.029888276 0.062802374 0.13702436 -0.07343409 0.0011129385 0.110655114 -0.4695481 -0.5080376 -0.0714474 0.2671703 -0.04878864 0.36099052 0.060775716 0.042909034 0.12000444 -0.35042354 -0.21407498 -0.29644236 0.43634063 -0.035446297 0.014053741 -0.1107408 0.2070538 0.08098031 0.086704016 0.21059443 0.07578371 -0.026636576 -0.1456597 0.02431716 -0.04552086 -0.058933906 -0.25744882 -0.15652215 0.021403596 -0.043236524 0.17372945 0.04445874 0.16783889 0.5486962 -0.02755948 0.31115255 0.40863162 -0.016370555 0.040445518 0.005209406 -0.22348057 -0.12062773 0.009068537 0.14650953 -0.20468709 -0.09448941 0.03140541 -0.11865686 -0.23474447 -0.034944016 -0.37560406 0.02625798 0.13400541 -0.098761715 0.2033503 0.12575693 0.03158508 0.20539181 0.09461179 -0.04424695 -0.18218347 0.19394362 -0.1205427 -0.188251 -0.26172197 -0.33160412 -0.17336117 -0.11324789 -0.21078762 0.08533277 0.14761682 -0.041668408 -0.15129179 0.09387028 -0.13581087
http://www.semanticweb.org/jake/ontologies/2021/2/jbrown/Mussel 0.2932078 -0.14245063 -0.10683724 0.36529347 0.21620096 0.13548794 0.33314183 -0.025230896 0.424215 0.33519965 0.119711936 0.09699824 0.17941393 0.24211565 0.094890594 -0.17353164 -0.07345137 -0.15895522 -0.16731085 -0.040580384 0.0703053 0.14327276 -0.06970771 0.004661928 0.10509284 -0.47038478 -0.5065473 -0.065566584 0.26091382 -0.05275339 0.35496145 0.06745393 0.04935652 0.12061619 -0.34833664 -0.19663577 -0.29493898 0.43506747 -0.041382007 0.026766289 -0.10506935 0.21049285 0.085054494 0.076269396 0.21148384 0.06903693 -0.03067561 -0.13368388 0.025682442 -0.05376136 -0.042175252 -0.25151426 -0.16759841 0.028220847 -0.044015765 0.17122898 0.034381732 0.15677682 0.54380584 -0.021679176 0.3078489 0.3937817 -0.0126681635 0.031647373 0.0008803378 -0.21578735 -0.11432406 0.0018454929 0.12682799 -0.20043634 -0.1034224 0.02303249 -0.11500748 -0.22799201 -0.0336787 -0.36952952 0.020072378 0.14182213 -0.08732571 0.19776712 0.12044395 0.03653092 0.18967651 0.10541113 -0.041770946 -0.17970811 0.19025147 -0.115374014 -0.1928392 -0.2528819 -0.31574062 -0.15669413 -0.120813124 -0.21616441 0.09669795 0.14011388 -0.036729462 -0.14337927 0.09435713 -0.13533533
http://www.semanticweb.org/jake/ontologies/2021/2/jbrown/Salmon 0.30508226 -0.1252437 -0.11050257 0.37212572 0.20539851 0.14711696 0.32248566 -0.012371342 0.4497689 0.36011058 0.1279043 0.09640993 0.18475477 0.24039333 0.08900212 -0.18278663 -0.07300688 -0.15904723 -0.18540888 -0.023742143 0.07448599 0.14435007 -0.07908055 -0.0047571473 0.10985813 -0.47357392 -0.5119064 -0.07986891 0.26780385 -0.053577777 0.36225873 0.05649675 0.040797576 0.12986763 -0.35290357 -0.21332869 -0.2931833 0.4400694 -0.041699477 0.0136485 -0.10583938 0.211308 0.07477764 0.09153639 0.21370018 0.07669227 -0.02539219 -0.14993758 0.01787679 -0.039198365 -0.063245595 -0.26233366 -0.15363567 0.02486493 -0.04635696 0.17117983 0.051592894 0.17131105 0.54774815 -0.022631751 0.31422886 0.41778207 -0.018484047 0.04147021 0.014646917 -0.23151478 -0.1281226 0.010267706 0.163789 -0.202569 -0.0985198 0.035527688 -0.12458407 -0.23547792 -0.039989978 -0.3845903 0.030331979 0.123267196 -0.09832894 0.2070058 0.12907934 0.036006264 0.21900359 0.09566719 -0.0454937 -0.19072807 0.19458543 -0.10895133 -0.20161195 -0.25894222 -0.336585 -0.17790364 -0.110138535 -0.2081806 0.08504247 0.1541643 -0.042902786 -0.14594117 0.09795451 -0.14557147
