210 100
of 0.24751025 0.46371523 -0.36415818 -0.18657164 -0.20026468 -0.08118404 0.20355703 0.1408871 0.23666616 0.2720723 0.26494268 0.15089159 0.46856698 -0.16526303 0.111131 -0.114275426 0.061870646 -0.23770742 -0.6981117 0.46885812 0.22293796 0.15969653 -0.14528468 -0.41437307 -0.005459767 0.035458695 -0.5806725 -0.36424085 0.28660014 -0.1812978 0.46798053 -0.11480883 0.046361852 -0.19945058 -0.758703 -0.48287398 -0.08106753 0.3047846 0.11468401 0.24044542 -0.22801362 -0.029384384 -0.38263994 -0.34520212 0.426191 -0.23014887 0.26185015 0.2964138 -0.17968795 0.10795795 -0.14916085 -0.14463012 -0.10301954 -0.05587603 0.08039111 -0.040820938 -0.18927556 0.37509194 -0.5389468 0.2901999 -0.0032665036 0.18434031 0.14018098 0.41409242 0.4365291 -0.04534116 -0.30530846 -0.1617534 0.049457464 -0.3199594 -0.3020347 -0.3180979 0.16622624 0.064462766 -0.45814094 -0.55344373 -0.0943641 0.29809403 0.05351672 0.23152415 -0.28487274 0.0049298853 0.4255181 0.03780729 -0.094545946 -0.2599144 0.20857506 0.14833899 -0.5925117 0.2564704 -0.4406515 0.09600478 -0.21739873 0.1297196 0.036171824 0.09763238 0.009951992 0.24265109 0.055854503 -0.16862205
subclassof -0.107876875 0.2348129 -0.19540368 -0.59868073 -0.0641797 -0.15570414 0.17132351 0.10617874 -0.0044450797 0.11386344 -0.15245791 0.025262367 0.16549028 -0.26414436 0.06092856 -0.2756379 -0.0648903 -0.22769968 -0.06911519 0.47288245 0.056961916 0.2525524 -0.13519868 -0.13297997 -0.015647445 -0.33370596 -0.54375434 -0.40746003 0.4008354 -0.31374738 0.17499931 -0.30267373 0.06891766 0.07216922 -0.12298709 -0.4818577 -0.077950574 0.40135112 -0.104582615 -0.08417455 -0.24847019 0.15020002 -0.21194202 -0.26388842 0.007621954 -0.16300195 0.16182815 0.34710866 -0.24754383 -0.22046134 -0.7075197 0.11598718 -0.14087273 -0.21346939 0.04963751 -0.22659491 -0.2502595 0.18710706 0.04071334 -0.39906612 0.15373488 0.054717466 -0.0214701 0.62023574 -0.45975602 -0.1748447 -0.51709175 -0.15499397 0.17629804 -0.078118674 -0.42608008 0.16305174 0.1705876 0.043181837 -0.4204249 -0.74653965 0.16873856 0.28139806 0.10042249 -0.045689672 -0.53832763 0.2823686 0.5834722 0.6447034 -0.100777104 -0.39589 -0.12734184 0.29221556 -0.53987664 0.24776945 -0.59540164 0.015668055 -0.101325385 0.1175277 -0.19597745 0.28404963 0.17742908 -0.08375508 0.16150965 -0.18681398
super 0.5542567 -0.06305364 0.12565732 -0.13508862 0.0037001634 -0.27560118 0.09556042 0.18024 0.5796119 -0.062206037 0.16779642 -0.024688264 0.12988509 -0.1645931 0.112896964 -0.052092873 0.072854385 -0.32955238 -0.1299944 0.42834285 0.08824302 0.19169208 0.039777625 -0.22463848 0.04461039 -0.2690921 -0.9045815 -0.38155758 0.546209 -0.17614959 0.41824841 -0.25802684 -0.28696996 -0.27542686 -0.6051202 -0.39548382 -0.209962 0.41649735 0.10834991 -0.107200265 0.051406395 0.094352506 -0.14558558 -0.1177179 0.33117637 -0.16807386 0.03469376 0.20671934 -0.06914549 -0.035990566 -0.3274959 0.20485157 0.02552177 -0.412449 0.21484467 -0.21125448 -0.27544203 0.24684519 -0.46945828 -0.16058233 -0.018789714 0.038692467 -0.27303752 0.6134135 0.16305634 -0.5560455 -0.29598016 -0.16640767 -0.084474154 -0.16047534 -0.3945045 -0.07912067 -0.13976443 -0.07796297 -0.40078965 -0.43371984 0.21440321 0.19515571 -0.16394179 0.3041188 0.068612345 0.33393392 0.83785605 0.042329203 0.10660742 -0.5708104 -0.14601463 0.36200303 -0.485895 -0.09946943 -0.6273855 -0.0518336 0.20329078 -0.105983004 -0.026149329 0.2631306 0.069004156 0.31418988 0.0694884 0.33974913
class 0.34472167 0.083698645 -0.25600505 -0.2606331 -0.35999393 -0.120213374 0.12491953 0.2535019 -0.056737933 0.04893115 -0.005178203 -0.061143294 0.30606124 -0.11597951 0.36712787 -0.46511155 0.13417244 -0.443977 -0.13042006 0.38269967 -0.024324644 0.45013538 -0.20904526 -0.45193413 0.026645433 -0.38585994 -0.7695851 -0.17992051 0.40464446 -0.22948061 0.0019417212 -0.49220458 0.16212699 -0.22825389 -0.65498954 -0.51134133 -0.22774495 0.42560476 0.05290586 0.04345779 -0.04644636 0.36631244 -0.12661688 -0.23585466 0.3005121 0.123789385 0.018145522 0.055123445 -0.21529685 0.0803856 -0.33600605 -0.091321595 0.1727458 -0.20335975 -0.061265223 0.12182963 -0.26671684 0.26042327 -0.3572264 0.17044109 -0.054358013 -0.10867527 -0.12086827 0.36809406 0.09752134 -0.30178422 -0.31387842 -0.13157086 -0.07997397 -0.25084877 -0.20451911 0.10503045 0.018444367 -0.23362856 -0.16681176 -0.6094214 0.36478072 0.25345093 -0.46870175 0.0026872877 -0.11627836 0.45916983 0.6533729 0.059312712 0.23501298 -0.45318487 -0.042280626 0.29670382 -0.58020645 0.12210677 -0.9180891 -0.13071026 0.17761277 0.014555768 -0.08251486 0.33854043 -0.28701672 0.13053769 0.059536394 -0.21247815
http://www.w3.org/2000/01/rdf-schema#subClassOf 0.23121442 0.17980394 -0.23878282 -0.24677429 -0.17445016 0.3711317 0.07655056 0.006784867 0.29963648 0.21102038 -0.015134176 -0.33533534 0.09800608 -0.019377613 -0.008704084 -0.26172122 0.095165566 0.12770675 0.08208033 0.38390407 -0.11997512 0.35725334 -0.30299383 -0.036981046 0.21785273 -0.08559376 -0.30206186 -0.48776266 0.55015916 -0.037153464 0.5348229 -0.588133 0.101856925 -0.05544244 -0.085406855 -0.7749322 -0.095028155 0.7212478 0.1532104 0.12560777 -0.36210304 0.016959744 0.32109487 -0.21268791 0.14524136 0.28040224 0.29774746 -0.01753529 0.05451162 0.06569078 -0.60221857 0.065097354 -0.13251156 0.12881936 0.5806907 -0.24391858 -0.530989 0.2794032 0.017923033 -0.11960057 0.37834138 0.41513237 0.09131297 0.41587946 -0.037728485 0.004410213 -0.29020578 0.017332185 0.11407222 -0.2612904 -0.6035833 0.40691552 0.03759632 -0.32205856 -0.23801321 -0.35875666 -0.027902506 0.10733713 -0.49636194 0.06711133 -0.23326471 0.1734798 0.52048147 0.37329355 -0.49725744 -0.390765 -0.059772205 -0.17719391 0.08616073 -0.04815047 -0.47003344 -0.3333323 0.3863376 -0.12990113 0.09431658 -0.16932987 -0.16052997 -0.19674902 0.26573715 0.008529762
http://www.semanticweb.org/owl2vec#superClassOf 0.17428027 -0.122670785 -0.07798474 0.11510588 0.008772262 0.14665957 -0.09994974 0.19883187 0.3021043 0.27679193 0.00898508 -0.5938821 0.41097325 -0.15122253 0.26624 -0.1070728 -0.090039395 -0.106935814 0.30979508 0.14413337 -0.0695337 0.27717182 -0.1797245 -0.27542254 0.17277013 -0.19724506 -0.6405922 -0.16758502 0.626297 0.03213241 0.6807875 -0.37352827 0.036975343 0.014422603 -0.35656643 -0.65601224 -0.5980455 0.7700957 0.4088847 0.19561568 -0.5116479 -0.10621925 -0.04009245 -0.38669914 0.17174108 0.10069118 0.1816796 -0.22248504 0.17977232 0.27990156 -0.5072196 0.062454436 -0.026588198 0.07314206 0.45933178 0.17062335 -0.23797809 0.63205576 0.1563588 0.1788312 0.22087228 0.04475562 -0.045898404 0.47615802 0.07148141 -0.04011912 -0.27915207 -0.059221495 0.22607881 -0.14324805 -0.47999597 0.24384946 -0.037358817 -0.40010467 -0.23431464 -0.39664856 0.1824638 0.18898286 -0.1312327 0.36850938 0.06624705 0.15429913 0.7960224 -0.06664377 -0.3031638 -0.30073974 0.07634882 0.102928214 -0.3484852 0.32077345 -0.5702727 -0.36414006 0.4752328 0.059118886 0.13588212 0.16926734 -0.40355992 0.048648167 0.19041073 -0.038781457
topping -0.05375328 0.043570504 -0.33910966 -0.24764588 -0.43242645 0.13493213 0.3835711 0.15673503 -0.043605678 0.27394712 0.1871947 0.5098489 0.3634635 -0.2860242 0.17333135 -0.19363701 0.15554798 -0.14190647 -0.13251252 0.4303886 -0.04727477 0.40011707 -0.20460466 0.06386344 0.5105417 -0.5425174 -0.7180229 -0.16677874 -0.018665953 -0.18839574 0.48725602 -0.6036373 0.08185478 -0.1125357 -0.10662199 -0.67306334 0.001535114 0.28872046 -0.4150355 -0.036142692 0.21806398 -0.16404015 -0.3421389 0.13307472 0.13628446 -0.022368116 -0.29499367 0.25388414 0.08760316 0.1382094 -0.17360358 0.16312598 0.11403253 0.07485756 0.017897082 0.02570288 -0.5457303 -0.050524045 -0.21765503 -0.4585746 -0.07680415 0.04732719 -0.059947196 0.48990396 0.2887024 -0.86728173 0.09194376 0.28476933 0.09977656 -0.18340532 0.21047768 -0.41748655 0.009206746 -0.09338641 -0.47400922 -0.54562336 -0.05290082 0.64333993 -0.23577303 0.091258064 -0.37101975 0.2655174 0.3394304 0.18845789 -0.31273267 -0.3839155 -0.06533743 0.84475935 -0.6974263 -0.38302866 -0.5813497 -0.03533046 0.28947327 -0.18320493 -0.08454778 0.008271213 -0.22420779 0.14924288 0.2802454 -0.04908708
has -0.060804598 0.38647774 -0.034016315 0.13019107 -0.15266731 -0.0222032 0.7937506 -0.16008447 -0.1547706 0.12833531 0.031314753 0.48857778 -0.10268978 -0.01870072 0.37725788 -0.2047906 0.19060218 -0.17570621 0.20936464 0.49228123 -0.49513844 0.22200139 -0.5761173 -0.28982523 0.29488397 -0.34174034 -0.935348 -1.0160626 0.08467028 -0.6246926 -0.03819456 -0.41655186 0.37152743 0.16449921 0.14961457 -0.32872373 -0.16741882 -0.07222131 -0.20020783 0.3053796 -0.418259 0.16740942 -0.17223361 0.42140615 -0.13050757 -0.6542676 -0.18155965 0.24332337 -0.03505386 -0.4975738 -0.06949078 -0.3325351 0.15981904 -0.021674061 0.27801234 0.11775103 -0.24308291 0.06777523 0.087006345 -0.5275084 -0.37513965 -0.12158802 0.0139485 0.7135301 -0.08290817 -0.15376472 -0.21699554 0.17572431 0.044518765 0.2704452 -0.21333134 -0.079291046 0.28016043 -0.36398032 -0.002413478 -0.35316497 -0.21175294 0.15683307 -0.06826737 -0.03589887 -0.44716197 0.15585124 0.1957845 0.118417524 -0.20895512 0.004789181 -0.07132606 0.5493456 -0.03886174 -0.15388806 -0.30589446 0.24039248 -0.10262009 -0.19243035 0.21508445 0.30190772 -0.3319666 0.47978702 0.46476483 0.40382215
is 0.28605005 0.40524524 -0.35629252 0.03071841 -0.3108254 -0.36013305 0.5015904 -0.22194864 -0.4282855 0.2457235 0.17259519 0.27655864 0.03231606 -0.11563984 0.2665994 -0.25816756 0.31743473 -0.30542344 0.028846687 -0.18243892 -0.18386917 0.028062452 0.030075695 0.07548112 0.48250052 -0.14574471 -0.6705453 0.028671194 0.47205064 -0.16232188 0.31741706 -0.0974105 0.49190393 -0.12609306 -0.09130671 -0.27345967 -0.4171874 0.24931727 -0.23596813 0.21559153 0.014336685 -0.24221548 -0.44706714 0.0698014 -0.20317307 -0.053308155 -0.25189778 0.13268502 -0.23191357 0.094445914 0.067424186 -0.23832451 0.36189738 -0.11255433 0.66665035 -0.0957761 -0.12777814 -0.034695435 -0.19531885 -0.7338051 -0.8335588 0.007851617 -0.31959283 0.14203393 -0.058161985 -0.22820368 -0.062143 -0.016895643 -0.09153816 0.2325725 -0.19377121 0.044152196 -0.03516201 -0.2059966 -0.18063428 -0.4024446 -0.54759485 -0.082293965 0.08170323 -0.12800358 0.031921703 -0.09489564 -0.039055772 0.99145776 -0.027400017 -0.3670969 -0.25039527 0.5684593 -0.36917415 -0.35049492 -0.58777434 0.17111084 -0.15940413 -0.5929435 0.18990481 0.17682713 -0.09710891 0.031863295 0.67396647 0.39143172
pizza 0.34960335 -0.10018966 -0.07641046 -0.04112308 -0.000983286 -0.40792108 0.14846686 0.04471311 -0.043498367 0.21230489 0.29177427 0.6073441 0.749868 0.1963163 0.2242473 -0.3182805 -0.34747604 -0.81776243 -0.3588861 -0.17240615 0.016559033 0.30375582 -0.2363593 -0.032004595 -0.17385896 -0.3308391 -0.6387625 -0.2439206 0.27387974 0.12191144 0.16684616 0.18146276 0.2556852 -0.15710133 -0.0715349 0.14815645 -0.05295917 -0.012940199 -0.31191865 0.42086 -0.32574737 0.14649914 0.1785864 -0.43918633 0.04238775 -0.54702747 0.32530883 0.038927957 -0.47868702 -0.067418896 0.18887576 -0.731493 -0.21622612 0.23082134 0.06843618 -0.19117276 -0.4071088 0.26565427 0.38095328 -0.5569287 0.10862073 0.10546186 0.10764864 0.7491762 0.061269503 0.14829521 0.21012676 0.13050069 -0.029313248 -0.5737315 0.11454912 0.19217852 0.5841014 0.7177434 -0.19185351 -0.15340114 -0.29937688 0.27244097 0.08841219 -0.6802556 0.14210905 0.15002397 -0.32442805 0.089234784 0.27059716 -0.28888577 0.020560466 0.18820731 -0.21485165 0.5735193 0.0634138 0.01951549 -0.13560402 -0.029870898 -0.29781517 0.3610395 0.3612398 0.5204294 0.11401482 0.2841165
pork -0.018908383 -0.14603244 -0.5351341 0.05038988 -0.01612224 -0.34064627 0.15231314 -0.27781135 0.8753777 0.020913346 0.15784447 -0.48085386 0.38128403 -0.015761344 0.23778859 -0.36558327 0.50711197 -0.48616052 -0.71641856 0.40877864 -0.3195673 0.040520266 0.09245789 -0.22066723 0.4034185 -0.88817114 -0.8569259 -1.0507728 0.22609286 -0.4143181 0.3727415 -0.66155875 -0.1340261 -0.08239244 -0.3918732 0.16760531 -0.46755737 0.5476891 0.19477254 -0.12616527 0.087516025 0.47990164 -0.37446913 0.037548915 0.10232509 0.2443702 -0.14246786 0.27527988 0.2024226 0.03593432 0.06385836 -0.21591471 0.28191337 -0.41069356 -0.2140846 -0.5428447 -0.2564844 0.22113247 -0.14609773 0.08393108 0.07386044 0.4026194 0.08887301 0.17061819 -0.31853622 -0.32606113 -0.12478126 -0.13523334 -0.038342148 -0.5077778 -0.20621558 -0.38936302 0.3238327 0.029846909 0.15986449 -1.0257322 0.43929625 -0.08681574 -0.49066794 0.19644375 -0.023683257 0.30375177 0.5719806 0.109420605 -0.36477974 -0.13537212 0.35402963 -0.04348101 -0.33163643 0.23917502 -0.650969 -0.015253298 -0.30602837 -0.07586897 -0.29708228 0.11439166 -0.20725293 0.0816693 0.44413182 -0.12830853
label 0.32711735 0.3155126 0.44080126 -0.08023095 0.093367234 -0.20302661 0.21649686 0.44707957 -0.04959024 -0.05754209 -0.41819918 0.0449672 0.2552104 -0.2847459 -0.5947107 -0.53170377 0.15000504 -0.15386747 0.31705785 0.39248112 0.68842053 0.13150162 0.29739857 -0.35857752 0.19203098 -0.61547446 -0.92406595 -0.13753586 0.013241853 -0.438399 -0.10423904 0.10146814 -0.27362323 0.08798738 -0.08977596 -0.4165928 -0.6360866 0.2690919 -0.49800196 -0.24979784 -0.49893463 0.1543162 -0.034109797 0.21891397 -0.63767326 0.15252411 0.20327818 0.5784205 -0.15060174 -0.39048183 -0.17342263 -0.010375165 0.43818972 -0.0016522837 0.3151574 0.16148667 -0.6450163 -0.19147444 0.027450345 -0.5601157 -0.22962095 -0.030885309 -0.38674003 0.9931644 0.065869324 0.38136297 -0.6255965 -0.5311852 -0.27225834 -0.009189413 -0.057164323 0.011863566 0.52215403 -0.26973462 -0.32957724 -0.7423269 -0.32370663 0.23847935 -0.2921564 0.2701864 0.3772187 1.0463104 0.16143495 -0.06757393 -0.36789247 -0.4984522 -0.21776278 0.3223643 -0.4965411 0.23103157 0.4324116 -0.35127342 0.3252813 -0.085751526 -0.027290605 0.44546908 -0.29359418 0.0734696 0.26213488 -0.4747449
http://www.semanticweb.org/jake/ontologies/2021/2/jbrown/Seafood_topping 0.4706002 -0.31115288 -0.2452881 0.48867506 -0.076868065 0.63534504 0.2702721 0.3386759 0.22579652 0.27742302 0.4049133 0.059147175 0.19943379 0.6065748 0.2537653 0.18683302 -0.27821317 -0.33258322 -0.7383909 0.6753971 -0.21548572 -0.17001483 -0.4335099 0.6153205 0.23660906 -0.39882737 -0.25908604 -0.1778647 0.3007888 0.43031517 0.13643374 0.26867244 -0.18724872 0.1704977 0.055658452 -0.5505084 -0.3078712 0.57734936 -0.10391937 0.28943285 -0.21380681 0.24024585 -0.29131493 -0.11433137 -0.07280069 -0.026831312 0.11962063 -0.52179486 -0.24109463 0.27169824 -0.58956414 -0.4245877 -0.04746349 0.37880814 0.023465643 -0.27183187 -0.39360368 0.3295117 0.4843241 -0.2124781 -0.008486756 0.45811787 -0.13256605 0.13159889 -0.45284492 -0.6647012 0.38806534 0.45003572 0.21639766 -0.20356652 -0.27851373 0.41028178 -0.47943893 -0.4256567 -0.3930052 -0.8500639 -0.63221025 -0.16738693 -0.3536998 0.067239545 -0.2275968 0.018322857 0.9558275 0.22887228 -0.6397374 -0.3974434 -0.046496443 0.20760755 -0.17805037 0.2359443 -0.4343061 -0.6028729 0.2896257 0.10640347 -0.16409053 0.77794397 -0.17469718 -0.10617414 0.10222759 -0.4011018
http://www.semanticweb.org/jake/ontologies/2021/2/jbrown/Pizza 0.4652825 -0.34840983 -0.44832665 0.20865218 -0.06551432 -0.19894883 -0.036340572 -0.19773966 -0.007116155 0.3317038 0.5727226 0.14572193 0.527632 0.19464666 0.3526792 -0.51931566 -0.08241736 -0.5491414 0.22603261 -0.04469818 0.0005788695 0.11466928 -0.13165626 0.2062456 -0.022356994 -0.06811759 -0.31956035 -0.2789077 0.112612166 0.42767993 0.44809154 0.20398511 0.19490674 0.06448525 -0.33536565 -0.51626354 -0.45424128 0.65481484 -0.07763665 0.4038271 -0.19493853 -0.15006594 0.5431208 -0.3969159 0.19026165 -0.23989972 0.4690208 -0.23640938 -0.31878436 -0.029003426 0.41214174 -0.29019958 -0.26576456 0.20103434 0.48209253 0.12642477 -0.7333508 0.1912788 0.9062809 -0.716119 0.37498516 0.096158326 -0.019770874 0.73592776 0.12200646 -0.24686064 0.6287407 0.11838431 -0.1931184 -0.18762532 0.04762378 0.50170845 0.39845777 0.368144 0.10581614 0.07946622 -0.46814117 0.13176237 -0.5544862 -0.59889007 0.06551995 -0.14015487 -0.23292722 0.11793247 -0.45495752 -0.13936135 -0.34933296 0.054757442 -0.0723369 0.15727314 0.040974878 -0.1641314 0.4283459 0.0047116 -0.18108375 -0.05569952 0.12368704 0.1979455 0.17717794 0.25525847
http://www.semanticweb.org/jake/ontologies/2021/2/jbrown/Pork -0.16790923 -0.37906227 -0.6353123 0.26622486 0.24355906 -0.02537241 -0.40795362 -0.22221984 0.9074349 -0.07929306 0.16574314 -0.47693738 0.5147719 -0.109378405 -0.20746538 -0.027178016 0.3996707 -0.07896079 -0.4720213 0.40442637 -0.25866944 0.10249217 0.29557955 0.17543377 0.6276374 -1.0306144 -0.79455566 -0.7620021 0.76480734 -0.10767243 0.8014859 -0.3717659 -0.052558675 0.031254776 -0.17357586 -0.124398716 -0.22621815 0.9217004 0.26987356 0.2562282 -0.24562044 0.4412977 -0.15865952 0.08175958 -0.16979842 0.7582691 0.2521789 0.04142666 0.20774548 0.075535655 0.06373044 -0.47567952 0.0862849 0.03294307 0.20880024 -0.45853052 -0.061881512 0.5521364 0.24191444 0.06913969 0.38681203 0.5682011 -0.006582099 0.07425683 -0.44704503 -0.46523538 -0.10950754 -0.13979372 0.14359485 -0.6346518 -0.1396405 -0.32438174 0.17469977 -0.2029022 0.098135665 -0.9583068 0.49160686 -0.24926423 -0.67652667 0.11189511 -0.051376715 0.32817948 0.2718868 -0.00036515621 -0.62809426 -0.008071808 0.558977 -0.41597566 -0.31754947 0.47049028 -0.66099316 -0.26293468 0.24123192 -0.00080656476 -0.54762536 0.0018124963 -0.3223419 -0.21023618 0.34739327 -0.10963279
http://www.w3.org/2000/01/rdf-schema#label 0.11798505 -0.00022975293 0.13021082 0.5935333 -0.11257097 -0.029949628 0.06561339 -0.002973365 0.29676437 -0.29380172 -0.41571546 -0.90165573 0.22549376 -0.31270844 -0.14921898 -0.61570203 -0.05862626 -0.410836 0.6167448 0.21354207 -0.16036889 0.15216562 0.08957 0.36732376 0.11684025 -0.26911566 -0.37717232 -0.056939356 0.27900246 -0.050255165 0.16538918 -0.4185189 -0.22709061 0.04407093 -0.056782305 -0.62469846 -1.2575862 0.43767026 0.009536218 -0.07655083 -0.7842879 -0.13649459 0.014174231 0.1311984 -0.33578223 0.3429601 0.11263533 0.55723405 -0.048770145 -0.23278594 -0.18774617 0.22913341 -0.04792512 0.32839337 0.6889888 -0.099305905 -0.89144444 0.37535915 -0.1396843 -0.27710712 0.16295564 0.1677984 0.300893 0.5050782 -0.05129293 0.31947854 -0.56195146 -0.43561876 -0.7102882 0.11010362 -0.20838866 0.40506467 0.4400869 -0.14127706 0.010005371 -0.057868406 -0.26740536 0.18580607 -0.6145775 0.55770296 0.4059966 0.61433023 0.45290643 -0.21657406 -0.7791053 -0.025388243 -0.3581534 0.300084 -0.27263024 0.42057633 0.29219574 -0.8879432 0.8396843 0.18678424 0.25137594 0.15463643 -0.6045207 -0.08938894 0.111253016 -0.1695174
hawaiian -0.36877498 0.45689183 -0.18248385 -0.13026029 -0.74635214 0.028869368 -0.019020025 -0.037438184 0.28452623 -0.28525606 0.33226702 0.59565187 0.21920553 0.23261966 0.5462109 -0.18907811 0.09319416 -0.5402782 -0.3556641 0.16962868 -0.18908368 0.30867133 0.041607004 -0.060195748 0.47624606 -0.57423294 -0.75216305 -0.6749537 -0.05113836 0.39411163 0.6602469 -0.16133846 -0.011670611 0.016959814 0.23117875 -0.061830837 -0.24675874 0.4053533 -0.29764304 -0.20603727 -0.28143018 -0.28839645 -0.46985593 0.56824905 -0.12487177 -0.27423638 -0.56104684 0.010989423 -0.080142744 0.35597247 -0.025328584 -0.0847658 0.117276795 0.1499946 -0.27078617 -0.27524966 -0.59125954 0.2942716 -0.17624392 -0.32221264 -0.70066714 0.2686729 0.48832962 0.6558074 -0.13868828 0.0645767 -0.068226285 0.25117224 0.14615221 0.11552778 0.3336174 -0.5974781 0.17591056 0.26561144 -0.47473556 -0.48155722 -0.072831035 -0.1318164 -0.109719895 -0.52490157 0.17459743 0.48938546 0.08283347 -0.18036419 -0.2767875 -0.06215893 -0.18670556 0.67027235 -0.4573516 0.18329318 -0.76222295 0.07805545 0.39874092 -0.21031451 -0.17966485 0.41266543 0.015013754 0.46478647 0.39180636 0.21123652
establishment -0.39922982 -0.2560147 -0.19682078 0.07202112 0.49800026 -0.080264665 0.4527752 0.08056046 -0.36554334 0.26540074 0.58217627 0.38734755 0.24793133 0.2815035 0.20019138 -0.6957336 -0.11448804 -0.74478614 -0.42442185 -0.4047417 0.11014154 0.06399946 -0.14780787 -0.027364394 -0.07443215 -0.8962029 -0.9441894 -0.14661025 0.30051008 -0.38815016 0.34408227 0.19372417 0.34487134 0.23083341 -0.17869806 0.038595792 -0.2456605 0.61308706 -0.27802745 0.4832701 -0.23059578 0.26273742 0.11389029 -0.5185915 -0.12246445 -0.48816058 0.012403048 0.06509983 0.08678108 -0.60907006 0.7331375 0.15296198 -0.21722545 -0.18761516 0.2562385 -0.31452516 -0.21861999 0.0051261643 0.4548668 -0.3050021 -0.44963372 0.2858494 0.11988259 0.41378906 -0.076983556 -0.13265961 0.4328337 0.080172405 -0.3009335 0.02863377 -0.23813863 -0.08652116 0.12059601 0.15618794 -0.22737998 -0.8229689 -0.7602462 0.5444346 0.061899204 -0.2821944 -0.38060066 0.45189053 -0.31026092 0.38096154 0.2618039 -0.33762896 0.04475106 0.6187768 -0.34247872 -0.0978075 0.07360042 0.32235208 -0.31432644 -0.16057543 0.25232092 0.63283277 -0.031698734 0.8828111 -0.011339241 -0.015873691
http://www.semanticweb.org/jake/ontologies/2021/2/jbrown/Specific_pizza 0.20228401 0.093906954 -0.60625196 0.34279376 -0.47465363 -0.3629196 -0.36234704 -0.7310059 0.35706708 0.27919272 0.33637974 0.437237 0.2647414 0.06710177 -0.17546293 -0.23534884 -0.046388067 -0.46715754 0.24634147 0.059958395 0.25810784 0.5231278 -0.07217446 0.17669888 0.17736371 -0.47556552 -0.9082758 -0.26596457 0.5798787 0.6148218 1.0462326 0.1411579 0.24783866 -0.27797788 -0.28561336 -0.2051994 -0.8399342 0.12845273 0.20360295 0.33342203 -0.43140212 -0.32785252 0.70526403 -0.19498616 -0.19921207 0.08553709 -0.32441428 0.15998837 0.054861348 0.023060791 0.27821878 0.03954688 0.06307702 0.5113019 0.27797875 0.17202127 -0.3579913 0.13046545 -0.09820673 -0.19129117 -0.055343412 -0.015511254 0.5819691 0.47572458 -0.08245747 -0.2430826 0.16613832 -0.07414536 0.032571018 0.10338784 0.3481431 0.1432294 0.49091494 -0.13181062 -0.11457559 -0.10855051 0.021415874 -0.14810821 -0.29540008 -0.061441764 0.011681555 0.14817919 -0.011590179 -0.30107608 -0.3481988 -0.39469308 -0.4521281 -0.0013736127 -0.33939916 0.24811564 -0.17556366 -0.27102003 0.3630878 0.041868668 -0.32461748 0.32520485 -0.37330228 0.18490815 0.6566248 0.17698726
http://www.semanticweb.org/jake/ontologies/2021/2/jbrown/Meat_topping -0.19435969 -0.09326094 -0.14981303 0.54749864 -0.15244934 0.17163983 -0.4588419 -0.41822004 0.18982159 -0.14306039 0.24960035 -0.32017902 0.25321478 0.3292915 -0.10290151 -0.084972486 0.3608186 0.18504234 -0.18266484 -0.112035 -0.54562813 -0.08431753 0.18285069 0.13311465 0.5945103 -0.7957967 -0.6658735 -0.41551664 0.27122083 -0.23075567 0.34185824 -0.5228342 0.24150015 -0.30807889 0.24364655 -0.48453537 -0.17152804 0.97080886 0.34594676 0.026715694 0.08720418 0.54853785 -0.29282263 0.15390298 -0.2088313 0.0558054 0.13468245 -0.11855965 -0.1563751 -0.022386828 0.28588673 -0.6384009 -0.49956495 0.03976836 0.1984399 0.01417099 -0.607164 0.44194353 0.031231377 -0.39830995 0.41083497 0.5736402 0.3662578 0.3382479 -0.35431066 -0.42279983 -0.2224778 -0.33374017 -0.16725644 -0.27952972 0.03074352 0.22545739 0.3315507 0.25919178 -0.39182824 -0.68059003 -0.0825542 0.07359753 -0.42312428 0.12461219 0.1970437 -0.22202954 0.22908747 0.07254664 -0.2215884 0.18612228 0.32652143 -0.32685345 0.10771746 0.6517091 -0.15984005 -0.47864482 0.2332803 -0.13587287 0.20586102 0.18874426 -0.004347691 -0.23360947 0.29210827 -0.4825858
http://www.semanticweb.org/jake/ontologies/2021/2/jbrown/Is_topping_of 0.29704294 -0.12139344 -0.14747463 0.32341784 -0.4780399 0.06889176 -0.23312052 0.12485813 0.27510846 0.54003626 0.36974543 -0.06438344 0.28235063 -0.18068382 -0.011600829 -0.54652315 0.25760552 0.16716439 0.15295032 -0.17878135 -0.008547682 0.26500407 -0.15555502 0.21084969 0.37595776 0.02454758 -0.8957797 0.3243702 0.61625725 0.22392963 0.8283323 -0.24167787 0.5509051 0.19099644 -0.3447644 -0.7624625 -0.6751765 0.5820822 0.12535602 0.53935134 -0.49871522 -0.61828697 -0.0016209272 0.0773615 -0.23968849 0.20789231 -0.39615798 0.29945922 0.15354 0.3795016 -0.07055826 -0.5472099 0.02461126 0.3713913 0.6145003 0.7066277 -0.25082985 0.14778423 -0.1774875 0.19600695 -0.12869972 -0.16359022 0.15100323 0.3859066 0.037632126 -0.0007249672 0.3263607 0.22537363 0.12522502 -0.1011304 -0.1870859 0.18098822 -0.0677007 -0.5633472 -0.17276655 -0.34042943 -0.29593098 -0.02993761 0.05787949 0.38286886 0.120511286 0.03802372 0.33276904 0.049462155 -0.19596079 -0.40799055 0.017206395 0.13572347 -0.5135209 0.18466921 -0.57147455 -0.32890713 0.45421404 0.26752093 0.0456367 -0.28331164 -0.60918325 0.21809769 0.4662342 0.463115
http://www.semanticweb.org/jake/ontologies/2021/2/jbrown/Has_topping -0.10259293 -0.017440774 -0.40881592 0.50916433 -0.11922509 0.34133878 0.2405777 -0.12039767 0.25966543 0.3375605 0.16841444 0.39987952 0.07513276 0.023014283 0.28817162 -0.06022392 0.14717896 0.42341012 0.17518951 0.5058654 -0.13651745 0.7843831 -0.8522826 0.6657965 0.54924977 -0.3988182 -0.81012267 -0.7596939 0.43748906 -0.124431506 0.25149643 -0.6032159 0.48301113 0.060294986 0.17349869 -0.49448606 -0.13028263 0.51519316 -0.11261981 0.3166545 -0.5573285 -0.1861275 -0.1427814 -0.081858955 -0.25861007 -0.16012216 0.19228375 0.1243506 0.10239937 0.19524698 -0.12959053 0.065210365 -0.01227558 0.36266214 0.52148014 0.21322632 -0.17043371 0.2438181 0.21966656 -0.3349844 0.14448497 -0.03325644 0.11702329 0.35317957 -0.106380805 -0.24693924 0.05228897 0.29512164 0.33637783 0.020394139 -0.34108534 -0.03254061 -0.12414102 -0.17836387 0.1359545 0.09516374 0.03168486 0.50236726 -0.2938094 0.57005864 -0.244935 0.3081397 0.38355947 -0.053717855 -0.6936486 -0.49437055 -0.16111726 0.21105613 0.4041066 -0.14287993 -0.4304089 -0.15555832 0.20940943 -0.022949047 0.1404722 -0.45834345 -0.58340275 0.20908718 0.538601 0.14971994
americana -0.07593722 0.05287256 -0.49367094 0.36088705 -0.4125534 -0.20564842 0.5311676 -0.2772594 0.38577497 -0.10717352 0.90009385 0.3811243 0.27706036 -0.046131283 -0.101785965 -0.47517863 0.024370486 -0.3942741 -0.35196757 0.06456713 -0.027223498 0.7087704 -0.30845517 0.4158065 0.32561526 -0.8049578 -1.0922886 -0.6621976 -0.11291143 0.32470283 0.27591476 -0.34725255 -0.38022265 0.39792767 0.2123417 -0.1391927 -0.6949732 0.18785769 -0.13561708 0.079188064 0.21526043 -0.12136683 -0.2835527 0.22985291 -0.26865324 -0.5466585 -0.26383403 0.38469565 -0.41440734 0.5744996 0.27877077 -0.014016355 0.26848617 -0.30896562 -0.0041711796 -0.37783545 -0.09341279 -0.3549385 0.4411479 -0.7185178 -0.22946443 0.013036469 -0.019381322 -0.08224545 0.031229854 0.25929216 0.07087205 -0.18805143 -0.08976587 -0.23790413 0.17192602 0.22275685 0.633756 0.35354334 -0.2791117 -0.967395 0.30494455 -0.12230488 -0.24118334 -0.06122301 0.15691616 0.7275792 0.15453601 -0.32273242 -0.052840568 -0.17452176 -0.18636367 -0.09592963 -0.5143134 0.3808463 -0.2763974 -0.005496983 0.10515039 0.03638573 0.11999952 -0.04731563 -0.45142168 0.5468168 0.8527524 0.17374559
http://www.semanticweb.org/jake/ontologies/2021/2/jbrown/Pizza_topping 0.046463434 -0.49388444 0.2724163 0.38764587 -0.015744224 0.4933781 -0.024615105 0.3398112 0.2808606 -0.34447932 0.34752268 -0.2593976 0.1678253 0.71285397 -0.23238584 -0.8120462 -0.42166436 0.010173914 -0.41038135 0.17777288 -0.1555763 0.09736212 -0.32275036 0.42815933 0.28643957 -0.26501635 -0.5752709 0.07536501 0.2358721 -0.25082186 0.33608866 -0.4850362 -0.015132863 0.2983714 -0.19590543 -0.92895037 0.08000603 0.47709405 -0.15560308 0.3230333 0.029487686 -0.10325408 0.17115477 0.17185727 0.046957362 0.18900949 0.104851685 -0.46967962 -0.19821566 -0.4777506 -0.39882508 0.069936655 0.10677873 0.5908355 0.26323572 0.03064577 -0.48002315 0.28222767 0.23900384 -0.20922466 0.26526448 0.5889495 0.22288325 -0.16992733 -0.19025719 -0.21074376 0.18497072 0.8314583 -0.2417428 -0.21396932 -0.6756318 0.45197374 -0.45714492 -0.38593093 -0.33090943 -0.78194004 -0.16615905 0.5095564 -0.2959934 0.16236117 -0.15300499 0.23239635 -0.07033409 -0.26199767 0.062376246 -0.48955002 -0.20599505 0.06033682 -0.3396912 0.024192471 0.20101175 -0.013607871 0.669788 -0.16029114 0.34198627 -0.1671541 -0.054789785 0.14086008 0.014970268 -0.1833176
in -0.31505615 0.34956244 -0.3744137 0.64817464 0.06905513 -0.00016501712 0.75728375 0.33222562 -0.32996807 0.29451802 0.40034875 0.35665092 0.42310935 0.32623076 0.3873803 -0.2958043 -0.16102234 -0.53253794 -0.5973459 -0.5558974 -0.25018826 0.020782633 0.7581353 0.40668342 0.32069382 -0.49632293 -1.0678482 -0.17713155 0.13458899 0.018846298 0.353983 0.15208478 0.3743839 -0.0012051808 0.034517523 0.2367409 -0.29027823 0.5261494 -0.42201138 0.043158192 -0.2848832 0.17841326 -0.0106567405 0.03068828 0.03968004 -0.15702626 -0.15187626 0.81356287 -0.051896643 -0.035885584 0.44400665 -0.31412044 -0.32538727 0.5673566 0.42665717 -0.6235542 -0.524691 -0.03179802 0.4189943 -0.6804585 -0.7587154 0.15988493 0.164334 0.12897755 0.15373583 0.10269337 0.18842235 0.12806186 -0.39422867 0.28612518 0.16063689 -0.6907893 0.68998045 -0.06449011 -0.34080145 -0.3839426 -1.3886185 0.23000036 -0.0012405269 -0.12379076 -0.10867363 0.27790767 -0.5032577 0.53416085 -0.32505876 -0.120448425 0.011469862 0.62803346 -0.508754 -0.074417755 0.2777312 0.22731245 -0.68950516 -0.54159987 -0.04985164 0.29505163 0.19303146 0.44595587 0.08659201 -0.0657579
http://www.semanticweb.org/jake/ontologies/2021/2/jbrown/Hawaiian -0.24421145 0.1678704 -0.19312309 0.19481553 -0.7714251 0.22240603 -0.60383093 -0.2587112 0.1415348 -0.15102203 0.5404018 0.24106395 0.37875056 0.19616514 0.44738296 -0.27736104 -0.06225666 -0.19457044 -0.005269471 -0.18001729 -0.04222282 0.49669805 -0.021630727 0.47658578 0.42207184 -0.45410556 -0.64168054 -0.37584335 0.06698256 0.51022637 1.0936588 -0.19653594 0.0042756624 0.19600345 0.16440167 -0.28537333 -0.44999823 0.67732054 -0.13078171 -0.1637063 -0.3734482 -0.34367636 -0.10480196 -0.010811647 -0.30664638 -0.1826679 -0.21229036 -0.2507497 -0.13935721 0.5058241 0.11205962 -0.048973184 -0.017921375 0.50612724 0.13253456 0.03831886 -0.6223894 0.5565067 0.21389604 -0.13602103 -0.33010462 0.20230988 0.7113104 0.6107761 -0.23668456 0.1316372 0.07158483 0.20439562 0.15272106 0.10897046 0.07332305 -0.058293954 0.22587335 0.3396443 -0.30186027 -0.61283016 0.22007875 0.14351198 -0.2344959 -0.19255207 0.47524616 0.45512682 -0.08562017 -0.3883073 -0.35888684 0.17821695 -0.65024537 0.38686 -0.3539507 0.5955988 -0.84856826 0.17141438 0.53426063 -0.38578343 -0.082920015 -0.11690742 -0.025044618 0.16104086 0.60279137 0.23042673
located -0.603194 0.28568166 -0.7955566 0.22711156 -0.20274012 0.015129188 0.64917105 0.078139886 -0.20715481 0.28710178 0.26081604 0.2505433 0.32523528 0.33947474 -0.088377856 -0.59766394 0.2562963 -0.7725153 -0.40107018 -0.25655642 -0.09936999 -0.107899636 0.3355407 0.41427743 0.66020286 -0.6403647 -0.8645905 -0.18612722 -0.053018574 -0.51011735 0.625707 -0.35842523 0.43044043 0.1997618 0.12449138 0.07495607 -0.34765345 0.60480344 -0.2569721 0.34894273 0.11293836 0.007049801 -0.20420067 0.002245493 -0.38366252 -0.6309272 -0.45779878 0.45473045 -0.1405072 -0.4455841 0.6272551 0.44633847 -0.22474548 -0.20083475 0.44982398 -0.012755518 -0.41677925 -0.16869804 0.5069447 -0.8912811 -0.66036594 -0.15608688 0.00015907564 0.6719737 -0.059957344 0.02742114 0.54352957 0.021230444 -0.13161859 0.34060127 -0.134101 -0.008565852 0.25367326 -0.064701244 -0.20572814 -0.74427897 -1.0652674 0.25745642 0.112837024 -0.07587673 -0.13941097 0.5476103 0.04345749 0.78793705 -0.45567387 -0.15175985 -0.2575796 0.31765124 -0.3361135 0.07363663 0.2780588 0.008711625 -0.12814638 -0.04117836 0.09584423 0.19631201 -0.08744105 0.28689876 0.24155954 -0.10946058
http://www.semanticweb.org/jake/ontologies/2021/2/jbrown/Vegetarian_friendly_topping -0.43805766 0.057659063 -0.42129174 -0.5128196 -0.27645415 0.24004608 -0.37573463 -0.031911734 0.26831356 -0.52179027 0.21542493 0.4067428 0.34830517 0.20740898 -0.17795633 -0.26714492 -0.52562565 0.36704677 -0.023379415 0.38993132 -0.18135816 0.5359275 -0.63443834 0.48759514 0.8906941 -0.34974313 -0.8127857 -0.8328184 0.6842919 -0.18587479 0.48162124 -0.3019807 0.016208114 -0.73503584 -0.48362735 -0.6593532 -0.037181646 0.43990412 -0.12978347 -0.12466562 -0.077658325 0.34661794 0.2411277 0.41728324 0.085670434 0.7085461 -0.2849512 -0.3210247 0.028025376 0.21310076 -0.23024133 -0.099111035 -0.10086064 0.3220337 0.316308 0.22961718 -0.47584325 0.2384724 0.062363937 -0.48071477 -0.028620224 0.14734536 0.2712704 -0.022331277 -0.32358813 -0.3282714 0.3511646 0.008832417 0.10058631 0.026427103 -0.4324774 -0.58903944 -0.549835 -0.051497605 0.06075531 -0.37815586 -0.2773354 0.55977464 -0.09172236 0.4161697 0.18866237 0.14531374 0.17497495 -0.1542309 -0.46533027 -0.34939504 -0.47869647 0.066133976 -0.11238097 -0.25821725 -0.20821922 -0.3554877 0.046769146 0.08764964 -0.20730194 0.10279502 -0.11038087 0.4666653 0.35538268 -0.39377388
location -0.15653153 -0.29219356 -0.0028491197 0.30839157 -0.055314533 0.21701214 0.8418285 0.24662502 -0.08600402 -0.09006159 0.20094632 0.21449775 -0.13456258 0.6154023 -0.11834939 -0.64812356 0.035947405 -1.0084517 -0.5930669 -0.10622982 -0.26437107 -0.39697376 -0.014828979 0.24595359 0.19975308 -0.64137495 -1.2598124 -0.31154191 0.1732095 -0.54956216 0.18473087 -0.4255716 -0.054788686 -0.1919694 0.0038188468 0.09526198 -0.22222212 0.543178 -0.13859862 0.6214754 0.11468387 0.18170877 -0.39420268 0.08525038 -0.29007694 -0.37172922 -0.6856339 0.5476043 -0.22299363 -0.18578464 0.70662326 -0.28478065 -0.077736616 -0.36872196 0.6413917 0.089668654 -0.5148803 0.0038669694 0.13262676 -0.83038956 -0.81225187 -0.36130887 0.18634315 0.3329716 -0.16569811 0.33060923 0.18559827 0.08863888 -0.65075856 0.23759596 0.02645472 -0.15842548 0.4150657 -0.3439899 -0.16789179 -0.7236218 -1.0501776 0.41044396 -0.51138496 0.15820786 -0.32377073 0.7379322 -0.20960228 0.35303384 -0.13829084 -0.34933588 -0.10106764 0.26464257 -0.57952607 0.16832711 0.08915104 -0.093428396 0.046485115 -0.036863767 0.59894013 0.36657104 -0.49309713 0.9079833 0.060582656 -0.20832002
SubClassOf 0.01912926 -0.083472475 -0.84162736 0.050792377 0.11608296 0.010991428 0.25830844 0.082982905 -0.6823441 0.4748967 -0.37517607 -0.8241017 -0.1536682 -0.20423198 0.4365597 -0.07786544 -0.19020115 0.08742932 0.6616432 -0.021526225 -0.38073823 0.18032686 0.23102467 -0.045134958 0.1206464 0.072034694 -0.5979565 -0.28680483 0.46247864 -0.17137739 0.5478291 -0.6419267 0.29585347 -0.11830316 -0.12911057 -0.6696167 -0.22463603 0.8019255 0.31848913 0.14867078 -0.68834466 0.07797238 -0.48347846 -0.38865444 0.31908798 -0.291397 0.055105183 -0.19533525 0.17327206 0.4844802 -0.2811162 -0.21620502 -0.4578425 -0.14489323 0.9611779 0.30295053 -0.58019733 0.63969266 0.19766448 -0.39848584 -0.27807885 -0.30551484 -0.24569482 0.16021514 -0.040285345 0.0154920155 -0.25616917 -0.068788305 0.03683476 0.06436028 -0.76726234 0.06936874 -0.01939981 -0.350562 -0.2044821 -0.017328164 -0.7413293 0.17777568 0.026620591 0.34300286 -0.34400228 -0.16369565 0.81437737 0.41399583 -0.326221 -0.20281588 -0.26826826 0.1315304 -0.56849456 0.290929 -0.7036471 -0.19362052 0.45195523 0.102331996 0.49791786 -0.20035441 -0.3930338 -0.09165468 0.08450345 0.31879348
http://www.semanticweb.org/jake/ontologies/2021/2/jbrown/Meat_pizza -0.07343148 -0.6339397 -0.5071609 0.86454 -0.5738184 -0.25201514 -0.341966 -0.38982242 0.20843005 0.09658661 0.21091813 0.01599333 0.41380793 0.2735933 -0.18067433 -0.07179046 0.33496103 0.04300767 -0.25352165 -0.0693814 0.056287568 0.012762775 -0.05644979 0.49502978 0.15871385 -0.29585344 -1.2342821 -0.35783228 0.20251468 0.040663842 0.5256097 -0.001357536 0.50380087 0.2680797 -0.3092924 -0.6695682 -0.5159621 0.53438187 -0.1890151 0.31266293 -0.34359446 -0.30777156 0.19294624 0.22484207 -0.25540015 -0.47064823 -0.16589572 -0.06676076 -0.24806744 -0.0046065105 0.2952951 -0.18774666 0.16654126 0.8068912 0.4438198 0.042626277 -0.29376215 0.24581681 0.19646695 -0.24380217 0.35958433 0.3981133 0.06554382 0.38008344 -0.18599124 -0.029213406 0.15207002 -0.033677902 -0.18435338 -0.10107902 0.02784954 0.16082627 0.16614476 -0.043116894 -0.33526778 -0.4044357 0.048340816 0.1432133 -0.04219035 0.23539025 -0.17642555 -0.0629588 -0.26724866 -0.34019175 -0.18620726 -0.3338192 0.14807782 0.06273633 0.009876776 0.5836207 -0.10744269 -0.1409809 0.62702215 0.0073115076 -0.03158593 -0.4735349 0.07715609 -0.09707781 0.63175404 0.23885219
http://www.semanticweb.org/jake/ontologies/2021/2/jbrown/Establishment -0.32063502 -0.4510641 0.09441342 0.1312334 0.21259436 -0.05818728 0.10790721 -0.1978564 -0.30685306 0.2993196 0.3701024 0.06266161 0.039656892 0.25535822 0.38163885 -0.6708585 -0.20800778 -0.77612776 -0.0077185524 -0.39553612 -0.02799785 0.13569312 -0.26046517 0.42631352 0.006844865 -0.5315453 -0.88251686 -0.228559 0.39371 0.21921356 0.317768 0.0630454 0.4012955 0.3474113 -0.36232796 0.030914562 -0.6140068 0.39826688 0.04457989 0.29000714 -0.33246458 0.13318084 0.33978367 -0.5355777 -0.32601827 -0.3145093 0.19088677 -0.35918164 -0.124383144 -0.6067586 0.5285313 0.23378855 -0.2988393 -0.1150385 0.5804024 -0.13691962 -0.5183747 0.22821936 0.25165212 -0.46454048 -0.20323022 0.446501 0.4004087 0.25978783 -0.18486638 -0.17496653 0.56341857 0.2790826 -0.58228195 0.17240691 -0.36013338 0.19041204 0.015919762 0.08859242 -0.07781084 -0.22522788 -0.8852934 0.42466083 -0.33775565 0.12747137 -0.42767966 0.57286245 0.018906716 0.015902521 0.07624758 -0.1788595 -0.50584036 0.5080197 -0.062264815 -0.08489125 0.030876676 -0.05226502 0.23127411 0.07326094 0.45935157 0.36421788 -0.111750044 0.6323218 0.1367964 0.20802514
country -0.36386526 0.10312828 -0.28911167 0.121750884 0.06816054 -0.021880016 0.6721775 0.03977395 -0.10723375 0.17398019 0.3827787 0.3930468 0.320623 0.49862593 0.17507328 -0.5537188 0.10976709 -0.88995403 -0.40287974 -0.38494197 -0.15276761 -0.029703746 0.22121392 0.33914912 0.23039302 -0.67657274 -1.3283993 -0.384578 0.0908823 -0.20494035 0.42329216 -0.10972844 0.36249098 0.19441375 0.038576208 0.26185584 -0.21322753 0.61757416 -0.17998233 0.35488063 -0.09434279 0.044008426 -0.06776539 -0.10387422 -0.30265367 -0.3962687 -0.6200227 0.21554671 0.026635928 -0.39431727 0.73722106 0.22118284 -0.053298138 -0.3684247 0.3930177 0.22107552 -0.64471155 -0.023771944 0.42821553 -0.8479086 -0.9542311 -0.09906209 0.12261609 0.5484187 -0.39550328 -0.14807184 0.35645705 0.09019569 -0.35766187 0.028432788 0.1644507 -0.32115483 0.16395037 0.23028718 -0.07361936 -0.63923144 -1.0344142 0.32557222 0.013607851 0.07674051 -0.53153735 0.48541278 -0.24044447 0.3467093 0.0024995583 -0.05894333 -0.27024156 0.44389746 -0.41783795 -0.14122115 0.046303984 0.2065788 -0.0653056 -0.17787935 0.28106597 0.23265038 -0.1062847 0.7474187 0.2677784 0.036863785
margherita -0.40133578 0.50716853 -0.6730627 -0.030261148 -0.23836698 0.09911509 0.4152536 0.24227536 0.513886 0.2639783 0.6293991 0.52138937 0.8894147 0.18916175 0.232555 -0.22159648 -0.28193074 -0.5161066 -0.49870306 -0.3239505 0.1501212 0.5932504 -0.163221 -0.27624938 -0.09849536 -0.5621007 -1.0667511 -0.4174759 0.42778465 0.5540821 0.22082719 0.27612585 -0.0754668 0.019075144 -0.2487993 -0.20540814 -0.42098698 0.3365703 -0.0978816 -0.22292462 -0.14560007 0.02036831 0.33590293 0.1415503 0.4321104 -0.37636438 -0.6177163 0.26631698 -0.40421402 0.19532058 -0.31363595 0.30963692 0.10406229 0.21739478 0.18365544 -0.19684781 -0.23871966 -0.21561728 0.58857834 -0.39786837 -0.5302167 0.18636484 0.1326214 0.19388415 0.26755196 0.09337653 -0.13960338 -0.1658515 0.324304 0.083308786 0.41578335 -0.24865001 0.22205964 0.27901787 -0.20624317 -0.53254724 0.2214575 -0.055874493 -0.09436515 0.10178998 -0.09564431 0.41888714 0.053621672 -0.30779028 0.22541593 -0.27425954 -0.7405205 0.17624417 -0.4226299 0.10029447 -0.31388766 0.022615874 -0.14927882 -0.1820521 -0.43596202 0.4855581 -0.2370389 0.3788519 0.46335405 0.29663587
http://www.semanticweb.org/jake/ontologies/2021/2/jbrown/Americana -0.3119366 0.13703552 -0.45423615 0.44692734 -0.3669676 0.219931 0.36069036 -0.43018147 0.59188414 -0.14380738 1.0521725 0.038964238 0.22166507 -0.01769682 -0.08690935 -0.28821734 -0.060085766 0.121067785 0.27802032 -0.19618027 -0.12409725 0.958254 -0.020529538 0.27175236 0.5450826 -0.6644006 -0.8717852 -0.7040458 -0.03532962 0.43495268 0.9496309 -0.3042009 -0.2209403 0.3508284 0.20029262 -0.3249014 -0.7687447 0.75634396 0.18672241 0.07960533 0.09976872 -0.112489514 0.28844786 0.107269116 0.0061322697 -0.07821797 0.17998521 0.20118931 -0.19724411 0.56500095 0.27655798 0.038018744 -0.30945212 -0.11902394 0.06814882 0.053234354 -0.116948 -0.16643958 0.8007133 -0.3388288 0.14219196 -0.08281311 0.26290262 0.0632938 -0.025266295 0.1177896 0.3435036 0.043239564 -0.082603246 -0.25278962 -0.09718341 0.11184128 0.5282478 0.076326065 -0.17978154 -0.9539474 0.30882546 0.05654311 -0.014257994 -0.18647972 0.05253375 0.4806262 0.1029547 -0.5743412 -0.15624423 0.22625317 -0.26300228 -0.27874646 -0.252506 0.3488647 -0.41233465 0.18808578 0.16418234 -0.14634803 -0.3192971 -0.14252734 -0.3125479 0.14366858 0.5442634 0.16605756
state -0.120825395 0.1217722 -0.3007348 0.28474888 0.12632948 -0.015470679 0.75816256 0.15685245 -0.056391682 0.013902037 0.435694 0.19558956 0.28049615 0.5171306 0.19894044 -0.6708162 0.050869282 -0.9129216 -0.33314517 -0.3023107 -0.08881458 -0.016408252 0.1465526 0.40594664 0.2104515 -0.80291516 -1.1393944 -0.42865905 0.09458906 -0.452682 0.13709827 -0.1909307 0.07684995 0.07963879 0.12401189 0.2612046 -0.29471907 0.6761017 -0.24820846 0.29193747 -0.24515025 0.043037664 -0.15334263 -0.15982212 -0.3510843 -0.3494129 -0.6285441 0.42793408 0.07281815 -0.42126256 0.54731506 0.35291967 0.065964065 -0.25042513 0.2875785 0.19445716 -0.6224998 0.011772628 0.41311833 -0.7742792 -0.8801512 -0.14549653 0.1657509 0.40557206 -0.30368707 -0.075872235 0.0357139 -0.11424611 -0.43852454 0.011514545 0.089132026 -0.05324735 0.16045287 0.3207189 0.053058445 -0.6247295 -1.0340757 0.26260448 -0.029257797 0.13154861 -0.29533854 0.5849068 -0.030831054 0.40537906 -0.17151496 -0.103166826 -0.25320166 0.5353059 -0.40581402 0.03083186 0.18988217 0.18166701 -0.001834053 -0.24616608 0.37445527 0.32341477 -0.15010616 0.75586355 0.10063831 -0.2402683
http://www.semanticweb.org/jake/ontologies/2021/2/jbrown/Cheese_topping -0.5777674 -0.13593812 0.054829832 0.17418662 -0.22669598 -0.028060744 0.02505276 0.08241135 0.37576288 -0.27965078 0.49604788 0.15667513 0.568016 -0.33578235 0.28572246 -0.052110456 -0.09637189 -0.13728786 -0.006583309 -0.17425707 -0.3386198 0.98725325 -0.38085702 0.43869302 0.54386157 -0.4310683 -0.6634308 -0.47553468 0.27785876 0.12001854 0.7882265 -0.012149203 -0.09095133 -0.49320084 0.21260434 -0.4171855 -0.2682883 0.37196937 0.20554888 0.6147513 0.064194895 0.08402385 -0.4278294 0.8183368 -0.09135313 0.32425833 0.20868659 0.062167324 0.1135348 0.6199505 0.0022808707 0.24512418 -0.375201 0.35710406 0.13981515 -0.19481988 -0.4349419 -0.044374254 0.45472118 -0.5164971 -0.19857582 0.11609201 0.57095236 0.4860948 -0.35780904 -0.17117675 0.11825277 0.08185676 -0.05713403 0.23245528 0.16300882 -0.17944637 -0.17446099 0.27088097 -0.41836005 -0.4956618 -0.13129582 0.42034084 -0.2906281 0.3889332 -0.22479582 0.32915512 0.068070166 0.09974104 -0.36142188 -0.038129434 -0.3016834 -0.29315978 0.12293417 0.13435063 -0.5798575 -0.14040497 0.49123535 -0.15350233 -0.22384855 -0.0066243303 -0.69945234 0.2721902 0.76420754 -0.31870288
city -0.24055575 0.11176943 -0.36062205 0.11514005 0.23235069 -0.034610808 0.84945965 0.19454925 -0.1845698 -0.09413459 0.36014092 0.19026138 0.31157207 0.4901901 0.21653731 -0.6525649 -0.026596833 -0.83629966 -0.42512995 -0.32886773 -0.12995206 -0.08033196 0.12017352 0.16492794 0.07580122 -0.75545686 -1.1529675 -0.24659185 -0.10559506 -0.31041592 0.18949232 -0.25801468 0.1970041 0.15427592 -0.05424399 0.018801907 -0.3017506 0.6910589 -0.100903615 0.46665362 -0.27659163 0.11138095 -0.1845104 -0.10563292 -0.10020782 -0.45134127 -0.5557481 0.345685 0.057710547 -0.3512838 0.42578492 0.24320103 -0.0903354 -0.36167103 0.37719303 0.09316348 -0.6256218 0.05569185 0.3123332 -0.85037285 -0.7764185 -0.107609585 0.0704891 0.5134279 -0.3822208 0.06430962 0.036161024 0.083449475 -0.40592575 -0.042237263 -0.04946668 -0.19151737 0.1548899 0.2560177 -0.116354816 -0.55681735 -1.0550475 0.37305033 0.1587526 -0.10726156 -0.47481647 0.5489401 -0.11400997 0.47525585 0.068052515 -0.023603339 -0.17109688 0.38987863 -0.5312713 -0.015350335 -0.018425617 0.049387425 0.022823716 -0.06832767 0.42207116 0.3833432 -0.049635306 0.7101833 0.05202922 -0.31779432
beef 0.17470224 0.24021992 0.13735159 0.37408897 -0.54552776 -0.098204896 -0.33696952 0.30379203 0.39681277 -0.26073608 0.31233588 -0.123987615 0.70033216 0.71574336 0.16633476 -0.9342532 0.1736687 -0.11627969 -0.4168256 0.15398204 -0.5345755 -0.1997247 0.44940084 -0.09295865 0.08003712 -0.47274393 -0.87841123 -0.9658367 0.09194361 -0.027919978 -0.4833271 -0.26779434 0.2728091 0.13094826 -0.40454185 -0.2174832 0.025802992 0.5390182 0.6082649 -0.22312523 0.22247635 0.25878003 0.3185246 0.3895556 -0.196396 0.31162888 -0.07291387 0.15548769 -0.6852083 -0.3940601 0.23990348 -0.074979864 -0.05420183 -0.18546686 0.034989737 0.08120798 -0.47415224 0.53258985 0.09036302 -0.4652334 -0.020897826 0.09406102 0.39726195 0.622445 0.16191404 -0.47206658 0.1756889 -0.2265609 -0.49953133 -0.6889926 0.06725118 0.36278364 0.43964478 0.6387413 -0.31104153 -0.9070924 -0.16923843 0.43874246 -0.39099535 0.3329261 -0.04205849 0.08346702 0.96757823 0.054338455 0.17631488 -0.6042214 0.40161797 0.25876558 -0.120309964 0.4970714 -0.18625651 -0.10059327 -0.17350608 -0.12073962 -0.2310635 0.37989447 0.07657952 0.3819198 -0.198086 -0.51328313
ham -0.5469289 0.13458113 -0.5337138 0.17623954 -0.276112 -0.5579776 0.29389706 -0.016655806 0.3400221 -0.08811323 0.45418838 -0.31578448 0.34172595 0.17148641 0.28718612 -0.82291085 0.21114051 -0.47088572 -0.7662948 0.33915502 -0.04252149 0.042974375 0.3321624 0.21770617 0.5804966 -0.87102765 -0.7642049 -0.7586343 0.45249024 -0.23663566 0.5173457 -0.8174243 -0.17497765 0.19899985 -0.49005204 0.0539005 -0.06941024 0.481226 0.28494978 -0.37174854 -0.077100866 0.20528345 -0.53631806 0.10597437 -0.13747002 -0.14817584 -0.08190276 0.10523646 -0.12745652 0.23850529 0.15562336 -0.23052448 0.10174097 -0.20505735 0.014517685 -0.16521607 0.4180903 0.17977253 -0.15147641 -0.5546499 -0.3706584 -0.05663252 -0.034553412 0.22328462 -0.09016483 0.29481348 0.036940213 -0.067086086 0.12017138 -0.10486523 0.03892787 0.02431727 0.19896802 0.067940444 -0.12813434 -0.36354667 0.027060967 -0.19372155 -0.025238082 -0.37393802 0.6110566 0.66454107 0.12691116 0.07922269 -0.5971271 -0.0927769 0.17118917 0.1174558 -0.4323901 0.08828489 -0.6603157 -0.23601897 0.12497014 0.26759273 -0.26616028 -0.29235464 -0.0767189 0.33386543 0.43293288 0.42904285
http://www.semanticweb.org/jake/ontologies/2021/2/jbrown/Has_location 0.1522323 -0.24966675 0.2046354 0.29098174 -0.19678822 -0.046579324 0.41928247 0.44363177 -0.12850966 -0.13855219 0.5867176 0.054282628 -0.0036767672 0.38654634 0.18221095 -0.5423711 0.0013995768 -0.65726864 -0.37743065 -0.0058942577 -0.12291011 -0.5728823 0.28843626 0.43562868 -0.04986237 -0.4284841 -1.170513 -0.56591254 0.20783262 -0.43531793 0.2182253 -0.50895536 0.28161186 -0.32237145 -0.4775082 0.17353253 -0.9082583 0.50712436 0.31682986 0.32401705 -0.016640397 0.48943788 0.6783135 -0.13481037 0.043596365 -0.34648368 -0.16366611 0.42294052 -0.2124592 -0.3216757 0.50434417 0.2295548 -0.32861692 0.13717078 0.7102149 -0.08728131 -0.562938 0.1698425 0.3917647 -0.30619717 -0.40343055 0.01615129 0.45594528 0.41596475 -0.117048405 0.052662887 0.2692282 0.07777508 -0.67571765 0.41281098 -0.11972348 0.3407832 0.049835693 -0.3357906 0.07992896 -0.36032116 -1.2257525 0.16478905 -0.56884515 0.27495742 -0.14135444 0.69276214 -0.23680645 0.07643009 -0.34654728 -0.13252382 -0.52259606 0.18400988 -0.040791005 0.24628656 0.025252782 -0.13595366 -0.13830283 0.06910603 0.6932331 0.20580937 -0.12902258 1.0525656 -0.2305429 0.02882313
http://www.semanticweb.org/jake/ontologies/2021/2/jbrown/Vegetarian_pizza 0.39178753 0.12769707 -0.7015135 0.32331315 0.124891385 0.18532342 0.19747947 0.051706266 0.11288098 0.42590412 0.63495916 0.60967207 0.36471638 0.38364688 -0.47082168 -0.3131951 -0.43558198 -0.62019396 0.11776194 -0.07732663 0.12489464 0.57260925 -0.57713115 0.28844854 0.10284008 -0.24012671 -0.7076639 0.073808044 0.8787887 0.8153258 0.48144192 0.5634319 -0.103590965 -0.33725765 -0.10999246 -0.10473226 -0.18716268 0.60303545 0.17603342 0.5984206 -0.32749328 0.09851662 0.86324245 -0.037382558 -0.07551141 0.37496156 -0.44154942 0.36942866 -0.20960546 -0.31736353 0.26497334 0.24728437 0.03909699 0.40689608 0.72463447 0.2806588 -0.2151525 0.008725989 0.58048445 -0.29689875 -0.3000702 0.15433465 0.25503427 0.16563907 0.040223908 -0.057599295 0.5744222 -0.07697389 0.04895878 -0.34533858 0.11829952 0.34373292 -0.07184605 -0.14861801 -0.10104696 -0.31708267 -0.17306107 0.042190596 -0.73650587 0.0038658676 0.25065428 0.2750216 0.10027841 -0.3141973 -0.28602228 -0.5741768 -0.7538924 -0.02177982 -0.10550294 0.02556416 0.3624408 -0.1355714 -0.0065504466 -0.09761397 0.15594769 0.6029673 -0.11186644 0.09205446 0.04913967 0.10092523
http://www.semanticweb.org/jake/ontologies/2021/2/jbrown/Seafood_pizza 0.26303282 -0.2513332 -0.10738801 0.59260625 0.12536044 0.30083495 0.15021837 -0.12504801 0.11864017 -0.017386587 0.6894121 -0.022968836 -0.09051513 0.77803457 0.031884816 -0.48212877 -0.27720597 -0.39230356 -0.5919366 0.20629172 0.2132176 0.10814451 -0.41976818 0.45159775 0.13266444 -0.27159047 -0.7682228 0.08265927 0.58701545 0.6213015 0.13318385 0.37092078 0.16197965 0.42063218 -0.24487051 -0.47799668 -0.2703352 0.62851983 0.0143796485 0.60782427 -0.41922274 -0.4146025 0.013253224 0.025692746 0.22636811 -0.4227124 0.030039763 -0.65374196 -0.395628 -0.09049305 -0.3792663 -0.467935 -0.09327436 0.43677396 0.091714315 0.19089103 -0.22961202 0.15614478 -0.05999164 -0.5256189 -0.16341472 0.5346137 -0.021073058 0.09071342 -0.07675024 -0.046523523 0.19643565 0.5061304 -0.06350554 0.37663108 -0.34927255 0.5297149 -0.27695963 -0.1600528 -0.42826125 -0.46196532 -0.5131664 -0.22294377 -0.34045038 -0.62384874 -0.18467885 0.3379127 0.38020256 0.08846571 0.1042463 -0.44476697 -0.50286126 -0.05672103 -0.25153884 0.46708557 0.13711075 -0.056291338 0.52125806 -0.121469244 0.10045333 0.4829322 0.19078194 -0.17824529 0.03434397 0.05724909
http://www.semanticweb.org/jake/ontologies/2021/2/jbrown/Is_located_in -0.65087 -0.19888932 -0.7795963 0.18370777 0.08982871 -0.0042028297 0.4802797 -0.039688624 -0.14004593 0.16455022 0.26892775 -0.28225362 0.08555493 0.21655922 0.103540026 -0.51777613 -0.11608693 -0.3976582 0.01765342 -0.12017805 -0.4800066 -0.42026582 0.5039775 0.7037715 0.40617508 -0.8992941 -0.6840336 -0.49770853 0.37611708 -0.10845722 0.21393679 -0.11423 0.4774598 0.20832773 -0.10850466 0.009974109 -0.789335 0.90021235 -0.12635688 -0.088793315 -0.47528425 0.54415965 0.46401617 0.1541878 -0.1093998 -0.025449498 -0.46455213 0.39265352 -0.03812175 -0.54109955 0.32506415 0.21132629 -0.63237953 0.14120115 0.88594574 -0.5145375 -0.9335719 0.19244117 0.7363766 -0.77518153 -0.33098412 0.30249345 0.24581648 0.121814646 -0.5369203 -0.47034493 0.45140487 -0.004494531 -0.6152136 0.35344255 -0.040101573 0.1912545 0.4685651 0.31583583 -0.055324264 -0.17497689 -1.0664905 -0.08896346 -0.34457767 0.1570598 -0.030486865 0.36897373 -0.1400535 0.56776947 -0.4673468 0.039687913 -0.35833582 0.20627975 -0.33035854 0.1449358 -0.11520566 -0.29746744 -0.1302802 0.2404927 0.41714087 0.1260432 0.26428226 0.026238041 -0.118582256 0.14748357
dessert -0.23172326 0.50747347 -0.4601252 -0.2536765 -0.4494978 0.069110386 0.6172909 0.33427975 -0.077039294 0.1302104 0.48706225 0.29841754 0.90604424 0.26220623 -0.06465174 -0.7182994 -0.65169877 -0.31611165 -0.47568178 0.2638821 -0.4489111 0.8058433 0.4162562 0.20591438 0.5136807 -0.16991396 -0.80417013 -0.5219778 0.20170382 -0.26131102 0.2889967 -0.37509763 -0.21817136 -0.0039011321 0.001042927 -0.15554859 -0.013668395 0.18930145 0.14611198 -0.031589452 0.17973076 0.9376386 -0.21157351 0.11177068 0.13784762 0.06458919 -0.27393162 -0.20702909 0.15728113 0.1644052 -0.33869392 0.30559173 -0.3775409 0.43838835 -0.16580276 0.24824819 -0.5015007 0.53132945 0.22311486 -0.7297864 -0.52243453 -0.05635396 0.026779346 0.048561443 0.23611167 -0.61323464 0.09736324 0.22286204 -0.04770369 -0.40361303 0.22379307 -0.23607293 -0.24555638 0.33712676 -0.62526494 -0.9711714 -0.54000735 0.2036406 -0.07943339 0.1426863 0.21084532 -0.11047736 0.55107 -0.26870504 0.10288534 -0.13488364 -0.7593087 0.21275875 -0.9198813 -0.36570802 -0.073369905 -0.30144978 0.19820084 0.026606482 0.06724058 0.5892419 0.2919915 0.24833609 0.13819034 -0.10170025
http://www.semanticweb.org/jake/ontologies/2021/2/jbrown/Dessert_pizza 0.065016665 0.39919624 -0.79076517 -0.036679406 -0.40086251 0.036231317 -0.129349 -0.08265651 0.30729347 -0.044752825 0.25760835 0.19823112 0.94632614 -0.040069755 -0.30868354 -0.43309686 -0.47500256 -0.31453502 0.106355555 -0.04836575 -0.11051097 0.88318604 0.1145495 -0.052046087 0.04724647 -0.32936212 -1.0030049 -0.29011 0.39009255 0.45012432 0.8759864 0.29553017 0.12038115 0.275828 -0.41346133 -0.39646283 -0.33286893 0.32905826 -0.1820989 0.36463228 -0.5192035 0.6534297 0.48165482 -0.12525427 0.28620732 0.18960315 -0.35851616 -0.0626786 0.25540483 -0.18992254 -0.31285736 0.66956097 -0.11250203 0.56786805 -0.13587967 0.021216642 -0.8694846 0.31959528 0.14886282 -0.5728148 -0.54607856 0.2522586 -0.15009658 0.057814498 -0.22983836 -0.05965919 0.11395274 0.026923686 -0.054685093 0.18165885 0.5188161 0.19375928 0.16982144 -0.05188101 -0.21017255 -0.49861005 -0.1108711 -0.48001865 -0.39866784 0.22079253 0.21268614 -0.16203174 -0.03596608 -0.38425198 0.2330517 -0.025513502 -0.4779971 -0.3551064 -1.0011204 -0.26196843 -0.1816849 -0.26518956 0.6412065 0.0059312056 -0.02475873 0.47078627 -0.06749789 -0.063209936 0.41569886 -0.12559518
pepperoni -0.35212156 0.056649312 -0.97251457 0.5373373 -0.21086891 -0.52944493 0.6677775 -0.15116273 0.12811483 -0.18708771 0.70273036 -0.08991993 0.010244342 -0.25777236 -0.032057192 -0.16056137 -0.0477455 -0.28610927 -0.5868956 0.26594624 0.41250935 0.35183293 0.2323919 -0.13365985 0.4961222 -1.2276487 -1.0430285 -1.1014513 0.13938539 -0.09214858 0.4540229 -0.12143424 -0.1697376 0.09766201 -0.43331948 0.3125935 -0.12224764 0.43618646 0.2194248 -0.053443834 -0.007708802 0.46085137 -0.5850038 0.28826556 0.1957955 -0.24048018 -0.08400854 -0.20354414 -0.4554758 0.542736 -0.068833165 -0.061066177 -0.24193285 -0.14708346 -0.52047193 -0.1830996 0.28958943 0.0805636 0.22109193 -0.7789367 -0.072214246 0.13403623 -0.26087624 -0.036278617 0.18157284 -0.04571807 -0.19919784 -0.21745704 0.04690172 -0.16767588 0.020361364 -0.30080807 0.049941607 0.4568417 -0.4819312 -0.87876296 -0.073417954 0.050963413 -0.1207082 0.043730333 0.19514157 0.5402418 0.5272147 -0.21853416 0.15106472 -0.24770834 0.2988183 -0.41515234 -0.78676665 0.260534 -0.78244334 -0.23177259 0.011584089 -0.17322923 0.023934068 0.28791004 -0.16754255 -0.026662607 0.48024344 -0.24973652
comment -0.49271703 -0.5564338 -0.21224968 -0.23689386 0.17969365 -0.21403198 0.5481576 -0.058682863 -0.15885614 -0.14884964 -0.060599294 0.50784934 -0.08476574 0.4432935 0.30500564 -0.20382372 -0.65268546 -0.5542467 -0.3816114 -0.7361592 -0.2791982 0.11484572 -0.6445636 -0.64162093 0.30748463 -0.72877705 -0.4427268 -0.64530337 -0.22675945 -0.02683758 -0.33072242 -0.13990465 0.104443006 -0.42533854 -0.28031304 -1.0462469 -0.08127947 0.5137211 -0.7742862 0.706509 0.1401687 -0.0340859 0.3302101 0.58799505 0.1305947 -0.60729307 -0.07829821 0.09341125 -0.8981341 -0.5352621 -0.13826005 -0.6175859 0.57551163 0.20523457 1.1231526 -0.34550992 -0.6233254 -0.38915455 0.17151211 -0.6326587 -0.4844204 -0.47175813 0.48269126 0.2915218 0.8992502 -0.0038824622 0.48833543 0.38631177 -0.96355575 -0.21475683 -0.26178488 -0.15645778 0.37653086 0.054794036 -0.09364138 -0.07940187 -0.24541992 0.71365964 -0.21250115 0.33799994 0.3832137 0.37820587 0.36037236 -0.11436295 0.026296599 -0.27829045 -0.08721108 0.06703616 -0.83558357 0.16240971 0.017827248 0.37514618 -0.09460469 0.19142237 -0.31253472 0.38574588 0.007690178 0.43004367 1.0558313 0.49393526
http://www.semanticweb.org/jake/ontologies/2021/2/jbrown/Pizza_base 0.046528697 -0.69757646 -0.34705675 -0.29940146 0.124338195 -0.16881463 -0.02189402 -0.08056102 0.23624466 0.43460613 0.50394934 0.37275973 0.07444104 0.6608173 0.40216774 0.20544153 -0.19803259 -0.6971817 -0.043365065 0.075542785 0.20979753 0.19480236 -0.033339746 0.3090643 0.6325157 -0.4926353 -0.93904 -0.02299559 0.18924947 0.22596878 0.13695246 -0.16390625 -0.08847445 0.30838332 -0.8610507 -0.23653015 -0.24892749 0.8812008 -0.5238704 0.045691665 0.20029692 -0.18354627 1.0060444 -0.4777057 -0.52642024 -0.14296709 0.28868243 -0.3217281 -0.5937252 -0.54453284 -0.044077355 -0.40402603 0.24644169 -0.048756685 0.06313691 -0.40070146 -0.6198494 0.14830597 0.6197304 -0.31912062 -0.012142836 0.47748318 0.48483986 0.45365524 -0.053351417 0.14464796 0.34019968 0.0006923184 -0.3817174 0.10413726 -0.19903947 -0.057171546 0.6350119 -0.25228688 -0.25487766 0.19377673 -0.08149944 -0.101112954 -0.5003322 -0.62081075 0.19099043 0.22020215 0.24224816 0.32206848 -0.39722928 -0.5213067 0.09263129 -0.27500632 -0.15617631 0.1521517 0.15067373 0.30450922 0.22936289 0.2743174 -0.37822515 0.3662931 0.08430853 -0.24644306 0.12039195 -0.5267254
some -0.06478976 0.06706125 -0.6634181 0.10268625 0.02284582 -0.15621638 0.09335231 -0.1815128 -0.5432576 0.7105715 0.16552411 0.60529596 0.22544314 -0.4389153 -0.3819143 -0.10894256 0.24319267 -0.36984593 0.1386398 0.1424269 -0.20734459 -0.28696322 0.2596176 0.20322609 0.22376803 -0.082414076 -0.89503366 -0.23206888 0.40344954 -0.04573843 1.0100143 0.10162102 -0.04392583 0.12855247 -0.35234413 -0.37942603 -0.36671948 0.34384406 -0.22416824 0.48346284 0.1488913 0.18305004 -0.33651245 -0.20716418 -0.23941222 -0.08078069 -0.12565091 0.0046375482 -0.16539913 0.2309612 1.1483245 -0.5353146 0.27360398 -0.04713152 0.983623 0.25155875 -0.38976833 0.04621815 0.29687393 -0.5513261 -1.0236735 -0.18628295 -0.010621839 0.54311377 0.1629079 -0.27179292 0.5884381 -0.071818605 0.1099348 0.25179854 -0.07643081 -0.073427595 0.4630257 -0.2172635 0.046352986 -0.48492134 -0.45404282 -0.1510853 -0.22537115 0.38329548 -0.17018265 -0.24376918 -0.40436733 0.12583198 -0.4163663 0.019214297 -0.7284913 0.120108575 -0.70074046 0.24118194 -0.3972623 0.30546743 0.1728916 0.28431883 0.055742778 -0.114199094 -0.78073305 0.45402148 0.7889551 0.74404365
http://www.semanticweb.org/jake/ontologies/2021/2/jbrown/City -0.2809813 -0.010765516 -0.28093746 0.3650033 0.33595645 -0.09438504 0.6790836 0.061059564 -0.23721713 -0.22222534 0.5751897 -0.074848056 0.19431019 0.45918974 0.29776546 -0.5474329 -0.17802694 -0.59571105 -0.38649133 -0.107430816 -0.14204444 -0.26651344 0.0856066 0.62260383 0.018907173 -0.71776205 -0.85942227 -0.30346832 -0.10644422 -0.053554904 0.16751912 -0.24161853 0.27742532 0.3653945 -0.38019037 0.19947632 -0.7202241 0.5390102 0.33543596 0.33699194 -0.43139216 0.3560929 0.12997779 -0.059483416 -0.21526799 -0.1378918 -0.30219296 0.09317349 0.22126272 -0.43301162 0.48524222 0.17159684 -0.15963079 -0.09382741 0.54211813 -0.09616382 -0.5380248 0.5059328 0.32318294 -0.76680183 -0.4966018 0.07091845 0.4132178 0.19792187 -0.50344586 -0.048772324 0.123552375 0.40441224 -0.3726547 0.059477203 -0.12778234 0.0014747232 0.057917546 0.022472382 0.16162938 -0.05982948 -1.2746004 0.09864058 0.1509023 0.13413684 -0.4300769 0.32753047 -0.014743286 0.15191737 -0.27924228 0.36717254 -0.65157175 0.10956356 -0.23507078 0.019994523 -0.11824772 -0.20969576 0.11198494 0.23210464 0.3400842 0.37634254 -0.14040625 0.6562164 -0.013458994 -0.38295764
http://www.semanticweb.org/jake/ontologies/2021/2/jbrown/State -0.17877355 -0.10473748 -0.2314569 0.09637787 0.15812896 -0.02437701 0.39955944 -0.15708463 -0.03991571 -0.07894202 0.57391006 0.18519136 0.14660387 0.3429248 0.2052923 -0.4812957 -0.10912111 -0.5987038 -0.09097971 -0.35676786 0.054957736 -0.2380873 0.07500693 0.68161565 0.14799365 -0.6560345 -0.8069603 -0.46484122 0.18057968 -0.29099292 0.13567466 -0.03511327 0.04959154 0.0282809 -0.42098507 0.11116938 -0.521825 0.9416911 -0.018008057 0.20130107 -0.42412183 0.39372545 0.10953094 -0.075034775 -0.27298674 0.026740668 -0.35889187 0.0004929917 -0.10292738 -0.36685976 0.75506145 0.5202815 -0.3574843 -0.081873685 0.5713461 0.04383813 -0.72805524 0.27661735 0.5894812 -0.685875 -0.64868784 0.17492174 0.39707378 0.24354938 -0.42651924 -0.42345208 0.18635246 -0.14310358 -0.86336356 0.017524846 -0.118779995 0.06333417 -0.20848614 0.6982051 0.09495349 -0.15331106 -1.152878 0.14658204 -0.09314576 0.16214767 -0.40969443 0.5294002 -0.087881014 0.109572254 -0.33112642 0.29181805 -0.35090533 0.26595062 -0.21023181 -0.03202343 -0.24696554 0.2293379 0.2021089 0.11561936 0.43249413 0.04380269 0.3351674 0.6211038 0.09329427 -0.04755782
base 0.15782818 -0.15845451 -0.9756217 0.059345093 0.2398462 -0.10939124 0.48581943 0.25274724 0.26621187 -0.3422755 0.43904212 0.3423506 0.50277203 0.93932295 0.30057493 -0.011581492 -0.14428455 -0.8096546 -0.9196395 -0.13353837 0.07357386 0.44068098 0.34501705 0.37618148 0.44997317 -0.46223837 -0.54363215 0.2007292 0.34415966 -0.022688068 0.1578392 -0.2423595 0.00230619 -0.2314179 -0.56234884 0.118693784 0.22609074 0.9000898 -0.7303053 0.43535292 0.14783457 0.017179552 0.110023305 -0.57976073 0.2594214 -0.5125884 0.07789392 -0.04959734 -0.5510996 -0.13686086 -0.028413204 -0.23256671 0.22667062 0.050210014 -0.12570152 -0.576292 -0.2805649 -0.07805271 -0.08055815 -0.019654032 -0.31553766 0.2999978 -0.42266318 -0.40954664 0.23781098 -0.018314565 0.27528378 -0.14702241 -0.44353676 -0.38485682 -0.2582182 -0.36374897 0.080192894 0.032785922 -0.30996826 -0.25896922 -0.24223602 0.29764596 -0.15967995 -0.8671468 0.4032138 0.46344104 -0.33573174 0.2551763 -0.16534872 -0.32753697 0.18682174 0.21598329 -0.5529395 0.051794056 0.06267919 0.49684745 0.16633324 -0.4853245 -0.09160429 0.44755986 0.53342485 -0.1614474 -0.27021787 0.005165009
http://www.semanticweb.org/jake/ontologies/2021/2/jbrown/Margherita -0.6524412 0.35232854 -0.54676485 0.2937184 0.071706794 0.4082204 0.31997243 0.100184344 0.5516771 0.26875815 0.6754279 0.0689254 0.9028973 0.15835631 0.10503268 -0.20402446 -0.41776583 -0.51592886 -0.17986514 -0.6815675 0.23148817 0.87471557 -0.18802091 -0.11596039 0.04100642 -0.44532064 -0.89833844 -0.57374537 0.6381325 0.62636364 0.66333944 0.53347665 -0.15045476 0.22508825 -0.015853692 -0.25636074 -0.55540955 0.5432603 0.07569191 0.009848989 -0.21065997 -0.21568944 0.48464584 0.07707114 0.24694735 -0.16286716 -0.51860994 -0.16346781 -0.16605367 0.30680215 -0.37376425 0.25644535 -0.1150343 0.8516759 0.26703832 -0.057708565 -0.23887092 -0.19668892 0.77878714 -0.46076298 -0.51968205 0.31224036 0.38876143 0.3902011 0.23742469 0.35712847 0.018232629 -0.13609335 0.17648147 0.38538265 0.39260897 -0.09998291 0.16287881 0.009017423 -0.0027402428 -0.46634477 -0.0705778 -0.19493398 -0.31699574 0.068649784 0.015419 0.30240983 -0.06155624 -0.27388954 -0.15371491 -0.03883727 -0.7979139 -0.25377807 -0.19898215 -0.093586706 -0.2524938 -0.32769635 0.25420007 -0.36524838 -0.48799354 0.34728497 -0.6118814 0.14136323 0.725112 0.18777718
http://www.semanticweb.org/jake/ontologies/2021/2/jbrown/Country -0.56133497 -0.46948978 -0.044548903 0.28157943 0.22208138 0.10908784 0.59642553 -0.25712574 0.16661415 -0.2204746 0.30489832 -0.11369592 0.10342978 0.5884554 0.39665607 -0.3151113 -0.20120673 -0.77873784 -0.19966143 -0.18790357 -0.14222303 -0.16714028 0.014030317 0.64758104 0.15597504 -0.6284419 -0.9878829 -0.58110374 0.45970848 -0.086340465 0.1776715 0.060375173 0.44976932 0.28145665 -0.18569086 0.18585053 -0.6663458 0.9063924 0.2279838 0.16712588 -0.36718696 0.33302894 0.13415907 -0.15910608 -0.30287057 -0.14594778 -0.32385284 -0.024657052 -0.04127675 -0.2712046 0.44837427 0.063622504 -0.27516085 -0.42648098 0.515527 0.04518954 -0.70858955 0.41136992 0.44781634 -0.8434358 -0.43113747 -0.18279807 0.36499292 0.20529953 -0.6033062 -0.15487044 0.036469176 -0.12977676 -0.6885978 0.15807776 0.032949362 -0.2722598 -0.00087852206 0.29121032 0.20736209 -0.057110474 -1.177477 0.41809183 -0.051803693 0.4332785 -0.37831768 0.44924223 -0.22458878 -0.007389997 -0.35962555 0.26474285 -0.60014045 0.21289033 -0.040485628 -0.19268596 -0.17827316 -0.23772937 0.047714543 0.15313752 0.5509233 0.18651758 -0.1046472 0.49316838 -0.045888152 0.025467824
http://www.semanticweb.org/jake/ontologies/2021/2/jbrown/Pepperoni -0.22079998 -0.1364142 -0.61248696 0.52749527 -0.5260255 0.12510626 -0.11852681 -0.46554536 0.39728802 -0.12592071 0.57357115 -0.18336828 0.42720494 -0.09565628 -0.046006642 -0.1557972 0.28223813 0.036341462 -0.20938885 0.11032889 0.19039358 0.21001317 0.21842234 0.21802999 0.63939124 -0.98729503 -0.6352314 -0.55443466 0.24651814 -0.08301216 0.93033874 0.021159204 -0.14017476 0.18417259 0.016761841 -0.066556334 -0.31357515 0.7457068 -0.12130009 0.23213156 -0.27921993 0.34105617 -0.39235023 0.22006755 -0.09439183 -0.04308554 0.040101055 -0.23905702 -0.21044959 0.8867338 -0.07663111 -0.41842568 0.08694801 0.20657256 -0.21074452 -0.27588364 -0.50365835 0.098745264 0.41266003 -0.7620258 0.091109484 0.24371886 -0.33235362 0.18134446 0.010982955 0.12328753 -0.07874453 -0.2824328 0.13920622 0.049638126 0.15833335 0.032281 0.28849527 0.32249248 -0.12439637 -0.7266212 0.046165768 -0.104085065 -0.08888301 -0.061342873 0.26988634 0.28697425 0.06651968 0.002333417 -0.08061592 0.03602158 0.49688825 -0.59278536 -0.33419055 0.4056061 -0.7287908 -0.12787865 0.42670563 -0.43559983 0.0025918419 0.015307225 -0.27699822 -0.36520156 0.45895502 -0.296158
http://www.semanticweb.org/jake/ontologies/2021/2/jbrown/Ham -0.63899165 -0.091214925 -0.51495564 0.49479875 -0.5152938 0.14775781 -0.16751504 -0.14165792 0.6208995 -0.27889898 0.154196 -0.37285915 0.5991576 0.35428882 0.13562395 -0.29343715 0.19913496 -0.14432435 -0.4996597 0.24025634 -0.24728632 0.27522978 0.38606298 0.4707401 0.584335 -0.7222561 -0.67397267 -0.4475288 0.5920364 0.030925466 0.91454935 -0.36612844 -0.27655813 0.08874115 -0.29143384 -0.5541494 -0.008521087 0.87994665 0.05877658 -0.18036097 -0.6145931 0.45772266 -0.73405015 0.2439057 0.18594782 -0.015829736 0.06403969 -0.18658234 0.02004002 0.82787424 0.04768023 -0.5040722 -0.08843601 0.30361095 -0.14286332 -0.5131145 -0.057114784 0.57401407 -0.16274372 -0.6387716 -0.3585645 0.053774774 -0.2791059 0.28630805 -0.10234133 0.25805837 -0.04576773 -0.18346447 0.19984424 0.14499867 0.0208954 0.15963684 0.3326581 -0.07883925 -0.37689105 -0.26800525 -0.045056533 -0.34656143 0.096015275 -0.75993943 0.1901278 0.3839383 0.058089282 -0.035314932 -0.4874366 0.16266792 0.19101746 -0.006816798 -0.030983426 0.57184917 -0.66334987 -0.32349694 0.67119116 0.22967274 -0.7032091 -0.09520163 0.258778 -0.26467872 0.2649827 0.11357069
mozzarella -0.11003396 0.20486264 -0.89307415 0.5928514 -0.61582774 0.12303755 0.47623092 0.15241581 0.32518256 -0.09398067 0.71594423 0.9066161 0.75578046 0.33244398 0.3478573 -0.18320146 -0.33330584 -0.62180036 -0.5904963 -0.0021495954 0.060643468 0.6774549 -0.78446215 0.1129268 0.22329801 -0.6949193 -0.87687844 -0.20591791 0.2682003 0.57829225 0.18860643 -0.13658713 -0.2493873 -0.39223215 0.1404446 -0.29049268 -0.0944835 0.08920332 0.024561685 0.02943678 -0.037889328 0.19950643 -0.43393844 0.5798582 0.20179532 -0.26858458 -0.44790128 0.62370557 -0.7465328 0.8261143 0.17610644 0.23746596 -0.033890393 -0.12819283 0.20560786 -0.5691052 -0.014188312 -0.1403257 0.5444024 -0.93497026 -0.5224937 -0.29594913 -0.06717173 -0.051062588 0.41327855 0.19683509 -0.054790415 -0.2234294 0.50522035 -0.005055058 0.29663187 -0.4082134 0.053047303 0.22608234 -0.43093333 -0.50784427 -0.19618699 0.21962096 -0.15001504 0.05285487 0.05345259 0.45270965 0.33420938 -0.2075058 -0.27430117 -0.38003147 -0.6385196 0.39493215 -0.019764 0.1697415 -0.38822937 -0.05986831 -0.3438075 -0.21364726 -0.14807837 0.36161116 -0.29467967 0.37514308 0.59080726 0.041981474
oyster 0.4084462 0.20407723 -0.03951356 0.2819194 -0.017092466 0.2022885 0.2636111 0.3818933 0.50969154 0.19627984 0.489458 0.03326502 0.19429725 0.48684448 0.34523234 -0.7656919 0.14052981 -0.40717867 -1.0826387 0.5569873 0.12123827 -0.18656282 -0.28578728 0.17815113 0.016712897 -0.55929434 -0.46809408 -0.3552018 0.24116129 0.06715606 -0.23218419 -0.0727175 0.09445627 0.029459802 -0.3906002 -0.3081885 -0.49578565 0.21965614 -0.032303732 0.14420794 -0.043601826 0.028497342 -0.3319479 0.0498827 0.23090796 0.08210611 -0.11227311 -0.109722495 -0.22885667 -0.10101415 -0.4457669 -0.37422794 0.2871128 0.003489601 -0.13088651 0.042950783 -0.28629568 0.11987144 0.058209267 -0.6143892 -0.20797072 0.21761407 -0.24245253 0.15768455 0.21594721 -0.6822699 0.29908895 0.4563827 0.20376895 0.11156673 -0.19343543 0.10525472 -0.25161624 -0.16947682 0.040844683 -0.6637778 -0.47264436 -0.078345805 -0.1408228 0.22267793 -0.08225574 0.3862795 0.9160145 0.25674194 -0.323399 -0.5321569 -0.52191806 0.38111976 -0.4673855 0.28543174 0.006222184 -0.35639337 -0.36169562 0.020283176 -0.30700815 0.7934427 -0.052706264 0.4050354 0.10300067 -0.23983012
tuna 0.24334961 0.13766156 -0.100312755 0.29188016 0.043555308 0.267815 0.37728113 0.42785752 0.4490111 0.32594085 0.45558277 0.13663422 0.28726745 0.51354337 0.35603145 -0.49538943 0.06222366 -0.5593127 -1.0780908 0.59739697 0.10226632 -0.15655045 -0.15237951 0.08817569 0.030471744 -0.49052966 -0.41682407 -0.3524257 0.20148572 0.12594177 -0.09059596 0.085740134 -0.009072958 0.3327742 -0.22273286 -0.31155112 -0.3979091 0.23518023 -0.11173875 0.15257096 -0.0027308173 0.06616325 -0.36868376 0.008440014 0.090597436 -0.06662047 -0.06982299 -0.24842624 -0.23494872 -0.17683555 -0.5243306 -0.34919307 0.2826246 0.17472279 -0.2101616 -0.21683493 -0.1995387 0.16687801 0.31720838 -0.5678573 -0.22528546 0.30472103 -0.21889615 0.28951275 0.085944094 -0.77725935 0.33592886 0.6062475 0.27327424 0.036958836 -0.1608845 -0.024064556 -0.15439391 -0.25782856 -0.14135881 -0.793803 -0.30337965 -0.22681388 -0.19656008 0.12690625 -0.19457744 0.2803572 0.8518493 0.20695312 -0.37575144 -0.49937284 -0.36264494 0.38672704 -0.50662047 0.22082013 -0.21966438 -0.22646034 -0.2517409 0.048607636 -0.41003522 0.8702843 -0.005829937 0.22528704 0.19565792 -0.19669762
shrimp 0.34446672 0.21547274 -0.15275948 0.25228238 -0.06884963 0.33103767 0.3004682 0.4762204 0.55993164 0.20309998 0.47276962 0.11905746 0.27249184 0.4820017 0.39505404 -0.71688944 0.14156507 -0.47748977 -1.1612269 0.61682487 0.18444456 0.036508463 -0.34111834 0.09493582 -0.03189312 -0.4924958 -0.47625154 -0.29423383 0.30967113 0.11551238 -0.053519025 -0.065771945 0.084948175 0.09591818 -0.46215993 -0.39487565 -0.3583425 0.24967305 -0.08334428 0.23721552 -0.047441565 0.03794421 -0.37551674 -0.019986492 0.300272 0.04324671 -0.07977978 -0.21526067 -0.19088538 -0.06142302 -0.4725264 -0.35385484 0.37627155 0.12749894 -0.16813149 -0.07438466 -0.16669312 0.19584459 0.105043456 -0.49482468 -0.2350904 0.2287317 -0.31121722 0.08281926 0.23518114 -0.6674979 0.31676754 0.5883275 0.28839248 0.05513504 -0.23448804 -0.027892418 -0.26717085 -0.33519965 0.021052932 -0.67328227 -0.24529928 -0.04960148 -0.18330157 0.13917996 -0.23373885 0.43698683 0.752633 0.115516074 -0.30453673 -0.5474597 -0.5360824 0.4316919 -0.50759476 0.27958885 -0.17826807 -0.15766695 -0.2819079 0.010205457 -0.41404518 0.7355961 -0.08805486 0.4130788 0.1743798 -0.22023717
crab 0.81883335 0.0423762 -0.2972807 0.24865821 -0.1033319 0.33303025 0.3628164 0.39913636 0.5956111 0.42210153 0.51705986 0.002186201 0.32396573 0.6619688 0.3345378 -0.6942833 0.009864802 -0.5983044 -1.1057609 0.63054866 0.12119134 -0.02463277 -0.28825247 0.07707884 -0.07066034 -0.3939213 -0.31127456 -0.3298442 0.18793468 0.17593032 -0.17820486 -0.15221608 -0.11118992 0.34850782 -0.30232415 -0.2560981 -0.29689392 0.2113051 -0.067799434 0.11545597 -0.13059492 0.044749837 -0.41785926 -0.2291709 0.10036041 -0.12285102 -0.10050964 -0.19366445 -0.28919125 0.021620607 -0.674458 -0.5376067 0.29990512 0.0058565596 -0.19663194 -0.19747442 -0.48703465 0.2520271 0.094295815 -0.39769956 -0.18980575 0.3255693 -0.27911818 0.14708336 0.24667214 -0.46691486 0.27350613 0.5990084 0.17428422 -0.35201114 -0.17931248 0.1891957 -0.13663223 -0.11715853 -0.08728743 -0.8016427 -0.26123086 -0.30165553 -0.481022 0.038456086 0.14035535 0.2920985 1.1004758 0.15874182 -0.31743854 -0.7600874 -0.3228488 0.22745068 -0.61770785 0.22807766 -0.42055097 -0.33024955 -0.011932696 -0.07024205 -0.1638031 0.65832794 -0.108299315 0.13894235 0.10163716 0.08008005
salmon 0.25808692 0.28602892 0.118933156 0.12703837 0.025017707 0.13693821 0.17510994 0.43734562 0.6346012 0.12745038 0.51535463 0.22341819 0.3199153 0.44907296 0.27283195 -0.75919634 0.24266659 -0.44652718 -1.1597171 0.3883138 0.21592058 -0.150784 -0.29014328 0.014469742 -0.046508975 -0.6200527 -0.53042483 -0.22998121 0.38604656 0.07830914 -0.12562488 0.12598556 0.2571709 -0.11508614 -0.4460299 -0.4938613 -0.5985058 0.32427806 -0.11912004 0.26861238 0.022132058 -0.06734079 -0.2673766 0.13483255 0.25502124 0.17443213 -0.1595389 -0.026750598 -0.2203529 -0.2642656 -0.46670517 -0.387861 0.38112816 -0.027992664 -0.077868834 0.02424598 -0.099705346 0.049041137 0.19432922 -0.64226663 -0.06959518 0.15350772 -0.33134013 0.2999952 0.15408346 -0.84825045 0.2938289 0.42364603 0.26147664 0.17842226 -0.16170299 0.0040847287 -0.178455 -0.2162521 -0.044739805 -0.69428384 -0.26700136 -0.027837418 0.07088752 0.24255002 -0.15629943 0.40336168 0.67921567 0.32949904 -0.21000496 -0.6070699 -0.46547765 0.4411386 -0.50850505 0.3437142 0.091983445 -0.32381144 -0.50898784 0.07245933 -0.55845356 1.0276501 0.1502087 0.5060093 0.23110572 -0.41246265
sardine 0.36917987 0.4017588 0.050146386 0.27366182 -0.17251557 0.4928618 0.24702604 0.44891897 0.6754439 0.16366893 0.43220702 0.059391372 0.44945264 0.53515846 0.25769004 -0.5875469 0.19729538 -0.47316262 -1.2302588 0.6127275 0.24940556 -0.13828869 -0.09435338 -0.047954552 -0.10697244 -0.5738805 -0.5140538 -0.23672047 0.3388587 0.24039371 0.07040101 0.057397164 -0.048304427 0.16580726 -0.25139752 -0.3937509 -0.56064034 0.40013653 -0.092121564 0.18537323 -0.25200203 0.27930015 -0.3852669 0.061074615 0.28273368 0.20187981 -0.120829396 -0.2946984 -0.20787957 -0.0013543491 -0.6356049 -0.17331626 0.39592218 0.17075098 -0.28132144 -0.25938815 -0.2503858 0.30427438 0.22519667 -0.47306448 -0.20557106 0.43900752 -0.37810126 0.2971367 0.09155824 -0.6211023 0.19418567 0.45623365 0.32592013 0.05818131 -0.077115364 -0.009104678 -0.18680067 -0.3149934 -0.1299817 -0.9144107 -0.20848788 -0.28930146 -0.18111494 0.20606497 -0.21627007 0.35314694 0.79667914 -0.0040842374 -0.1502451 -0.46475032 -0.19297175 0.28059196 -0.41222537 0.2958308 -0.14364287 -0.32616597 -0.19566043 -0.08884647 -0.4073769 1.0471187 0.10870214 0.19260146 0.06879928 -0.43428087
anchovy 0.14525382 0.49161384 -0.12918244 0.12629245 0.049876023 0.30146933 0.2371558 0.4326216 0.5125677 0.22469817 0.42617762 0.10574194 0.27066556 0.4387691 0.24112563 -0.7311599 0.19777763 -0.45825276 -1.265995 0.7063321 0.19617762 -0.12702933 -0.14569694 0.045478724 -0.013148585 -0.6718723 -0.4379189 -0.37133417 0.42103535 0.01105865 0.029644359 0.011553521 0.12917131 0.04485149 -0.41850242 -0.2870095 -0.35629216 0.18581973 -0.10946787 0.17122857 -0.06001111 0.20132376 -0.3869488 0.09457041 0.24129307 0.2572314 -0.10857653 -0.26341543 -0.16614144 -0.29491025 -0.5261754 -0.27572933 0.39632535 0.15612812 -0.22277309 -0.21228309 -0.23530307 0.26158285 0.22055122 -0.68104935 -0.38882592 0.46461698 -0.2868419 0.085287854 0.018715238 -0.85348827 0.29333368 0.6427415 0.40866563 0.20888963 -0.20319071 -0.11194577 -0.2442468 -0.3793159 -0.026617015 -0.87498677 -0.29689756 -0.23566408 -0.10744113 0.20801245 -0.40808508 0.3762754 0.73188 0.28637692 -0.26564595 -0.49394867 -0.5674614 0.31910032 -0.59571165 0.3600213 -0.0901969 -0.14723928 -0.51523936 -0.08164185 -0.4994246 0.9839253 0.018209772 0.33289617 0.18571682 -0.41003767
pineapple -0.7734113 0.18669222 -0.41522303 -0.1896839 -0.15411918 -0.03451451 0.07816992 0.42997837 0.10938329 -0.5452424 0.22909664 0.09288772 0.7598298 0.42438298 0.34975022 -0.39267534 -0.06359089 -0.6862662 -0.83744305 0.39606622 -0.5915337 0.3838799 0.29057494 0.34441623 0.7499806 -0.6072931 -0.8497068 -0.6522231 0.5353242 -0.0120851975 0.4500106 -0.77961874 -0.13108294 -0.27456722 0.059248835 -0.4757819 0.19357458 0.46780017 -0.1751444 -0.24783935 -0.05192591 0.22920679 -0.7246195 0.25183526 0.17714626 -0.13624233 -0.27216187 -0.23821068 0.25155738 0.31918472 -0.098325066 -0.2546432 0.10167859 0.36476603 0.017306348 -0.48649895 -0.34180903 0.2897271 -0.5086253 -0.5130568 -0.8871294 0.19144328 0.15196633 0.46491694 0.023242647 -0.4869981 0.055900656 0.24271807 0.060401816 -0.11100291 0.21033327 -0.33322895 -0.05976552 0.19540699 -0.29819345 -0.27140796 -0.34590858 -0.27869153 -0.1490835 -0.5754213 0.13888845 0.16920583 0.22377913 0.15794972 -0.70913625 -0.014220913 -0.17550997 0.7326505 -0.34670517 0.13460374 -0.4731443 -0.28973815 0.68818414 0.34538245 -0.44891012 0.048259255 0.22196198 0.38460478 0.4412674 0.20164864
mussel 0.2596356 0.22637302 0.023917701 0.23870766 -0.10563587 0.36860284 0.2820272 0.41817382 0.49571612 0.18394221 0.54125464 0.26425087 0.3183655 0.44438943 0.3481573 -0.6303706 0.1393936 -0.4467706 -1.1667796 0.59988093 0.15487097 -0.027826335 -0.2615314 0.095491715 -0.013660945 -0.53855056 -0.49074146 -0.27277663 0.2635649 0.18169695 -0.03658543 0.047969323 0.1195885 0.113663375 -0.2795811 -0.5648049 -0.45899296 0.35660002 -0.21335305 0.34728196 -0.08322773 0.02851315 -0.44314888 0.00697676 0.35097376 -0.060458533 0.027728906 -0.31920332 -0.23178205 -0.021725506 -0.5950194 -0.38207182 0.35079655 0.24994431 -0.19849433 -0.14556332 -0.21283238 0.10954653 0.14458211 -0.5719205 -0.15591748 0.26872423 -0.35244378 0.29037675 0.26859474 -0.8048633 0.35113025 0.60192746 0.23091601 0.1190026 -0.15361953 0.057458494 -0.15821467 -0.10359291 -0.105258815 -0.7270065 -0.17050005 -0.039293207 -0.101152994 0.107569374 -0.16169658 0.42514327 0.6785259 0.05470813 -0.18901855 -0.51688915 -0.35418957 0.48040044 -0.53331715 0.35776436 -0.14581202 -0.19314301 -0.2030051 0.011598314 -0.3670244 0.8841573 0.14178689 0.35548866 0.1988914 -0.2243366
http://www.semanticweb.org/jake/ontologies/2021/2/jbrown/Dessert_topping -0.28170088 0.42061722 -0.79703003 -0.120263666 -0.34884068 0.37774205 0.25480667 -0.24897543 0.45840093 0.29365957 0.52330697 0.35284433 0.75000143 0.24100548 -0.18384455 -0.65936184 -0.9736907 -0.012175983 0.049956623 0.0071670446 -0.5037078 1.0392486 -0.0019389283 0.46756083 0.7854716 -0.1417104 -0.33127198 -0.30105057 0.6106646 0.02230102 0.58073103 0.0634137 -0.08633206 -0.088694185 -0.019431937 -0.43161333 -0.17630403 0.7750708 0.08879716 0.176092 -0.09193615 0.6315807 0.1707599 0.1422805 0.08711769 0.38028562 -0.1730544 -0.3821406 0.21829675 0.2532101 -0.33708566 0.32624242 -0.6633694 0.5355662 0.2169589 0.33877152 -0.82196933 0.5405372 0.75175935 -0.596438 0.114097394 0.039056066 0.17186995 -0.14975037 0.048326712 -0.42518464 0.4497813 0.28749 -0.12633607 -0.39880505 -0.15261781 -0.21445829 -0.31604433 0.5325437 -0.40709612 -0.60348827 -0.27306613 0.3273212 -0.073489614 0.16241176 0.6460301 -0.053897228 0.64998806 -0.37491542 -0.062127553 -0.3539699 -0.541187 -0.30610096 -0.7534086 -0.28326175 0.0544384 -0.47601664 0.3584686 -0.0830611 0.01808869 0.5629424 0.21989048 0.004743604 -0.09230932 -0.11918822
http://www.w3.org/2000/01/rdf-schema#comment -0.699976 -0.84858024 -0.33052853 0.109304495 0.066473536 -0.4511344 -0.23451723 -0.28605196 -0.086388946 -0.3686109 -0.0069398857 -0.08613834 0.36656106 0.46938062 0.36033273 -0.11081004 -0.6692698 -0.18064256 -0.2430244 -0.9056856 -0.22336933 -0.013345356 -0.54904497 0.29094514 0.52106196 -0.7298458 -0.39571187 -0.3770515 0.017868761 0.18192938 -0.055263594 0.03643717 0.33195257 -0.40508512 -0.48936126 -0.92021406 -0.6164271 1.1937703 -0.32309407 0.6550144 -0.10644203 -0.13438022 0.675987 0.14996825 0.15749428 -0.66432834 0.45960945 -0.12417323 -0.7451052 -0.15293257 -0.043682713 -0.14288653 0.33280218 0.33625504 1.2628566 -0.366936 -0.724737 -0.35854417 0.34282947 -0.2659754 0.024399027 -0.25609696 0.44749337 0.20518254 0.29103667 0.09970261 0.6020035 -0.048550803 -0.94375247 -0.16932324 -0.73074776 0.3969729 -0.13208823 0.345348 0.15606523 -0.25552765 -0.38840523 1.0628283 0.13195315 0.4415457 0.37373745 0.40443283 0.220932 -0.012803089 -0.53634447 -0.10259837 -0.31314507 -0.08908272 -0.28393638 0.22641444 0.08917283 0.008001784 -0.056868296 0.2673623 -0.27676436 -0.056405578 0.2183967 0.035878632 0.8525142 0.27267104
sausage 0.15995881 0.30227584 -0.72126657 0.008781592 -0.31796467 -0.45693058 -0.035404883 -0.36881453 0.7155195 0.2150456 0.18918535 -0.57169825 0.318426 0.08254849 0.20460148 -0.5230104 0.39682952 -0.5699756 -0.73998445 0.2645781 0.25054 0.04571409 0.25766143 -0.50062215 0.35145217 -1.173034 -0.4178854 -1.0286478 0.1251324 -0.40657237 0.6612323 -0.19773297 -0.27238235 -0.42873165 -0.712098 0.026932959 -0.27811542 0.3699781 -0.050699215 -0.23486516 -0.012115607 0.4475809 -0.33518013 0.07509398 -0.045936063 0.035260573 -0.26681292 -0.01949202 -0.18769436 -0.08634966 -0.22023982 -0.25846663 0.4314079 -0.17443328 -0.22068645 -0.465694 -0.43693486 0.3565304 0.115297094 -0.62971467 -0.17837667 0.4392236 -0.050454315 0.2840716 -0.11001379 -0.06511981 0.14057195 -0.21039625 -0.044497017 -0.30303398 0.019831268 0.10635629 0.58314073 0.06280735 0.08380814 -0.841402 0.2553533 -0.1449511 -0.14425306 0.04167875 0.5719015 0.43994537 0.5125548 0.15586182 -0.28463906 -0.40144947 0.40172774 -0.2919791 -0.597682 0.39593405 -0.6243262 -0.16278319 -0.37171236 -0.5142926 -0.23051924 0.50705636 -0.11506563 -0.08075144 0.50530124 -0.49806505
http://www.semanticweb.org/jake/ontologies/2021/2/jbrown/Beef 0.038612124 0.2591935 -0.2568857 0.83350515 -0.08846926 0.28170353 -0.40031925 0.1316605 0.2026412 0.0066712643 0.17651978 -0.21789953 0.6738313 0.9219279 -0.20731151 -0.74692416 0.120741785 0.40613908 0.18572453 0.075449534 -0.61682236 -0.10278056 0.49160928 0.11175193 0.041516207 -0.51316345 -0.4892497 -0.9667985 0.36778447 -0.019970452 0.13020875 -0.19597842 0.63213813 0.25788015 -0.4073858 -0.5305513 0.12025611 0.9818712 0.515813 -0.34575263 0.06716529 0.28741792 0.55703926 -0.07066503 -0.12840301 0.62657404 -0.23869361 -0.32921076 -0.50401103 -0.55181956 0.46014848 -0.10087239 -0.15968628 0.119682625 0.5231708 -0.0077423993 -0.32208496 0.8416747 0.7858354 -0.5451114 -0.0066632186 0.35292035 0.09445764 0.44308722 -0.26309648 -0.6983744 0.36582947 -0.22665142 -0.4258853 -0.71237355 -0.32066077 0.5243182 0.42735574 0.36775517 -0.16681637 -0.710932 -0.012346665 0.37021875 -0.3363353 0.3680244 0.030789917 -0.22548267 0.62215835 -0.30781814 -0.12900168 -0.44373122 0.5188511 -0.062040452 -0.08950186 0.37378824 -0.30971697 -0.21229438 -0.096134014 -0.26927054 -0.3831276 0.05308419 0.0055252886 -0.04752685 0.07585352 -0.40568295
salami 0.21685591 0.12404172 -0.5213513 -0.18580833 -0.40647048 -0.3561157 -0.012566571 -0.17803198 0.874126 0.2448337 0.5311402 -0.369645 0.2661548 -0.06858585 0.5514796 -0.51010716 0.5070227 -0.3007727 -0.76704484 0.43023327 0.073255375 -0.047121484 0.27049327 -0.25301555 0.462249 -0.973182 -0.56986654 -1.0333842 0.3709057 -0.3754723 0.51933116 -0.5918243 -0.08350201 0.043854102 -0.67470145 0.32142726 -0.36785898 0.44570667 0.27576664 -0.14941458 -0.15776804 0.48814937 -0.19527513 0.01470075 -0.05226864 0.07918616 -0.030713296 -0.058056522 -0.09840279 0.2026324 -0.3033832 -0.52896565 0.24251805 -0.28689522 -0.08764876 -0.4015522 -0.34270743 0.514939 0.11793636 -0.4925695 -0.07322346 0.39485797 0.00740804 0.1674113 0.111922115 -0.26670355 -0.0044793696 0.098707125 0.21886994 -0.3689141 -0.037043367 -0.118087314 0.29444817 0.14662942 0.14625709 -0.6094781 0.28709704 -0.38445967 -0.3404876 0.075873695 0.44866037 0.47817737 0.49347275 0.12769586 -0.34451833 -0.2481875 0.19834264 -0.25165403 -0.44158977 0.2576965 -1.2102709 0.037000813 -0.20938998 -0.23007955 -0.1630682 0.15027586 -0.10852605 0.1895674 0.3548628 0.24879248
bacon 0.2575005 0.13844304 -0.7476329 -0.004223065 -0.31343988 -0.26279563 0.0021178417 -0.3829998 0.741566 0.20568657 0.25761718 -0.5449474 0.34353033 0.17239763 0.44383612 -0.4529748 0.42411008 -0.46858704 -0.696964 0.25678813 0.05027043 0.08794926 0.19778381 -0.44435737 0.25289208 -0.9258543 -0.3314676 -1.0381882 0.09887721 -0.47062036 0.5358294 -0.3980438 -0.15724242 -0.30425197 -0.68792576 -0.021208683 -0.35385764 0.47480208 0.025427695 -0.25209773 0.059503105 0.6098761 -0.35056752 -0.14520445 0.13943271 -0.066867985 -0.18347663 -0.12849964 -0.19357942 0.123656176 -0.2813735 -0.39327797 0.331372 -0.18960407 -0.21540633 -0.6135667 -0.6515948 0.4285571 0.06502898 -0.56595427 -0.1040572 0.4254945 -0.080556974 0.19258732 0.03926318 -0.24129064 0.053 -0.13863888 -0.09834227 -0.34334707 -0.11299272 0.088687584 0.53329355 0.19176687 0.15152854 -0.67457277 0.2640221 -0.19317603 -0.1706449 0.07272309 0.52131236 0.26775125 0.58539015 0.12763368 -0.25022098 -0.28081575 0.19148253 -0.26709178 -0.52280146 0.37227246 -0.93169093 -0.056010537 -0.3030121 -0.42636427 -0.13657784 0.34660867 -0.03800057 -0.07088355 0.45359963 -0.20014566
miscellaneous -0.43618527 0.5431041 -0.08883324 -0.45691407 -0.38667554 -0.20663215 -0.15980177 0.31917948 0.14366649 -0.2406217 0.33777288 0.3893392 0.8507994 0.6590644 0.38684687 -0.7009072 -0.15831885 -0.6759307 -0.66444874 0.14169437 -0.1877012 0.12794136 0.2413568 0.075831205 0.60968906 -0.09899836 -0.5860051 -0.6161329 0.29088372 -0.1383148 0.49457502 -0.71054006 -0.10174537 -0.14485389 -0.19810168 -0.66491205 -0.10306179 -0.055214472 -0.0016019131 -0.30773887 -0.00616692 0.17207226 -0.38381362 0.34408525 -0.53274894 0.455663 -0.10668401 -0.15518776 -0.29824346 -0.2355259 -0.24099739 -0.15347263 0.27026165 0.22691569 9.9599914e-05 -0.16760917 -0.7054607 0.65725434 -0.13282824 -0.50409377 -0.7585077 0.060644608 0.5555722 0.4602014 0.010494677 -0.6214053 0.06899568 0.39938736 0.17199409 -0.16555965 -0.19605732 -0.5998738 -0.10960881 -0.13380474 -0.35625276 -0.45753038 -0.75705165 -0.25962037 0.039252218 0.34393626 0.18215175 -0.22393902 0.01873345 -0.10683956 -0.6541345 -0.24461041 -0.7120067 0.6069673 -0.5868914 -0.3727787 -0.86059463 -0.3040701 0.2253579 0.367293 -0.34089372 0.40633747 0.25626507 0.40021867 0.57767487 0.107663825
vegetarian -0.42077997 0.44841644 -0.011701192 -0.6669616 -0.7311604 -0.26130003 -0.20783319 0.43429306 0.20214544 -0.17766844 0.1615465 0.42410442 0.85314727 0.0301405 0.49274182 -0.613624 -0.4041618 -0.43971947 -0.7735845 0.531289 -0.4323196 0.25684962 0.06606922 0.09576806 0.6442017 -0.3042057 -0.56653553 -0.76312774 0.37209165 -0.23206258 0.31492782 -0.55198985 0.09799125 -0.20604187 -0.6011339 -0.24215573 0.07833751 -0.0002675696 0.02054525 -0.44289675 0.16611803 0.3238729 -0.18524528 0.69719803 -0.16632016 0.1871152 -0.20037822 -0.18028466 -0.058190413 -0.0014545699 0.03264767 -0.43589103 -0.17738086 0.49923667 0.37233317 -0.1573048 -0.5105675 0.8495089 -0.03199714 -0.9114177 -0.92820835 0.25662288 0.56716704 0.26918206 0.19729228 -0.56191695 0.28753555 0.74898344 0.1368563 -0.41263744 0.22747068 -0.54041564 -0.338204 -0.10906697 -0.52898544 -0.55941254 -0.5478964 0.2115094 0.044207055 -0.15866695 0.046241183 -0.03584871 0.42474926 0.118406534 -0.7900887 -0.21623449 -0.8982005 0.7092418 -0.70425797 0.14986378 -0.51853764 -0.118402265 0.25756449 0.25139236 -0.6353654 0.24846943 -0.087741636 0.88911337 0.47910625 0.18634608
pancetta 0.06651434 0.17302679 -0.6347615 -0.0033956924 -0.23493947 -0.28511858 0.13649993 -0.2453494 0.834327 0.12745774 0.41762605 -0.62135583 0.30155832 0.039811127 0.2722153 -0.66407996 0.5696437 -0.43172064 -0.72298527 0.35938945 -0.031146852 -0.044549115 0.3880286 -0.25639787 0.34546003 -1.1275653 -0.42398006 -1.0469775 0.26502183 -0.47744668 0.57408446 -0.53618956 -0.26300845 -0.1411596 -0.40699285 0.168832 -0.29414606 0.4267113 0.12838553 -0.11588154 -0.11326383 0.54108477 -0.32299882 0.04686283 -0.03472978 0.09156274 -0.012353036 0.067500375 -0.0070261164 0.071589865 -0.25416481 -0.44999433 0.27350244 -0.20315796 -0.16167116 -0.59216326 -0.4977119 0.29237676 0.084349185 -0.64446545 -0.126363 0.44080406 -0.019414961 0.12961516 0.01729695 -0.10802465 -0.084327735 -0.059607722 0.029200705 -0.27549896 0.07906915 0.1416752 0.5818831 0.21833657 0.176635 -0.69631165 0.23095572 -0.41321173 -0.27746698 -0.057094175 0.33063516 0.42548597 0.34242433 0.27641132 -0.368114 -0.19074763 0.21429433 -0.3154271 -0.41254798 0.45632398 -0.7318915 -0.06289898 -0.14720117 -0.3394158 -0.12874597 0.24873443 -0.13582331 0.0352413 0.40528464 -0.07311164
prosciutto -0.13914232 0.1893735 -0.5958036 -0.05738058 -0.20138392 -0.5379097 0.08322569 -0.35294488 0.50698507 0.11893175 0.37713224 -0.5336629 0.07496168 -0.04202223 0.27279133 -0.5797467 0.36211747 -0.54552245 -0.91257083 0.4955652 0.14703646 -0.14706875 0.33169472 -0.015650874 0.35743862 -1.1631435 -0.385561 -1.1208266 0.26024592 -0.4061182 0.5933714 -0.40311185 -0.07856949 -0.22887117 -0.8402837 0.28948486 -0.33707866 0.48162594 0.12792583 -0.2867769 0.08222293 0.63794315 -0.2545754 -0.053312603 0.054029133 0.17567481 -0.07510528 -0.30614102 -0.14873074 -0.1429868 -0.0461483 -0.0017040293 0.17724535 -0.15374528 -0.1120021 -0.56230307 -0.18509208 0.3697675 0.16306189 -0.60210127 -0.19567178 0.58431435 0.10598149 0.097055554 -0.3914363 -0.30264938 0.3323323 0.009299114 -0.18365492 -0.20192745 -0.13198076 0.13354523 0.17409268 0.24346137 0.17371337 -0.6360386 0.18453369 -0.14262888 -0.2460102 0.12354717 0.42063168 0.5492203 0.4000153 0.14151093 -0.3546404 -0.254194 0.31693736 -0.3414211 -0.4415702 0.20114648 -0.786815 -0.13696945 -0.4039865 -0.20942596 -0.12004875 0.16686124 0.05100304 0.05022088 0.39979354 -0.22905964
bianca -0.009570901 0.43721792 -0.35880226 -0.24827659 -0.8978489 -0.45629466 0.13976434 0.40936428 0.72229946 0.08524909 0.54410654 0.550958 0.6618721 -0.033998784 -0.042678855 -0.43028858 0.3314688 -0.4180816 -0.5921078 0.0740491 0.26257208 0.34800446 0.13711163 -0.00045978857 -0.18601313 -0.7225661 -1.1558487 -0.61492795 0.29366705 0.54626113 0.35735473 -0.118073694 0.39454925 -0.40356156 -0.3047818 -0.025194805 -1.1781619 0.3530239 0.025199775 0.17873235 -0.39881447 0.20522875 0.63225496 0.2568262 0.2886672 -0.03852352 -0.5182636 0.491308 -0.27354 0.14151753 -0.28431365 0.5834614 0.30650878 0.35234377 0.16063611 -0.47163844 -0.25197533 -0.06996595 0.42685658 -0.106790006 -0.12965749 0.30739206 -0.019332618 0.51989096 -0.11438668 -0.19762938 0.22598435 -0.10223952 0.016957207 -0.23366506 0.59023714 0.23169929 0.34976926 0.4439914 -0.23977664 -0.5504893 0.42674 -0.16458282 -0.31912196 0.11529927 -0.015011244 0.8313701 -0.08937388 -0.30908307 0.2817144 -0.56030387 -0.15157661 0.058511473 -0.36478472 0.47819093 -0.40239477 -0.39387375 -0.19039677 0.1605897 -0.2882283 0.38754928 0.37083858 0.6939831 0.5477623 0.3695963
lamb -0.009421951 0.21894798 0.5541638 0.11157304 -0.6697206 -0.31254497 0.10984756 0.13297933 0.6718435 -0.30731475 0.55297905 -0.08471891 0.7100667 0.12857133 -0.06267104 -0.97575146 0.33024022 -0.31887174 -0.8688751 0.058287382 -0.24195431 -0.49328238 0.030668993 0.16990069 0.55798745 -0.8017492 -0.89713913 -0.37124455 0.11206295 -0.608168 -0.2245398 -0.50380474 0.21509933 0.162239 -0.7282596 -0.03411812 -0.74094516 0.31889385 0.20752434 -0.4371618 0.17724584 0.33930448 0.20217305 0.7180034 0.013626843 0.31497025 -0.19696966 0.2782534 -0.2171317 -0.53376496 0.24876444 -0.338205 0.011920241 -0.13848607 -0.1375486 0.059376046 -0.49065325 0.2136293 0.058415145 -0.33783123 0.46854407 0.5062416 0.2589655 0.26660088 -0.022274563 -0.3710231 -0.14797178 0.030256249 -0.34695292 -0.2910795 0.050381683 -0.019354803 -0.1186935 0.051729847 -0.1409964 -0.88214034 -0.33639365 0.32319492 -0.43652737 0.052310932 0.10621703 0.26301017 0.110419884 0.09658197 -0.20376055 -0.14594795 0.24375318 0.08456432 -0.23639782 -0.14005531 0.19861786 -0.62633634 -0.20716953 -0.04036917 -0.23136234 0.26267865 0.27880913 0.3737635 -0.032661103 -0.3344522
chorizo 0.22639287 0.11537411 -0.4973973 -0.044970755 -0.3759249 -0.496327 -0.078102894 -0.26540664 0.78334016 0.2843042 0.3997738 -0.45895937 0.2503871 -0.17642231 0.5134867 -0.56721556 0.44323644 -0.49379402 -0.81968117 0.43682083 0.17754607 -0.0057710805 0.22791782 -0.16073988 0.39886504 -0.9916153 -0.34557444 -1.0140222 0.2890403 -0.44414273 0.55415267 -0.38830262 -0.13637675 -0.093040764 -0.7958546 0.2519074 -0.4127111 0.24552429 0.15190533 -0.13045654 -0.16123568 0.40505317 -0.34006807 0.033181187 -0.16381113 0.06458287 0.011629467 -0.07792177 -0.15662926 0.09842081 -0.24803662 -0.53233194 0.30260196 -0.10121482 -0.07059244 -0.43820634 -0.2735303 0.5604639 0.10782835 -0.5030596 -0.17192994 0.32121196 0.12265912 0.20138426 0.06683594 -0.2696768 0.10785639 0.0891886 0.028656742 -0.34510955 -0.08433837 0.045994334 0.34302816 0.13608038 0.22716904 -0.6717542 0.30969134 -0.24203818 -0.25843227 0.10614974 0.5363373 0.59811 0.5308001 0.110252544 -0.4776197 -0.2865999 0.121163025 -0.20854974 -0.52887887 0.41118208 -1.1338907 -0.0142110875 -0.30039874 -0.2879361 -0.2291797 0.17351651 -0.14887425 0.11843799 0.4649104 0.07527108
chicken 0.109348804 0.06512185 0.34790343 0.57549065 -0.33525345 -0.0023106604 -0.09563553 0.22064678 0.6775525 -0.08569887 0.45140046 -0.041229397 0.9857292 0.5509507 -0.14908206 -0.9444819 0.49295852 -0.114753015 -0.73674 -0.2510793 -0.41171443 -0.18426193 0.123826884 -0.03637821 0.4265622 -0.9457131 -0.95407957 -0.25725982 0.07701788 -0.8359098 -0.1049438 -0.5938453 0.32003915 -0.027400706 -0.08100307 -0.3126708 -0.24671626 0.4303835 -0.013607719 -0.38722402 0.1824228 0.30949292 -0.26559985 0.42210838 0.025122892 -0.11179504 -0.37963575 0.30973762 -0.18195733 -0.41247728 0.2112448 -0.71706057 -0.007207694 -0.05147904 -0.047860052 0.03978107 -0.38163996 0.40996963 0.29923612 -0.5019409 0.5125993 0.5218276 0.023947652 0.31025645 -0.010558898 -0.44293496 -0.31837267 -0.006864478 0.040754486 -0.6437955 0.08973215 0.050960813 0.20880114 0.23855162 -0.18013205 -1.0336109 0.0349783 0.34501702 -0.054089334 0.0824527 0.21033369 -0.16168644 -0.018664867 -0.033841364 0.16457972 -0.1825688 0.39140245 0.12185047 -0.23536642 0.26633632 0.35942453 -0.48671275 -0.23393965 -0.3800337 -0.17084447 0.17161568 0.29215452 0.18780287 0.16814803 -0.3766091
http://www.semanticweb.org/jake/ontologies/2021/2/jbrown/Mussel 0.46568576 -0.06563154 -0.3345971 0.601287 0.12091055 0.5190988 0.0025496047 0.17434107 0.76810646 0.3218803 0.25636238 -0.219016 0.25877056 0.5793604 0.16694178 -0.51653427 0.03195637 -0.11587181 -0.624325 0.6032385 0.08842955 0.09122201 -0.35437834 0.20463315 0.17792621 -0.5298435 -0.3170957 -0.33395988 0.3694725 0.2796501 0.21124084 0.30357558 0.045037884 0.13146074 -0.25639376 -0.44621068 -0.23822747 0.30408555 -0.13736595 0.30550504 -0.47998583 -0.0882132 -0.17443015 0.22008207 0.08125795 0.31494316 -0.07121583 -0.21476902 -0.108215556 -0.16766745 -0.3919552 -0.5172639 0.08609086 0.37158048 -0.09342645 0.13413075 -0.47799593 0.39866793 0.31135324 -0.37743267 -0.019400364 0.48011687 -0.15140072 0.13657556 -0.14647801 -0.5233575 0.492537 0.5993553 0.22410317 -0.06906485 -0.19121037 0.029541723 -0.20458567 -0.5153793 0.114008784 -0.744333 -0.4150782 -0.1232346 -0.40374324 -0.049640164 -0.3158183 0.18565758 0.9830621 0.18034741 -0.40413287 -0.49438262 -0.16260481 0.05941914 -0.2906666 0.3901247 0.0057899705 -0.33441353 0.026969995 -0.22499529 -0.56192017 0.567946 -0.35894263 -0.120588325 -0.036069393 -0.3261914
http://www.semanticweb.org/jake/ontologies/2021/2/jbrown/Sardine 0.47665876 -0.09685923 -0.37133574 0.6002854 0.05195789 0.64924306 -0.02766464 0.13681325 0.62296396 0.3268743 0.4569237 -0.14911811 0.2063517 0.64352334 0.17844151 -0.5548112 -0.026330078 -0.015621325 -0.7017962 0.5347359 -0.03192708 0.067943685 -0.46630883 0.3428499 0.28374046 -0.43818054 -0.3233239 -0.28865272 0.48336807 0.30542624 0.23358539 0.07781008 0.10654482 0.136163 -0.267248 -0.57753617 -0.2298675 0.46171057 -0.05391334 0.41079068 -0.38610825 -0.048810057 -0.2622335 0.085106 0.16891798 0.2855523 -0.017647175 -0.52141875 -0.13485229 0.14641032 -0.39646325 -0.72961247 0.0993008 0.3806559 0.040009957 0.2177599 -0.46211094 0.38732085 0.27307248 -0.48228088 -0.12489805 0.41722825 -0.22647631 -0.061402842 0.060543723 -0.50457287 0.5542972 0.6280033 0.2942634 -0.011420515 -0.3016716 0.18993324 -0.35565603 -0.42132095 0.15364939 -0.57738745 -0.50340956 -0.18331434 -0.36688045 0.005105745 -0.044498615 0.11524927 0.8784189 0.085222535 -0.44930655 -0.44780025 -0.30495766 -0.0082544675 -0.2990164 0.30401027 -0.17563717 -0.41044497 0.13742769 -0.13313922 -0.2890188 0.44676057 -0.3606343 0.0032348167 0.10764185 -0.08224331
http://www.semanticweb.org/jake/ontologies/2021/2/jbrown/Anchovy 0.41421458 -0.09457446 -0.30389172 0.6910309 0.07690883 0.56040806 0.043610226 0.19091906 0.63947445 0.25813866 0.42688873 -0.20234615 0.2690282 0.64908713 0.23274854 -0.5828421 -0.03622658 -0.11509403 -0.708479 0.44867715 -0.024975326 0.13275045 -0.46436474 0.3958261 0.24243775 -0.42158058 -0.38765675 -0.22769596 0.51323664 0.29572108 0.18950151 -0.02360053 0.12841593 0.24098068 -0.2233841 -0.49124134 -0.27563843 0.4091264 0.019491168 0.32443646 -0.38065204 -0.15557142 -0.29221183 0.064156614 0.08632144 0.24945538 -0.0838561 -0.39033592 -0.09146477 0.122438826 -0.35034615 -0.6517026 0.08616628 0.3129036 0.00061213825 0.22401667 -0.27464977 0.4017519 0.198572 -0.417651 -0.12415377 0.28661323 -0.17476168 -0.024389625 0.043235615 -0.43474296 0.40616587 0.5708173 0.3132486 -0.032929026 -0.31214803 0.14968 -0.38579124 -0.4745083 0.11850504 -0.5309492 -0.5095035 -0.18226206 -0.2776223 0.0036213684 -0.0505029 0.12058673 0.92603374 0.11160318 -0.5133913 -0.43640134 -0.30607337 0.073435515 -0.25038582 0.23825751 -0.15472913 -0.4540916 0.13961607 -0.05954211 -0.40354955 0.4186528 -0.3863628 0.012304324 0.13991731 -0.07853539
http://www.semanticweb.org/jake/ontologies/2021/2/jbrown/Salmon 0.44119096 -0.0003028018 -0.25635433 0.5847275 0.11144278 0.5509289 0.04214672 0.2068685 0.6461396 0.23039909 0.3832663 -0.18316057 0.2364733 0.5572182 0.1999249 -0.43197235 -0.10683289 -0.12520102 -0.6482854 0.59697986 0.036430135 0.18942013 -0.37736884 0.30546755 0.2772807 -0.41856533 -0.34794015 -0.3157397 0.5123132 0.30146608 0.24191283 0.159276 0.06672348 0.15880916 -0.29931238 -0.46934673 -0.26437238 0.35004133 -0.014735865 0.22948477 -0.3027508 -0.005927281 -0.2079313 0.17392536 0.16045386 0.32890195 0.045123864 -0.50953656 -0.1766504 0.016057922 -0.47675884 -0.5302996 0.013949123 0.44234636 -0.021421826 0.051646598 -0.39802358 0.44331548 0.26683998 -0.5144822 -0.1500783 0.5516617 -0.16551594 0.05109453 -0.052641183 -0.5710355 0.39643863 0.65539515 0.25020882 0.020767774 -0.32579714 0.08482892 -0.43581244 -0.50990754 0.03372132 -0.63595486 -0.47364765 -0.21870899 -0.39622957 -0.065129705 -0.14519349 0.16242124 1.0199792 0.13190849 -0.4378847 -0.45166042 -0.4133004 0.018071132 -0.28973728 0.24020487 -0.16483472 -0.39831802 0.10753415 -0.19539338 -0.48801774 0.5182247 -0.32324302 -0.07806185 0.08105208 -0.12667632
