820 100
subclassof 0.053740576 -0.019910097 -0.122986294 0.104769126 -0.29131788 -0.022218851 0.3246927 0.100178696 0.06864204 0.19944291 0.2986384 0.294323 0.5610542 -0.038170435 -0.093873546 0.03187657 -0.18064547 -0.30410582 -0.527787 0.04953129 -0.15228958 0.16604261 0.060088802 0.2656615 0.02067541 -0.156658 -0.54723763 0.10262313 0.2802495 0.08167878 0.32889625 0.019811228 0.023981398 -0.04513991 -0.6666401 -0.18431337 -0.4501825 -0.10267675 0.0034472067 -0.0045530708 0.0308595 0.19337302 0.31910914 -0.067004256 0.039998244 -0.15325876 0.31440392 0.012206161 -0.3058787 0.14093754 0.049362253 0.021597588 -0.12942927 0.2710576 0.26023424 0.013332042 -0.074897505 0.24210078 -0.03965613 0.0024292131 0.14066438 0.3004911 0.26327333 0.015013456 0.21691969 -0.19367097 -0.13774042 0.04650021 -0.26252565 -0.14013715 0.031206086 0.13278341 0.008781636 0.06123483 -0.17731155 -0.29323614 -0.1441947 -0.109745786 0.11928526 0.38481978 -0.051396087 0.25826624 0.010198858 -0.14359115 0.1490922 -0.03743985 -0.21670899 0.24104473 -0.2654698 -0.07178248 -0.15472165 -0.15716437 0.0011601261 0.061402332 0.061279345 0.08339767 -0.038147364 0.022206455 0.031465214 -0.082191445
of 0.060494646 -0.0070869266 -0.11466847 0.10112214 -0.29835525 -0.025769208 0.30052343 0.09357274 0.06248326 0.18998536 0.3161944 0.29750997 0.5539318 -0.041086994 -0.08811111 0.044376746 -0.17105027 -0.27388784 -0.5240099 0.06283448 -0.14825682 0.16900924 0.050978046 0.26365963 0.02915445 -0.14980096 -0.537496 0.08352572 0.25974503 0.083180375 0.32066223 0.030545747 0.015523176 -0.030542104 -0.6586189 -0.19509667 -0.4579361 -0.1074606 0.013133948 -0.017409334 0.043359045 0.18880956 0.32215208 -0.05026642 0.03758443 -0.1491577 0.31383207 0.0034706818 -0.28881618 0.15438531 0.047711104 0.03417003 -0.13150811 0.27067146 0.24930444 0.019147897 -0.052917633 0.24151175 -0.046766248 0.014630324 0.14339076 0.2943797 0.2681691 0.0224858 0.2323445 -0.20971988 -0.13265637 0.046576153 -0.25750646 -0.15432315 0.04356413 0.1356848 0.0026763147 0.0721877 -0.1847561 -0.29489985 -0.12068705 -0.11245341 0.14087252 0.39458075 -0.047789894 0.23698983 0.008625024 -0.16339864 0.16651051 -0.049871515 -0.21520144 0.23182105 -0.2575922 -0.050498575 -0.13976333 -0.15624581 0.0032080282 0.088739134 0.048462883 0.06524383 -0.030995939 0.03484267 0.029421005 -0.07785109
super 0.07506299 -0.005044681 -0.11419207 0.10408168 -0.29091 -0.02939712 0.28142658 0.09781165 0.07736904 0.17584582 0.32012045 0.2834474 0.54911673 -0.04147615 -0.08230555 0.037957575 -0.1675978 -0.28250834 -0.5286916 0.067706056 -0.15575546 0.16488257 0.05674057 0.2715542 0.031163516 -0.15925656 -0.5340861 0.07390517 0.27608433 0.0816443 0.31402254 0.022709562 0.01278292 -0.04114904 -0.64683664 -0.18754815 -0.46016586 -0.08864502 0.018152047 -0.029651478 0.054571025 0.18906897 0.31674936 -0.055866767 0.042935114 -0.13653009 0.31547707 -0.00037522128 -0.29492554 0.15770774 0.034411334 0.03534223 -0.12875614 0.2614839 0.25083616 0.008033395 -0.052919995 0.23559509 -0.056007657 0.007058038 0.13077062 0.29412177 0.26202402 0.024209704 0.22447464 -0.2229657 -0.13592865 0.04026076 -0.25545937 -0.15451564 0.037013713 0.14697993 -0.0169191 0.07708128 -0.17548193 -0.30145139 -0.104776934 -0.11413773 0.13169925 0.37828675 -0.028290162 0.24728118 0.026236117 -0.15555167 0.16899645 -0.066672556 -0.21512552 0.22781269 -0.2511213 -0.05153273 -0.14662285 -0.16525607 0.004124344 0.08279806 0.033988506 0.068844326 -0.03404173 0.047980927 0.027470922 -0.07124858
class 0.076427564 -0.0051567284 -0.11670438 0.09751729 -0.29880783 -0.024326308 0.28072912 0.097138956 0.06720513 0.18488386 0.31740347 0.289301 0.54556197 -0.0328264 -0.08021979 0.033330075 -0.16465768 -0.28478727 -0.5248167 0.06607737 -0.14955881 0.16726205 0.047871612 0.26553348 0.035625245 -0.16065566 -0.5288716 0.08569206 0.26561025 0.08162223 0.31173125 0.02054093 0.029000234 -0.033056937 -0.65163416 -0.18778801 -0.45916927 -0.09490324 0.015623273 -0.021802885 0.042375114 0.19447568 0.3134129 -0.051115543 0.03526591 -0.12974855 0.3100627 -0.009373147 -0.29597896 0.15715425 0.03520355 0.026446283 -0.13002989 0.2606066 0.24819694 0.02219446 -0.052107487 0.23725215 -0.042874847 0.02212625 0.13397415 0.28786793 0.26125568 0.012560883 0.2230091 -0.21613741 -0.13248214 0.041743834 -0.24859758 -0.15723951 0.03420549 0.14846891 -0.01995982 0.061493564 -0.16915971 -0.3037128 -0.1096536 -0.11471219 0.13077985 0.38848788 -0.032518487 0.24187176 0.020196851 -0.15983184 0.16476552 -0.059243433 -0.21425651 0.2265767 -0.25928783 -0.053111028 -0.1516922 -0.16987301 0.0018064302 0.08672555 0.047711108 0.068794996 -0.043371167 0.036032245 0.033039335 -0.080074415
http://www.w3.org/2000/01/rdf-schema#subClassOf 0.068643026 -0.025363207 -0.13028842 0.11105536 -0.29801837 -0.010143013 0.31068477 0.10280365 0.07762865 0.20234518 0.30402404 0.2853501 0.5625682 -0.034793355 -0.09709785 0.036611997 -0.17098276 -0.28636968 -0.51352847 0.04554894 -0.16097733 0.17247468 0.041449368 0.26562873 0.024993 -0.15179087 -0.5336907 0.103121124 0.283472 0.08979722 0.32850045 0.025586814 0.02973764 -0.039985824 -0.6610369 -0.18470441 -0.45918003 -0.08722668 0.014168284 -0.00553851 0.02728002 0.18895419 0.34013957 -0.07070308 0.042132102 -0.13960078 0.3285138 0.0021969853 -0.29197425 0.1515978 0.04811354 0.028499885 -0.12156092 0.26579207 0.26299873 0.014589653 -0.077463426 0.23757116 -0.03172879 0.024103077 0.14722225 0.30001202 0.2613822 0.012793164 0.2207379 -0.17948724 -0.13745505 0.04178934 -0.25841603 -0.1501179 0.024454841 0.15049535 0.004034171 0.05966352 -0.16253565 -0.28844783 -0.12190499 -0.112703085 0.117300026 0.38910538 -0.038944237 0.25038183 0.01894645 -0.14575915 0.15470158 -0.04528791 -0.21484302 0.22252192 -0.2417058 -0.055789415 -0.15105747 -0.15737689 0.011386763 0.0674385 0.056621578 0.07000927 -0.051339388 0.016322102 0.03194553 -0.071825966
http://www.semanticweb.org/owl2vec#superClassOf 0.060416806 -0.033663563 -0.121889204 0.105819136 -0.2887833 -0.016590348 0.3173909 0.10195951 0.076899625 0.19458681 0.3102838 0.2877246 0.5697608 -0.029703196 -0.08928301 0.039834026 -0.18333606 -0.29230163 -0.50695896 0.03571192 -0.160681 0.17415838 0.0457219 0.26042482 0.03546821 -0.15696009 -0.5426187 0.09834848 0.2819194 0.0797784 0.3275669 0.030477049 0.023655105 -0.040611487 -0.66695553 -0.1853155 -0.46747348 -0.09160992 0.013387811 -0.011278813 0.0321978 0.19241783 0.32993126 -0.060716018 0.037850466 -0.13986014 0.32117403 -0.0032746468 -0.2907773 0.15125017 0.052571047 0.023194404 -0.1324115 0.2604226 0.26487762 0.025487214 -0.0746356 0.23958349 -0.02917783 0.01988727 0.14506628 0.294508 0.26408386 0.01618554 0.22827879 -0.18867934 -0.13494235 0.043016482 -0.26295328 -0.14581802 0.026594555 0.14268747 0.0043573696 0.063027576 -0.16599596 -0.28131425 -0.124820225 -0.10709483 0.1297197 0.39383888 -0.03060349 0.24368794 0.016423875 -0.14194427 0.15539627 -0.04869986 -0.2111306 0.22531866 -0.24914229 -0.062787354 -0.15219347 -0.16009448 0.012276226 0.075198285 0.060170554 0.07379935 -0.044334773 0.019338485 0.034746498 -0.0732455
topping 0.04612199 -0.0136434045 -0.12504306 0.08796383 -0.28754663 -0.02408111 0.355925 0.099234276 0.035667412 0.19405012 0.2995548 0.31920162 0.55610746 -0.03430681 -0.09352668 0.05225762 -0.18462329 -0.3074867 -0.5294467 0.054335028 -0.15633962 0.17477323 0.071257055 0.27622443 0.028253982 -0.15516672 -0.5705828 0.10354689 0.25219923 0.078518875 0.3400737 0.015950436 0.018472822 -0.04536023 -0.66992635 -0.19674376 -0.4330167 -0.11506433 -0.013788172 0.0013692246 0.053233836 0.20132062 0.298532 -0.053903133 0.040635284 -0.16582178 0.29649958 0.007404237 -0.2923458 0.15768526 0.05215955 0.041257367 -0.1468824 0.26913702 0.2651496 0.019668639 -0.07284508 0.23006332 -0.05392364 -0.017687386 0.11901679 0.2905779 0.26404893 0.0144120725 0.23829857 -0.21339938 -0.13777438 0.048954822 -0.28284475 -0.14445886 0.051150106 0.10125838 0.010733618 0.06840263 -0.20946164 -0.29508543 -0.15990527 -0.09838882 0.1385499 0.39919305 -0.07270103 0.26205128 -0.010273556 -0.15863696 0.1554457 -0.04330209 -0.22362061 0.25982296 -0.29092044 -0.08269108 -0.1550763 -0.14498082 -0.0006692983 0.07383934 0.08230964 0.07495113 -0.01479094 0.02504366 0.036159113 -0.07537871
label 0.06842254 -0.035234798 -0.11127155 0.113145664 -0.2847009 -0.026785828 0.35108018 0.107459895 0.05929751 0.1984123 0.30273566 0.30931053 0.57014066 -0.027350452 -0.1019472 0.046245772 -0.1796648 -0.3048072 -0.5184692 0.03448113 -0.15574744 0.17426705 0.05508765 0.26467523 0.019883992 -0.16312394 -0.55693865 0.11095751 0.26688 0.08217385 0.32741454 0.04039012 0.031571116 -0.03789262 -0.68038416 -0.1786099 -0.47664958 -0.10864306 0.0061048963 0.0011723243 0.03801116 0.20508057 0.33651847 -0.052052908 0.035736058 -0.14873098 0.32980663 0.011906964 -0.30299678 0.13492976 0.07233499 0.023083279 -0.13461156 0.2600687 0.27906317 0.014176919 -0.07898382 0.23215799 -0.03508958 0.009967251 0.13656333 0.29516327 0.2720151 0.016956337 0.23254123 -0.1828325 -0.14755963 0.036181204 -0.2946679 -0.15621376 0.04183094 0.13571708 0.027172085 0.06468104 -0.1733579 -0.28363007 -0.15288058 -0.11328517 0.127737 0.39905164 -0.044826873 0.26194525 -0.007845446 -0.15288764 0.15694249 -0.036189295 -0.22440283 0.23411041 -0.2535805 -0.06149778 -0.13414595 -0.14802827 0.0014654839 0.073587 0.07321206 0.07474433 -0.037030786 0.019016862 0.03414124 -0.07245977
http://www.w3.org/2000/01/rdf-schema#label 0.064368516 -0.03188134 -0.115581594 0.11943938 -0.29898462 -0.021099007 0.3432481 0.10557923 0.06617674 0.19528851 0.3122237 0.30633903 0.578641 -0.029617375 -0.100039795 0.049158737 -0.18618529 -0.31242776 -0.52269214 0.028557302 -0.16584365 0.17176005 0.054614004 0.27142754 0.026273532 -0.16024919 -0.56247216 0.11426423 0.27091396 0.083713025 0.3354144 0.033104226 0.027391883 -0.047918748 -0.6783096 -0.1848545 -0.47679114 -0.10304383 0.0058162976 -0.0032854222 0.040656976 0.19591045 0.34386227 -0.06279126 0.03359508 -0.14768864 0.32814828 0.011359417 -0.3056531 0.14430812 0.06604256 0.034893237 -0.14142337 0.2714484 0.27200502 0.015490047 -0.078953065 0.23083127 -0.03494677 0.01734437 0.13841236 0.30492878 0.2821492 0.015195574 0.23403561 -0.18040417 -0.14242797 0.03409857 -0.29160476 -0.15797886 0.042395573 0.14683433 0.01899869 0.06634402 -0.17249307 -0.2922307 -0.14631222 -0.10796018 0.13390394 0.39914384 -0.04172306 0.2571964 0.002217266 -0.15322897 0.1563453 -0.039161116 -0.2153138 0.23831087 -0.25727898 -0.05850841 -0.13560632 -0.15204327 0.0030038105 0.07617377 0.062840275 0.07239472 -0.04311065 0.028117053 0.03544551 -0.06641279
has 0.07210672 -0.02322711 -0.108716205 0.11967787 -0.27588254 -0.02532714 0.394128 0.10038923 0.03546947 0.2014899 0.2943287 0.33286738 0.55732656 -0.007806256 -0.0857595 0.057978556 -0.18275617 -0.33348024 -0.5061281 0.041538317 -0.16810419 0.17459436 0.07158876 0.2599588 0.019658608 -0.16150483 -0.5917134 0.10890133 0.2526787 0.071611546 0.3277457 0.03660165 0.04467821 -0.045001164 -0.6795791 -0.18421388 -0.46421272 -0.13277014 -0.012479205 0.025656031 0.048131213 0.20944856 0.33211213 -0.044453327 0.035905592 -0.17634755 0.31192276 0.022336435 -0.30327755 0.11876369 0.08081068 0.0099932095 -0.1302378 0.25576615 0.28878528 0.022516344 -0.09205054 0.22149695 -0.035633434 -0.017812848 0.10660767 0.28150734 0.26971364 0.022740528 0.22514242 -0.18176426 -0.15211062 0.02743332 -0.31457463 -0.1433531 0.04632023 0.11382128 0.05210316 0.055605743 -0.16866493 -0.2853014 -0.18862303 -0.09802062 0.14498758 0.39850757 -0.069822475 0.26356465 -0.016766928 -0.15307014 0.15191638 -0.01209501 -0.22841191 0.2557296 -0.27646473 -0.09392365 -0.13497405 -0.12989816 -0.025627086 0.058417726 0.10220025 0.08945239 -0.047282904 0.020369668 0.043826796 -0.052288152
is 0.066730045 -0.01944136 -0.06348658 0.12668595 -0.2546402 -0.054021608 0.48330706 0.11076242 -0.015523604 0.23130064 0.2678271 0.35582986 0.5258775 -0.00918952 -0.114258505 0.1057403 -0.16328184 -0.3567137 -0.5080727 -0.01538557 -0.15387106 0.1669475 0.09183417 0.22797875 -0.009703085 -0.16098715 -0.593734 0.14432672 0.21372205 0.06890246 0.3610648 0.08861004 0.04616586 -0.01486291 -0.67618424 -0.1566468 -0.4574284 -0.143365 -0.003596718 0.030895602 0.070371225 0.22716577 0.27416512 -0.044811726 0.02692387 -0.16154139 0.3015478 0.034297742 -0.286 0.12060242 0.12333747 0.041717056 -0.1586894 0.25216883 0.29004204 0.0048012706 -0.08175499 0.21598744 -0.03402783 -0.0101478975 0.072092794 0.27913517 0.28717625 0.02424284 0.27334931 -0.17897879 -0.17334537 0.05119633 -0.3400486 -0.15526935 0.1034191 0.09984463 0.08273291 0.01151308 -0.21405388 -0.28893 -0.2425438 -0.10848852 0.16424541 0.41126597 -0.119508475 0.2489275 -0.047827914 -0.11448824 0.15614249 -0.010132715 -0.25255272 0.26504305 -0.30333793 -0.08065462 -0.11939878 -0.09498224 -0.04442137 0.062015086 0.09963237 0.078928575 0.006150809 0.0029844623 0.054827023 -0.02199018
pork 0.06839874 -0.027698496 -0.11822012 0.11107053 -0.28247574 -0.025885602 0.32816395 0.09526514 0.069701254 0.19238216 0.30319053 0.29258445 0.55079293 -0.03202033 -0.09240016 0.04260539 -0.16502982 -0.30011097 -0.5163312 0.042727772 -0.1623935 0.16202754 0.052291337 0.2640329 0.027965328 -0.157374 -0.54444104 0.09239352 0.26225734 0.08274172 0.32277173 0.02721626 0.024582116 -0.038571507 -0.660087 -0.17474441 -0.46102244 -0.09729277 0.005910045 -0.010291338 0.046747964 0.19533399 0.3218639 -0.0536059 0.03912114 -0.14446427 0.30848256 0.011826622 -0.28753072 0.1490056 0.06505235 0.027187044 -0.12710838 0.25572553 0.25736645 0.0120424 -0.07095702 0.2268447 -0.039361686 0.016407426 0.1323934 0.29163626 0.26869205 0.015779985 0.21846841 -0.19210103 -0.13429001 0.04001558 -0.27241498 -0.1525789 0.03573831 0.13467534 0.0146325575 0.061060585 -0.1661841 -0.29363826 -0.13464345 -0.10718206 0.12471566 0.39369798 -0.04994737 0.24642827 0.008450523 -0.1476869 0.15621912 -0.04042666 -0.21022624 0.22999159 -0.24845764 -0.060943104 -0.14301561 -0.14660275 -0.005119153 0.07451215 0.057910047 0.06880258 -0.04387029 0.026605295 0.037183277 -0.076252006
pizza 0.0741183 -0.030415162 -0.11720382 0.119590856 -0.29261592 -0.02920431 0.35765466 0.10702334 0.04946198 0.19737269 0.31685925 0.32517138 0.5807308 -0.020709665 -0.09190505 0.056119192 -0.18986262 -0.32258782 -0.54135025 0.034612045 -0.16454375 0.16610397 0.058312126 0.27781045 0.016001344 -0.15809721 -0.5782981 0.11177821 0.27015194 0.089380644 0.33357888 0.0394453 0.034816064 -0.04161743 -0.694323 -0.18147866 -0.4721028 -0.116199225 0.0022517766 0.0027048097 0.049692642 0.20324057 0.34910616 -0.063580275 0.04886465 -0.16680257 0.33152273 0.013554876 -0.31583098 0.14311083 0.06911378 0.026562497 -0.1429813 0.27155063 0.27803382 0.011055584 -0.07838699 0.22774911 -0.036881097 0.004073317 0.1389827 0.30096108 0.2790302 0.012741835 0.23716573 -0.19080804 -0.1374583 0.039551593 -0.2956085 -0.15616001 0.046302572 0.13349578 0.024149504 0.073593825 -0.18176991 -0.29101786 -0.15472966 -0.10916355 0.14010343 0.39735925 -0.05400261 0.26503965 -0.014135662 -0.15111212 0.17106344 -0.033335693 -0.22478944 0.24645181 -0.26098534 -0.064112626 -0.14435542 -0.14775375 -0.01291874 0.07180082 0.07042412 0.07620636 -0.029074164 0.030609068 0.03144963 -0.066555925
http://www.semanticweb.org/jake/ontologies/2021/2/jbrown/Pork 0.06232903 -0.032127723 -0.12058125 0.113539524 -0.28162447 -0.019782221 0.32858375 0.09767992 0.06757927 0.19788413 0.31409574 0.30035985 0.5586 -0.028702201 -0.09619717 0.05094605 -0.16874099 -0.29857266 -0.51977026 0.03702585 -0.16240643 0.16482513 0.057042524 0.2719132 0.028668955 -0.16258784 -0.55223405 0.099532746 0.26921195 0.09026401 0.32998776 0.04054533 0.03108986 -0.032179464 -0.66016084 -0.17459747 -0.46135694 -0.09630578 0.0120979175 0.001247549 0.039126173 0.19594923 0.33124375 -0.057548285 0.033992037 -0.1409663 0.32171693 0.0063808328 -0.28848225 0.1435354 0.06992884 0.025918612 -0.13658255 0.25912508 0.26750904 0.013837457 -0.068052374 0.23330046 -0.026347091 0.015642058 0.13858058 0.2979022 0.2713577 0.010130272 0.22085 -0.19058736 -0.13319774 0.040928762 -0.27500662 -0.1522628 0.042748515 0.13500263 0.01526905 0.059031636 -0.16507877 -0.29315877 -0.13888992 -0.113362186 0.12414649 0.39313534 -0.052818768 0.2507891 -0.0046267305 -0.14799404 0.15474054 -0.03443868 -0.21255328 0.22662151 -0.247104 -0.057607893 -0.1421673 -0.14658773 -0.0018822683 0.07302285 0.05519972 0.07243797 -0.041145284 0.02249527 0.03241939 -0.064823754
http://www.semanticweb.org/jake/ontologies/2021/2/jbrown/Seafood_topping 0.06993163 -0.032262534 -0.11784024 0.114571236 -0.28966445 -0.018669192 0.334996 0.10067246 0.058970142 0.1985343 0.30529717 0.3032627 0.5524474 -0.022145117 -0.08967188 0.05203467 -0.17839101 -0.29964167 -0.51558995 0.039830703 -0.16210972 0.16041741 0.04799597 0.27065876 0.0255264 -0.15364224 -0.5412764 0.107441634 0.25987026 0.090128794 0.3190107 0.040320713 0.023939354 -0.030435903 -0.6559208 -0.1760041 -0.4623646 -0.09945076 0.006917868 -0.0037163245 0.039092787 0.19974898 0.32651296 -0.060621142 0.035519704 -0.14761211 0.31715536 0.00062527054 -0.2945256 0.14909221 0.06516626 0.026410429 -0.13482414 0.26342446 0.26184854 0.013731489 -0.07151443 0.23199828 -0.029821 0.017386382 0.13372725 0.2934833 0.2698331 0.010920003 0.21962255 -0.18759073 -0.13143724 0.042363767 -0.27466047 -0.15137143 0.04066544 0.141411 0.008760317 0.057026275 -0.17447439 -0.28826198 -0.14532994 -0.11138575 0.12342509 0.39037132 -0.04762728 0.24338585 0.004327813 -0.14888127 0.15159313 -0.036968123 -0.21174353 0.23123 -0.2493899 -0.06432551 -0.14383595 -0.15472102 0.001504477 0.078184 0.059975 0.080159105 -0.03615242 0.019683896 0.032130368 -0.073359236
SubClassOf 0.061433908 -0.03705828 -0.11168873 0.11186162 -0.27944323 -0.030435333 0.34740275 0.1057971 0.052018225 0.19838774 0.30372533 0.30094343 0.56519175 -0.02626972 -0.09404256 0.04465145 -0.1859825 -0.314499 -0.50938946 0.021962369 -0.15789987 0.17443644 0.055043418 0.26668665 0.016047072 -0.16167083 -0.55825037 0.11196897 0.26422903 0.08138847 0.33547184 0.044544067 0.03102298 -0.03834275 -0.6760908 -0.17181136 -0.46657556 -0.1089794 0.010188757 -0.0040234085 0.03468506 0.20185454 0.32606554 -0.063457236 0.038683232 -0.15513042 0.32392755 0.012453439 -0.29047102 0.13897775 0.069414675 0.03011665 -0.14534613 0.26139414 0.2759223 0.020598732 -0.073976114 0.22942634 -0.025310967 0.0062465305 0.13391653 0.29157996 0.27360314 0.009656906 0.22377878 -0.17740408 -0.13393849 0.04210456 -0.29111916 -0.15345268 0.042521812 0.13638431 0.023958635 0.05626479 -0.16977513 -0.28931192 -0.15661564 -0.10167273 0.12757355 0.39571086 -0.051223792 0.26112816 0.0025121735 -0.14442417 0.15202285 -0.040998165 -0.21639226 0.23325509 -0.26143855 -0.06410356 -0.13906385 -0.14189605 -0.0062192786 0.07042746 0.072283566 0.06975994 -0.035838813 0.020000417 0.030462937 -0.07017291
http://www.semanticweb.org/jake/ontologies/2021/2/jbrown/Has_topping 0.055072993 -0.026344785 -0.11592323 0.11299621 -0.29253092 -0.018058443 0.3475915 0.09686516 0.062107112 0.19943936 0.30837205 0.31030607 0.5631647 -0.034202095 -0.092868 0.050405417 -0.17481217 -0.29897535 -0.5174233 0.04004656 -0.15858772 0.17447096 0.04643111 0.27349353 0.030300116 -0.15622906 -0.56330496 0.10272088 0.27203515 0.083092436 0.3229279 0.03363944 0.031565633 -0.03820759 -0.6746805 -0.17448916 -0.4635424 -0.09706856 0.00044580165 0.0033925374 0.032385476 0.19165455 0.32800788 -0.065248765 0.038103104 -0.15415747 0.32399604 0.012933875 -0.30074587 0.15003814 0.06397689 0.027839566 -0.13502142 0.26372245 0.2714471 0.021111963 -0.067854635 0.23155098 -0.033215284 0.014547887 0.13459884 0.28843772 0.27194735 0.01729185 0.23105305 -0.18367396 -0.13775802 0.038740925 -0.27883887 -0.142633 0.03701903 0.13047034 0.021115826 0.0649144 -0.16841388 -0.2842194 -0.14177299 -0.10003509 0.12463433 0.39938766 -0.054593228 0.25742802 -0.0045612175 -0.14454786 0.15240552 -0.043357342 -0.21046568 0.23556523 -0.24758653 -0.0693032 -0.14292836 -0.14569308 -0.005818521 0.071464054 0.0689947 0.06894454 -0.035284307 0.02039639 0.029862445 -0.07437537
http://www.semanticweb.org/jake/ontologies/2021/2/jbrown/Pizza 0.06918062 -0.034490366 -0.11236792 0.10922918 -0.2914591 -0.026771406 0.33895427 0.09948279 0.051300175 0.1988125 0.30731645 0.30946487 0.56583834 -0.025052706 -0.08851972 0.044813782 -0.18193017 -0.30906177 -0.5163407 0.02571833 -0.16439797 0.16991559 0.059522558 0.26653677 0.024440128 -0.15307026 -0.5503819 0.10917523 0.25882718 0.09231778 0.3262379 0.044846505 0.033826184 -0.04211246 -0.6729358 -0.18030657 -0.46693915 -0.10435851 0.0066939304 0.00061059487 0.046896778 0.19532278 0.33782664 -0.057697393 0.040219396 -0.14995207 0.32903808 0.005668954 -0.2992873 0.14229202 0.075260766 0.027189702 -0.1352684 0.25697723 0.27171108 0.02095669 -0.08003008 0.22883993 -0.023975976 0.008596004 0.13862827 0.2913536 0.27176645 0.014349123 0.23401235 -0.18743545 -0.13008846 0.042188693 -0.28879115 -0.1529859 0.044929862 0.14008701 0.021013837 0.06744946 -0.16960174 -0.28071555 -0.15186484 -0.10560966 0.12523672 0.38935822 -0.047581304 0.24905561 -0.0015573483 -0.14563788 0.15973069 -0.038433533 -0.21947034 0.23305966 -0.2525486 -0.07017721 -0.13500325 -0.14881502 -0.001469068 0.07524869 0.060176034 0.07462333 -0.032962535 0.024255991 0.035104413 -0.06962446
hawaiian 0.059595857 -0.022276586 -0.11911955 0.113403894 -0.28387386 -0.018847343 0.34598452 0.09864575 0.054198876 0.19611023 0.3025002 0.3102159 0.55050653 -0.01847846 -0.09023618 0.047663614 -0.17835695 -0.30479303 -0.5170743 0.044257805 -0.164172 0.1600509 0.059044175 0.26739052 0.019244941 -0.15733926 -0.56198454 0.10622201 0.25666168 0.090864964 0.32571355 0.03734272 0.024562346 -0.032871805 -0.66167825 -0.17456652 -0.45872983 -0.11041089 0.002818007 0.0011807207 0.040978312 0.19288458 0.31624353 -0.051555507 0.040206105 -0.156706 0.30329025 0.012290649 -0.29881755 0.14122757 0.070700884 0.03313106 -0.13062835 0.25618705 0.26583087 0.010707899 -0.081630155 0.2299717 -0.037972078 0.0020532154 0.120994315 0.29136342 0.271078 0.01135252 0.22260435 -0.18459103 -0.13416584 0.04267601 -0.28317827 -0.14037251 0.045878805 0.11679175 0.016706053 0.0676872 -0.17618796 -0.28959933 -0.15815334 -0.108942285 0.128945 0.38443264 -0.056253683 0.25503436 -0.0060185827 -0.15295678 0.14957564 -0.02979951 -0.22583605 0.24250628 -0.26638943 -0.070957474 -0.13455315 -0.14592646 -0.008062624 0.07340396 0.0759358 0.0820455 -0.038548205 0.029345993 0.03576444 -0.063360326
http://www.semanticweb.org/jake/ontologies/2021/2/jbrown/Meat_topping 0.067225255 -0.022975523 -0.11359628 0.117043175 -0.28825912 -0.018763749 0.33329594 0.09556123 0.0631399 0.19495115 0.31020522 0.3049904 0.5524575 -0.024227278 -0.089391224 0.051442154 -0.17165017 -0.29482666 -0.51815075 0.02990852 -0.15879668 0.17210594 0.05322745 0.26244673 0.029942496 -0.1613611 -0.55189914 0.10656711 0.2623723 0.08678978 0.3206447 0.03356342 0.030187732 -0.041354265 -0.65558225 -0.17694007 -0.46363437 -0.09748112 0.011802711 -0.0015277397 0.04273733 0.20294902 0.32496625 -0.056668743 0.039153986 -0.14669684 0.31713584 0.009716392 -0.29929087 0.1485737 0.06603375 0.025259614 -0.13531786 0.2611306 0.26627803 0.021065837 -0.072219506 0.23047435 -0.033434078 0.0093381 0.1355219 0.2967617 0.27410057 0.013203205 0.22913662 -0.18409467 -0.13881816 0.03277865 -0.27637613 -0.14635797 0.04320032 0.13464849 0.017965466 0.06537062 -0.17308551 -0.28338945 -0.14002301 -0.10958482 0.12696467 0.39466798 -0.04305345 0.24429551 0.0029229817 -0.14718932 0.15881759 -0.033762913 -0.21308434 0.22598745 -0.24611726 -0.057190854 -0.13914375 -0.14990021 -0.0047639 0.07101508 0.067155845 0.07852571 -0.031863097 0.01944867 0.035725188 -0.07499709
establishment 0.055128373 -0.038224056 -0.07453002 0.12765706 -0.25686097 -0.042238507 0.45681235 0.115641855 0.0060655824 0.22326775 0.29658303 0.35157305 0.54716015 -0.017524607 -0.11341788 0.08970967 -0.1793463 -0.34702736 -0.5274318 -0.016183706 -0.15031421 0.1692502 0.07425134 0.24303024 -0.0030792044 -0.17578316 -0.58918846 0.15257226 0.22894587 0.07557956 0.35737252 0.09096701 0.0472142 -0.016606893 -0.6935559 -0.16056865 -0.46658605 -0.12678976 0.001342521 0.02876593 0.063491374 0.22937734 0.31012106 -0.054089416 0.0418408 -0.17184766 0.328379 0.016571527 -0.28376073 0.1265479 0.12346037 0.04456398 -0.16920675 0.24658257 0.28377074 0.0033667106 -0.07344159 0.21488965 -0.019760847 0.004345009 0.09909088 0.2986037 0.28787798 0.01338824 0.26592523 -0.17555436 -0.15949672 0.047392517 -0.3299313 -0.15993962 0.08721976 0.11160284 0.065973304 0.0380765 -0.20677178 -0.29909956 -0.21799134 -0.101804145 0.16481175 0.40788123 -0.09976522 0.2611347 -0.046810552 -0.12376062 0.17438458 -0.017664142 -0.23659766 0.25466028 -0.28768063 -0.08162353 -0.12210065 -0.105650365 -0.036579426 0.07193553 0.09797993 0.08248939 0.0036966929 0.007912912 0.044863716 -0.041078746
http://www.semanticweb.org/jake/ontologies/2021/2/jbrown/Specific_pizza 0.06048774 -0.028491188 -0.11631065 0.1166352 -0.288043 -0.02559246 0.3285552 0.092706755 0.061016597 0.19473863 0.3019402 0.30232 0.55370986 -0.021202814 -0.095977336 0.049809873 -0.17624348 -0.3018459 -0.5165977 0.039388545 -0.15252295 0.1708627 0.054851163 0.26629367 0.023320125 -0.1594964 -0.542088 0.108541116 0.26570228 0.08615859 0.32679403 0.03852975 0.028083008 -0.03941428 -0.6523573 -0.17037107 -0.4635297 -0.10554893 0.015066819 -0.00026589725 0.036264237 0.19626187 0.33117315 -0.058926832 0.034036614 -0.1452342 0.31555998 0.0030946583 -0.28725526 0.1464446 0.0672221 0.034263175 -0.13670883 0.2645308 0.26157364 0.0134789515 -0.065696806 0.22813888 -0.03447981 0.014848067 0.13571863 0.28932402 0.27439228 0.011000672 0.22511311 -0.18987328 -0.14007732 0.036501635 -0.2700528 -0.14602746 0.046071082 0.13677981 0.013337575 0.06357302 -0.17522608 -0.28105912 -0.13950883 -0.111134 0.12954146 0.38954684 -0.047997482 0.2453756 -0.0015045903 -0.15023258 0.14990391 -0.04199921 -0.21542905 0.22224246 -0.24398373 -0.061903752 -0.13360555 -0.15404849 0.00071954 0.075403 0.05581675 0.07659698 -0.037903443 0.020292146 0.035973035 -0.072117835
in 0.066445954 -0.03612894 -0.01728752 0.15727705 -0.22032923 -0.06344642 0.5892402 0.13568771 -0.06708975 0.25371066 0.26719475 0.38993582 0.51245415 -0.009381283 -0.12179962 0.14344113 -0.1858961 -0.37769204 -0.49232215 -0.0686314 -0.15316416 0.18213718 0.11425925 0.21093646 -0.041061483 -0.1766861 -0.6438347 0.18299027 0.18461113 0.082464926 0.37633935 0.14767443 0.033963878 -0.0010284391 -0.7068109 -0.1469074 -0.4621993 -0.1615463 -0.0031960171 0.03953703 0.0585916 0.2582722 0.26556587 -0.024214108 0.039094634 -0.16217414 0.31744015 0.050994772 -0.26090565 0.13060461 0.1649803 0.043714795 -0.1976099 0.2700754 0.30593085 -0.0046670297 -0.087624356 0.1960019 -0.0055254595 -0.009624489 0.04036919 0.2818023 0.31086844 0.011205295 0.30971077 -0.15663677 -0.21165931 0.04721397 -0.39170006 -0.1621741 0.14729132 0.06814615 0.1359403 -0.013332079 -0.2466569 -0.29082066 -0.3008108 -0.10254024 0.17905135 0.44107223 -0.16621138 0.2634543 -0.098176055 -0.119631924 0.1770478 0.015415335 -0.26627475 0.28153846 -0.34153926 -0.09003054 -0.098813966 -0.06263133 -0.06351797 0.060938455 0.13754764 0.077091366 0.030633803 -0.00841558 0.07125203 0.0013669085
http://www.semanticweb.org/jake/ontologies/2021/2/jbrown/Is_topping_of 0.063342206 -0.034351815 -0.12178233 0.117563136 -0.29725346 -0.028268045 0.33121634 0.098268405 0.06368508 0.20365307 0.31313607 0.30234084 0.5576458 -0.03529497 -0.09485894 0.04202847 -0.17803667 -0.29761645 -0.5136997 0.031227076 -0.15663646 0.17707491 0.043286577 0.2739511 0.024458997 -0.15429035 -0.55399215 0.11322815 0.27184156 0.09097814 0.33683193 0.039496005 0.032910697 -0.037354387 -0.6715319 -0.18347086 -0.46661764 -0.09866052 0.015465358 0.004018808 0.040694714 0.19071977 0.33266595 -0.056473717 0.032604918 -0.15227462 0.31639344 0.010043855 -0.29288697 0.15152925 0.06757658 0.030264243 -0.1420618 0.2636177 0.26468897 0.022642497 -0.06671281 0.22996452 -0.029332703 0.015568685 0.14166954 0.29173324 0.27368644 0.009816344 0.22285713 -0.1798377 -0.13222867 0.036613386 -0.27503464 -0.14989708 0.042363916 0.1380008 0.008265862 0.059145696 -0.17600682 -0.28561056 -0.14364772 -0.10725837 0.13579099 0.39649636 -0.051239245 0.2545864 0.0026440995 -0.1503172 0.16221383 -0.0387962 -0.21929944 0.23393777 -0.25188544 -0.0566647 -0.14608411 -0.15185565 0.0010967767 0.0825508 0.060715567 0.06982248 -0.042657044 0.023734435 0.039913755 -0.063964866
located 0.03724112 -0.0352612 -0.06115187 0.15626228 -0.2403331 -0.06892607 0.58966583 0.13554698 -0.031750176 0.23448023 0.25649583 0.37861034 0.5152458 0.018405803 -0.15009773 0.1501249 -0.15569596 -0.3919335 -0.53685474 -0.06380554 -0.14200392 0.1821098 0.09635208 0.23456839 -0.0024708025 -0.19244857 -0.5991068 0.19154565 0.16117084 0.03830972 0.39130992 0.10333468 0.08177355 0.0067638354 -0.69101244 -0.12259446 -0.45508665 -0.15174857 -0.0014933678 0.06479621 0.109176256 0.2679724 0.2638879 -0.030460175 0.03418648 -0.20747563 0.32254377 0.051530328 -0.2949145 0.08593648 0.1629384 0.06753147 -0.21242067 0.21281393 0.30372 -0.012719554 -0.056234416 0.19413735 -0.0016205084 -0.01893255 0.08621982 0.28049022 0.2965549 0.028486842 0.29847476 -0.13655137 -0.17661686 0.048887853 -0.3886574 -0.17930575 0.12637343 0.0840401 0.13568899 0.0027920005 -0.23798001 -0.29608312 -0.30101123 -0.10582776 0.21318449 0.41513252 -0.14977105 0.28780508 -0.069730885 -0.096396506 0.15401533 -0.0040720203 -0.24562782 0.25584087 -0.29211473 -0.080828846 -0.07271099 -0.07686166 -0.08451429 0.07033113 0.12681466 0.07522117 0.058272377 -0.04016177 0.052606877 -0.025670068
comment 0.0581218 -0.039743587 -0.112939924 0.11487818 -0.29275924 -0.025570687 0.36453497 0.10565348 0.054485787 0.20048171 0.31160563 0.3114805 0.5721546 -0.022214385 -0.09660377 0.053895745 -0.19136132 -0.32141554 -0.53912175 0.021712374 -0.16157329 0.17844084 0.05350172 0.2685708 0.020692473 -0.16891064 -0.5638483 0.11075873 0.2672501 0.09143453 0.334309 0.044900656 0.032525796 -0.03991032 -0.6897367 -0.18774462 -0.47713038 -0.105029225 0.003063273 0.0020520762 0.040023003 0.20582435 0.34181336 -0.053984977 0.04015561 -0.15668729 0.33221307 0.0070207454 -0.31266686 0.13933028 0.06711915 0.026760584 -0.13823248 0.27333006 0.28510803 0.012000497 -0.07996048 0.24028772 -0.029773338 0.008314593 0.13549761 0.29751548 0.28763658 0.012445698 0.2454761 -0.1904242 -0.1430209 0.047408745 -0.30382144 -0.16171719 0.047582936 0.13943322 0.023127891 0.065204166 -0.18007042 -0.2891373 -0.15700616 -0.10953444 0.13210951 0.41032112 -0.051413514 0.2649184 0.0010275804 -0.15695131 0.16537346 -0.035961874 -0.22391732 0.24069016 -0.26712522 -0.060976245 -0.13760236 -0.14885694 -0.002528454 0.0776893 0.06327723 0.077548444 -0.028245468 0.01853356 0.044439398 -0.06613962
http://www.semanticweb.org/jake/ontologies/2021/2/jbrown/Vegetarian_friendly_topping 0.059603453 -0.023393812 -0.12121418 0.1030611 -0.2860418 -0.021101683 0.33006328 0.09795767 0.058049478 0.19183767 0.30548164 0.30315956 0.5561106 -0.028495701 -0.09522906 0.043331034 -0.18259586 -0.29458493 -0.513501 0.03630161 -0.15928121 0.17166883 0.049311563 0.26858434 0.031173054 -0.15606105 -0.5516998 0.0975337 0.26780152 0.082386404 0.32596788 0.035013333 0.025057534 -0.04325816 -0.6616637 -0.18199344 -0.46104294 -0.09772444 0.00344493 -0.0051050913 0.043868702 0.20057082 0.32911468 -0.05633573 0.03818095 -0.14127351 0.31294078 0.0014227254 -0.28911847 0.14744903 0.062338293 0.030605659 -0.13353038 0.25987664 0.2589207 0.021623705 -0.076529205 0.22756718 -0.029628808 0.010830498 0.13479252 0.2923659 0.26645765 0.010115137 0.2202017 -0.18596262 -0.13363823 0.04004059 -0.2700911 -0.14580764 0.035385106 0.13025504 0.0072232746 0.06328155 -0.16905479 -0.29233077 -0.14360699 -0.10323986 0.12853342 0.39372575 -0.04146287 0.25318286 0.004171054 -0.14551432 0.15249506 -0.040490083 -0.22050342 0.2282615 -0.2537709 -0.069368884 -0.13708986 -0.15253866 -0.006252355 0.07160451 0.058598183 0.07715601 -0.03874997 0.0281894 0.03675301 -0.07567732
some 0.056813624 -0.028557137 -0.09420777 0.1151922 -0.26626477 -0.034168374 0.41651678 0.11066027 0.011876941 0.2110192 0.28808862 0.34184948 0.55271345 -0.018856421 -0.107676625 0.076616414 -0.17818834 -0.34294808 -0.50991005 0.010614353 -0.15826845 0.17238899 0.08026627 0.25341225 0.007019317 -0.16119057 -0.5866451 0.13560161 0.23648588 0.08535 0.34871638 0.05940052 0.030786492 -0.019540973 -0.68556625 -0.17642012 -0.45666695 -0.12354819 -0.0043176566 0.02340064 0.05250962 0.22088432 0.31624427 -0.04855416 0.034576148 -0.16901262 0.3168496 0.016989889 -0.29795495 0.13408226 0.106231526 0.03078935 -0.1498007 0.25630605 0.28958708 0.019107565 -0.083785474 0.2172021 -0.021389166 -0.011618377 0.0997771 0.28575498 0.28390685 0.018090062 0.24994577 -0.18016179 -0.14535701 0.041843634 -0.31794313 -0.15813783 0.066365734 0.108690545 0.063963585 0.051002495 -0.19559588 -0.29165906 -0.19905606 -0.10814054 0.14687084 0.40386227 -0.090522096 0.26102555 -0.031369377 -0.14484863 0.15299365 -0.014042172 -0.24043441 0.2455608 -0.28101692 -0.07606646 -0.12952115 -0.11745148 -0.02426474 0.07634965 0.10006946 0.074409746 -0.016028963 0.01578931 0.04516915 -0.052824747
location 0.07510557 -0.037891027 -0.09757453 0.13740134 -0.27495533 -0.021612087 0.4176625 0.10132013 0.01579569 0.20005289 0.29892194 0.33896756 0.560969 -0.00037063754 -0.10501889 0.07183981 -0.19409637 -0.34449896 -0.5281918 0.020575957 -0.16073094 0.15640728 0.08791622 0.28165483 0.013203869 -0.16639797 -0.6037786 0.13922843 0.24124306 0.07754665 0.3323768 0.048500165 0.041547146 -0.045312453 -0.6984076 -0.16632695 -0.4759252 -0.13297658 -0.016414115 0.03283613 0.055375375 0.21196896 0.3308583 -0.04751837 0.044105526 -0.18109724 0.30968058 0.029193893 -0.30902597 0.13696699 0.10681662 0.02204044 -0.15294395 0.2537951 0.30870345 0.02521491 -0.08251998 0.20992094 -0.02394691 -0.022061618 0.103138626 0.274914 0.26706108 0.0026370927 0.2359508 -0.16278087 -0.1427361 0.025199149 -0.33613342 -0.1475435 0.06225639 0.10606525 0.0595897 0.044759788 -0.18450919 -0.29336876 -0.21015699 -0.1004882 0.13813563 0.40801132 -0.07105942 0.2815376 -0.045012046 -0.1505958 0.17097342 -0.015613514 -0.22625697 0.2448245 -0.2901525 -0.07975277 -0.115387574 -0.13568021 -0.019834956 0.06340389 0.1182516 0.08189403 -0.03752588 0.021278376 0.031608373 -0.063280284
http://www.semanticweb.org/jake/ontologies/2021/2/jbrown/Establishment 0.05819307 -0.04143962 -0.08750371 0.12503988 -0.27986 -0.03751391 0.3967771 0.11031389 0.033721007 0.21457371 0.30515307 0.32175434 0.5654517 -0.018546928 -0.10161412 0.059202135 -0.18837021 -0.33774993 -0.5311173 0.005902773 -0.16195318 0.1648738 0.064588405 0.26472017 0.010379726 -0.16874841 -0.5905284 0.12696965 0.25676042 0.08808121 0.34892634 0.067146294 0.03744688 -0.02613407 -0.70284283 -0.16248578 -0.48466638 -0.12023545 0.015740665 0.009462861 0.045024715 0.21555285 0.33444148 -0.06303915 0.03572912 -0.1651813 0.33115306 0.007533829 -0.29676065 0.12906078 0.10386749 0.04053251 -0.15640937 0.25656775 0.2941009 0.018391414 -0.08437557 0.2325304 -0.026069762 -0.0032387273 0.119710706 0.3049386 0.28635558 0.006611908 0.24042805 -0.18003857 -0.14488782 0.04568592 -0.31830007 -0.1547539 0.059461165 0.13307332 0.037627798 0.052229058 -0.18592261 -0.29739287 -0.19088869 -0.09966351 0.14260763 0.4152145 -0.08095597 0.26917946 -0.019391553 -0.1386835 0.16693816 -0.02725738 -0.23411019 0.2516186 -0.2712283 -0.07213459 -0.12854342 -0.13575579 -0.009339285 0.07593492 0.08644774 0.079037316 -0.019030655 0.021591883 0.04267066 -0.05589319
http://www.semanticweb.org/jake/ontologies/2021/2/jbrown/Cheese_topping 0.05552141 -0.034800343 -0.10745266 0.119346336 -0.29220518 -0.022358553 0.34293675 0.10491786 0.055065256 0.19167407 0.31646678 0.3022245 0.5652808 -0.030856809 -0.095719196 0.052798927 -0.17824759 -0.30017844 -0.5215347 0.02722755 -0.1589905 0.16954513 0.05415829 0.27382666 0.02661892 -0.1591529 -0.55947065 0.11101206 0.26586378 0.08908921 0.3350396 0.046638396 0.02314443 -0.040648926 -0.6708831 -0.18295643 -0.47061867 -0.10251605 0.013418304 0.004115784 0.044496927 0.19801241 0.32592463 -0.048608564 0.038486414 -0.15002546 0.3246187 0.0037941188 -0.29622054 0.15354362 0.071332276 0.034948986 -0.14407852 0.2675799 0.27026752 0.0145242745 -0.07386711 0.22853707 -0.025308289 0.0073903003 0.13210848 0.3011647 0.2751221 0.018506318 0.22521694 -0.18724638 -0.13766266 0.03848986 -0.28735647 -0.14468937 0.048172455 0.14084363 0.0130774 0.06603257 -0.18413791 -0.29309964 -0.15166834 -0.104983054 0.13107477 0.39972526 -0.057766784 0.24840099 -0.009381097 -0.14534114 0.15955237 -0.032315932 -0.22160684 0.22987701 -0.2516312 -0.059021715 -0.141306 -0.15020448 0.0027387224 0.078638695 0.06364615 0.07073203 -0.034135763 0.020704204 0.041215807 -0.07613883
americana 0.0643439 -0.02229872 -0.119870834 0.104569934 -0.27583304 -0.01720191 0.3431742 0.09915258 0.053681135 0.19183467 0.30233818 0.30339316 0.5501125 -0.019359926 -0.086311765 0.04789876 -0.1772657 -0.30420047 -0.5145446 0.040798184 -0.15882917 0.16905893 0.06210755 0.26517287 0.022661945 -0.14888258 -0.5565811 0.10479712 0.25389394 0.091117784 0.31568396 0.02794401 0.020390837 -0.034016278 -0.6479992 -0.17917506 -0.45358056 -0.10792967 -0.0055998755 -0.0010308941 0.04559708 0.18954943 0.31973502 -0.054549653 0.040137913 -0.15896803 0.30432892 0.013589318 -0.29785272 0.14525546 0.06942978 0.029933507 -0.12882921 0.25414702 0.27088383 0.00964961 -0.08020208 0.22878632 -0.029913608 -0.0008837737 0.12599815 0.2861939 0.26274768 0.006324569 0.22558573 -0.18615828 -0.13265242 0.043747447 -0.27485377 -0.15037724 0.038408704 0.120694384 0.021833036 0.06009386 -0.17586549 -0.2862996 -0.15259494 -0.10855709 0.12195827 0.383458 -0.057849493 0.25571522 -0.008995347 -0.1480843 0.15016757 -0.03299535 -0.22107664 0.23574331 -0.26133373 -0.06759659 -0.13469146 -0.14160992 -0.007379136 0.07518155 0.07189739 0.07380776 -0.03610876 0.029414123 0.03481106 -0.06864166
http://www.semanticweb.org/jake/ontologies/2021/2/jbrown/Hawaiian 0.05914929 -0.026760232 -0.10943311 0.11599091 -0.2926826 -0.021316696 0.33975536 0.100769356 0.057066426 0.1941775 0.30854785 0.3084555 0.55739677 -0.02205874 -0.08938215 0.047497235 -0.18343696 -0.30522653 -0.5221201 0.030949265 -0.15976593 0.17431544 0.061856635 0.2734493 0.02726716 -0.15683326 -0.5583792 0.10845746 0.26048464 0.0924631 0.33386743 0.04136356 0.022310251 -0.032554936 -0.66587883 -0.17845477 -0.47049326 -0.10215212 -0.0002495385 -0.0012597825 0.036259573 0.19438305 0.33155715 -0.051668238 0.037044097 -0.15462871 0.31456915 0.004275234 -0.29231688 0.15196386 0.06875126 0.034915294 -0.13455786 0.26508182 0.26872686 0.019065898 -0.077628486 0.23679963 -0.028065048 0.011288399 0.12496227 0.29600728 0.27822214 0.010334108 0.22585332 -0.18744318 -0.13922499 0.044701066 -0.28766304 -0.14610802 0.040988725 0.1277438 0.017671516 0.06538331 -0.17777316 -0.29371968 -0.14412735 -0.10822331 0.13248086 0.39288312 -0.04793765 0.2612594 -0.0009648803 -0.1551521 0.16143899 -0.03062895 -0.2252003 0.24106832 -0.259823 -0.06382432 -0.14468604 -0.14199449 -0.0025044272 0.07349981 0.06598392 0.071843766 -0.029428601 0.025669452 0.039716985 -0.07055349
http://www.semanticweb.org/jake/ontologies/2021/2/jbrown/Americana 0.059772372 -0.028145976 -0.11012917 0.10760482 -0.28890938 -0.018401694 0.34424785 0.097448036 0.055326875 0.19207472 0.3095016 0.30177262 0.5581341 -0.021258047 -0.097316824 0.047511198 -0.17922513 -0.3019407 -0.51024544 0.030912071 -0.16340937 0.1750901 0.054533258 0.26730818 0.025347555 -0.15963618 -0.5557871 0.10536065 0.25945613 0.09247494 0.32655334 0.03624998 0.02134618 -0.03508291 -0.66080475 -0.18017145 -0.46911722 -0.10127359 0.0037625183 -0.00324325 0.04485895 0.19289912 0.33319306 -0.052830745 0.038568974 -0.15177326 0.3195526 0.0071447766 -0.29371217 0.14439762 0.06461424 0.02871506 -0.13937192 0.25743893 0.2712656 0.019467345 -0.078332655 0.22673634 -0.02531149 0.0040251166 0.12811367 0.29069987 0.27640718 0.008224558 0.22408836 -0.18750805 -0.13067749 0.043156777 -0.28860947 -0.14930597 0.042679753 0.13280964 0.01673622 0.06285391 -0.17418082 -0.2910849 -0.1446176 -0.10990006 0.13239995 0.3911509 -0.05143588 0.25538692 -0.0026872894 -0.1541647 0.1533417 -0.0314792 -0.21836086 0.23610693 -0.25787142 -0.0717497 -0.14406984 -0.14536694 -0.0019750907 0.07206013 0.061973996 0.07683774 -0.0332762 0.021913776 0.033289988 -0.068332925
http://www.semanticweb.org/jake/ontologies/2021/2/jbrown/Is_located_in 0.059792615 -0.04214129 -0.10575026 0.12561192 -0.2871893 -0.033185765 0.39565706 0.108373955 0.03224917 0.21227652 0.30730692 0.32159874 0.56528705 -0.018688282 -0.10669078 0.061943173 -0.18887526 -0.3303983 -0.5217315 0.01582569 -0.16957232 0.1578779 0.070813425 0.2785887 0.019120803 -0.17054057 -0.58036226 0.12725271 0.25750232 0.08185745 0.3380161 0.062018845 0.042518236 -0.031801373 -0.6956323 -0.17649014 -0.491213 -0.11814346 0.0036205712 0.0051528946 0.04331453 0.21547396 0.34549114 -0.04592364 0.035898715 -0.1536059 0.32683608 0.024840778 -0.3024017 0.12662882 0.08642239 0.036275666 -0.16189693 0.27029267 0.30421495 0.0071201525 -0.09032725 0.2274375 -0.013657888 -0.0027438637 0.12493001 0.3009264 0.28660044 0.009917413 0.2333374 -0.1815789 -0.14247298 0.040640097 -0.32584926 -0.15085357 0.06693881 0.13926801 0.055455517 0.056584574 -0.18459955 -0.289152 -0.18969162 -0.11698741 0.13515277 0.41404685 -0.066626355 0.2652092 -0.029407525 -0.14040583 0.15902054 -0.030731982 -0.23022096 0.24721086 -0.27150226 -0.071970806 -0.124948114 -0.1427846 -0.017584182 0.07766372 0.09514714 0.075457074 -0.023031795 0.009116008 0.03422037 -0.059566367
city 0.06539077 -0.031467997 -0.07073903 0.13865392 -0.254646 -0.049643468 0.48095274 0.11126799 -0.004249855 0.22209656 0.28940883 0.35868964 0.5522305 -0.009685433 -0.11052182 0.0985788 -0.17604008 -0.3599705 -0.52086884 -0.022172958 -0.15805772 0.17137916 0.0908128 0.24763185 -0.005398544 -0.18059851 -0.61317515 0.15383276 0.22039033 0.07730412 0.35762367 0.08873298 0.055349834 -0.01684016 -0.7011232 -0.1565369 -0.47880882 -0.13719355 -0.0005994261 0.03978917 0.058120996 0.22533995 0.31361464 -0.044727854 0.036108013 -0.17763291 0.3144998 0.029716093 -0.28846142 0.123502925 0.12558374 0.04528561 -0.16714247 0.2514205 0.29732406 0.012240941 -0.08424267 0.21098007 -0.012800013 -0.014642279 0.08373859 0.2935287 0.28972167 0.0145038115 0.2551885 -0.17109223 -0.17235437 0.039194375 -0.3464978 -0.16693822 0.08735649 0.09663261 0.07203 0.036740843 -0.20792805 -0.29611313 -0.2345331 -0.1002397 0.1729828 0.4121906 -0.11769716 0.2733904 -0.053995233 -0.123719 0.17555344 -0.004803209 -0.23865616 0.25786415 -0.2973377 -0.080816306 -0.12046505 -0.10920098 -0.04190033 0.06665719 0.1114332 0.081524216 -0.0012629833 0.0027159415 0.048588313 -0.039588742
http://www.w3.org/2000/01/rdf-schema#comment 0.056963705 -0.04044246 -0.11996495 0.11939438 -0.303617 -0.02523069 0.34859133 0.104192615 0.06573014 0.19891839 0.31589404 0.31298867 0.58508486 -0.02302937 -0.100115545 0.053045005 -0.18827005 -0.31172282 -0.53521633 0.021510951 -0.16913 0.16788721 0.051715642 0.27656585 0.031062221 -0.16406147 -0.5645132 0.11399742 0.2745286 0.09336864 0.33271033 0.042236205 0.026278548 -0.049338654 -0.6935144 -0.19061895 -0.48711058 -0.09930446 0.012406206 -0.0002961608 0.04459571 0.20002487 0.3498353 -0.05915671 0.038169753 -0.15653816 0.33963266 0.00752526 -0.3090711 0.15122129 0.06461396 0.03676173 -0.13497032 0.26399142 0.28583694 0.010885396 -0.07791944 0.22992127 -0.031359013 0.018944848 0.14029907 0.30211806 0.28478497 0.007820345 0.24317008 -0.18167354 -0.13886316 0.037734058 -0.3026712 -0.15781017 0.036623362 0.14803033 0.018451357 0.066386126 -0.1708235 -0.29702023 -0.14632681 -0.11066011 0.13810328 0.41066322 -0.04846596 0.26371697 0.005226429 -0.15255277 0.1569806 -0.040812273 -0.22405744 0.23780783 -0.2585612 -0.06877311 -0.14305052 -0.15769593 -0.006768315 0.08184013 0.06407128 0.07570835 -0.036075547 0.024225974 0.040062703 -0.068656035
http://www.semanticweb.org/jake/ontologies/2021/2/jbrown/Pizza_topping 0.06386924 -0.03434041 -0.11020121 0.117032185 -0.28714958 -0.020689694 0.34229434 0.09558663 0.060238086 0.19200286 0.30855852 0.3011296 0.5490711 -0.02102682 -0.09253177 0.04840864 -0.18114938 -0.3011417 -0.51679045 0.031332444 -0.15249495 0.16849779 0.056878243 0.26817226 0.026357386 -0.1598754 -0.54731905 0.10440568 0.25905764 0.08419486 0.3284631 0.03754905 0.02589269 -0.03416807 -0.66054827 -0.1798903 -0.46578696 -0.10479423 0.0108234435 -0.0007053456 0.04684244 0.19712925 0.32638997 -0.049996626 0.032762483 -0.14643967 0.31432658 0.0034280228 -0.2908175 0.13891344 0.0694005 0.03619267 -0.13605244 0.26153648 0.26242262 0.018511914 -0.070043124 0.23088005 -0.02550604 0.007987561 0.13599236 0.29458174 0.27307457 0.008146223 0.22620837 -0.18767661 -0.1402013 0.044947986 -0.27863595 -0.1496496 0.043450866 0.1381431 0.013272843 0.059133627 -0.17260098 -0.28846374 -0.14566992 -0.10735328 0.13059774 0.39441797 -0.047936264 0.24740803 -0.0058249906 -0.14961146 0.15553203 -0.031678177 -0.2160347 0.22959058 -0.2461301 -0.066390835 -0.1339688 -0.14558077 -0.00052705075 0.07100162 0.065316536 0.072351895 -0.037235674 0.024221536 0.03905267 -0.07317051
margherita 0.06070573 -0.030223371 -0.11482146 0.108613186 -0.28564477 -0.019239308 0.34736428 0.09860953 0.05153194 0.19248298 0.2992891 0.30122966 0.552333 -0.021444786 -0.08810134 0.0513826 -0.17595726 -0.30815813 -0.5137293 0.039185483 -0.15947789 0.15988825 0.05959183 0.25746518 0.019842487 -0.14836453 -0.5523599 0.109348334 0.25809023 0.08870963 0.32213038 0.035276886 0.02462786 -0.041919783 -0.65427995 -0.17517601 -0.45548436 -0.104023576 0.00587117 -0.0019889483 0.038735077 0.20100754 0.32339564 -0.053883217 0.03817779 -0.1559287 0.30571446 0.010709499 -0.29455808 0.14647399 0.06598786 0.033955038 -0.13184628 0.2561731 0.26975963 0.00989232 -0.08024689 0.22187841 -0.02754836 0.0017203995 0.124020875 0.29232714 0.27057824 0.0058846185 0.22946902 -0.1846275 -0.1389698 0.039277278 -0.27653098 -0.14602253 0.04682746 0.13029136 0.018658977 0.06669312 -0.1760876 -0.28063503 -0.14539616 -0.10784454 0.12157778 0.38346034 -0.05172137 0.25206563 -0.008068021 -0.14924753 0.1580456 -0.035021406 -0.22096737 0.23723733 -0.2511062 -0.0723361 -0.14358585 -0.14516819 -0.0025227522 0.069366366 0.07058315 0.07816225 -0.036449086 0.026344087 0.036972284 -0.064090736
beef 0.064711474 -0.027071163 -0.111658886 0.117310524 -0.29051423 -0.021056946 0.3337419 0.105333485 0.05848955 0.19465703 0.3037254 0.30057317 0.5574525 -0.020708114 -0.09208743 0.04288017 -0.17253022 -0.29555324 -0.51272196 0.0329797 -0.16061252 0.16478418 0.060280815 0.2649419 0.02038025 -0.15296552 -0.5535297 0.098602325 0.26301086 0.08584658 0.32182908 0.03978066 0.032425467 -0.036209725 -0.65867203 -0.1738991 -0.45633096 -0.10143206 0.013824799 0.0018127252 0.043479316 0.19178806 0.3295894 -0.051701937 0.031238617 -0.14608671 0.3170407 0.009525933 -0.29784405 0.14014137 0.071994975 0.03126387 -0.13738348 0.25926155 0.26585963 0.017550195 -0.07640697 0.23311122 -0.034121282 0.00979756 0.12745522 0.2878814 0.27271247 0.0160768 0.2269178 -0.18695241 -0.13344261 0.040452726 -0.2818257 -0.15509066 0.047215555 0.13365568 0.020564696 0.06451829 -0.17571668 -0.29166833 -0.1513763 -0.101726 0.124535576 0.39669433 -0.055537306 0.24823542 0.002785537 -0.14523782 0.16228789 -0.04183634 -0.21345651 0.23263276 -0.24802268 -0.06392254 -0.13725722 -0.14157249 -0.0071090865 0.06740125 0.06131304 0.074418105 -0.0393125 0.030010635 0.032256566 -0.0727908
state 0.060347706 -0.033384975 -0.08022273 0.13699345 -0.26044577 -0.042279407 0.47021446 0.115969665 -0.002398718 0.22165313 0.29834056 0.35342002 0.5427459 -0.0046904455 -0.10256896 0.09021558 -0.17877778 -0.35592157 -0.5165601 -0.016581817 -0.15835594 0.17595087 0.08390901 0.25552353 0.0006299316 -0.17701702 -0.60032564 0.1526147 0.22908935 0.069656745 0.35704416 0.08489504 0.04398497 -0.017902458 -0.68991405 -0.15271212 -0.46929857 -0.13051373 -0.004661714 0.0325682 0.05806509 0.22516824 0.30925396 -0.05154062 0.034913868 -0.17139025 0.31445014 0.024646558 -0.29039118 0.12206721 0.124747604 0.04124843 -0.1627085 0.24999392 0.29572812 0.011762978 -0.07971107 0.21451847 -0.017197771 -0.014362492 0.089516126 0.28893757 0.29208085 0.008830468 0.25166458 -0.16896589 -0.16844633 0.03479062 -0.34503013 -0.16000298 0.08855945 0.100818336 0.07142007 0.040905483 -0.20135063 -0.29060173 -0.23435314 -0.108369134 0.16962183 0.41270092 -0.105607435 0.26849574 -0.051874395 -0.12722135 0.17423737 -0.00669643 -0.24090913 0.26148948 -0.28591284 -0.08399591 -0.11435477 -0.104650564 -0.038736366 0.060424246 0.10854727 0.07892805 -0.008128176 0.011300034 0.042094797 -0.04548905
http://www.semanticweb.org/jake/ontologies/2021/2/jbrown/Meat_pizza 0.055338778 -0.033347014 -0.11271299 0.11566446 -0.28479174 -0.023464046 0.33655483 0.10198399 0.058587797 0.19091812 0.3076668 0.30348736 0.5496074 -0.024969425 -0.09823025 0.04864361 -0.17080678 -0.30111977 -0.5127806 0.03025484 -0.15172145 0.16629589 0.0529076 0.26644152 0.023592368 -0.15284723 -0.5492772 0.11098709 0.25682113 0.08622226 0.3210983 0.041292734 0.032588962 -0.031610657 -0.65979487 -0.17359954 -0.4555061 -0.10400062 0.00828881 -0.0044311415 0.042560525 0.1921348 0.32179242 -0.050349332 0.039053597 -0.14618312 0.30832475 0.004948374 -0.2922301 0.14520255 0.072049096 0.031985 -0.13036335 0.2631525 0.2618645 0.016613463 -0.07019092 0.22837083 -0.025966624 0.009998237 0.13048339 0.29020962 0.27205032 0.013926945 0.22581343 -0.18620293 -0.13210166 0.042933848 -0.2799057 -0.14742208 0.045652874 0.13153185 0.015510367 0.059613634 -0.17585249 -0.28791454 -0.14661011 -0.108439274 0.12979153 0.3920114 -0.051912364 0.24772987 -0.0013045119 -0.15178183 0.15439701 -0.03287546 -0.21862595 0.23168255 -0.24629758 -0.060078263 -0.13764594 -0.14810634 0.00026787605 0.07061969 0.06251051 0.07072964 -0.029835049 0.018520938 0.037971623 -0.06744261
http://www.semanticweb.org/jake/ontologies/2021/2/jbrown/Pizza_base 0.05996525 -0.036449954 -0.10777863 0.11231 -0.29337522 -0.023552129 0.35244018 0.10426491 0.059618548 0.20471932 0.3121764 0.31504023 0.5678554 -0.022114957 -0.09190343 0.05536051 -0.18724486 -0.3156525 -0.5272306 0.029209938 -0.1637572 0.16931722 0.059532356 0.27431184 0.031804264 -0.16024493 -0.5640292 0.11695867 0.2675752 0.08923729 0.3298063 0.037495885 0.024148315 -0.035955444 -0.6871015 -0.18198456 -0.4776459 -0.10302393 0.0037510777 -0.0045533683 0.04867744 0.1967518 0.34410265 -0.058990065 0.032346874 -0.14938566 0.32865283 0.0046000485 -0.30732745 0.14164191 0.07115837 0.030201254 -0.13491082 0.2607417 0.2733819 0.010415117 -0.07939828 0.23562914 -0.028516151 0.012924932 0.12776865 0.3052297 0.28531587 0.009397361 0.23590957 -0.18208496 -0.14104405 0.04003709 -0.2936844 -0.14782721 0.043309312 0.13278197 0.023981774 0.058576696 -0.17954911 -0.28607684 -0.15173404 -0.114440985 0.13381594 0.40176743 -0.05039492 0.25314942 0.0019811958 -0.14579283 0.15955605 -0.03662295 -0.2177031 0.2365777 -0.25761205 -0.07048455 -0.13530163 -0.14536113 -0.0040858937 0.08074483 0.059663128 0.08091808 -0.03497516 0.019806892 0.038336594 -0.07590508
country 0.06322274 -0.035406657 -0.091903836 0.13013077 -0.2686471 -0.038561624 0.42942777 0.1052508 0.011578124 0.2160499 0.30861956 0.34864157 0.5559464 -0.0064600757 -0.091426186 0.07532764 -0.1854446 -0.3402376 -0.5249425 -0.001524907 -0.1613902 0.1739446 0.075864054 0.2704559 0.0009765743 -0.17818183 -0.6051821 0.1362796 0.23645787 0.07588821 0.35088882 0.065147966 0.05292394 -0.024823247 -0.69123703 -0.16504905 -0.48099467 -0.13292977 -0.00877143 0.03238851 0.044077244 0.2107046 0.32313773 -0.053913813 0.03595736 -0.17334236 0.31734413 0.017012335 -0.3025883 0.12829278 0.11345339 0.034874834 -0.15304126 0.24358569 0.29977286 0.018452456 -0.08425256 0.21711989 -0.01603496 -0.017561605 0.093566574 0.2879037 0.2851334 0.010578946 0.23449287 -0.17256998 -0.1536662 0.035892118 -0.33488217 -0.15887071 0.072867066 0.10844912 0.05594042 0.053061407 -0.18817976 -0.294959 -0.21237853 -0.10799529 0.1632597 0.40953547 -0.09766414 0.26499313 -0.038223647 -0.1414331 0.17615317 -0.018831698 -0.23023862 0.26082602 -0.28043216 -0.0876233 -0.12015515 -0.11534345 -0.034036994 0.060303353 0.10343388 0.08948286 -0.02376981 0.0212925 0.044797413 -0.04853998
http://www.semanticweb.org/jake/ontologies/2021/2/jbrown/Vegetarian_pizza 0.06670464 -0.030152554 -0.1134342 0.11467053 -0.28108212 -0.021198766 0.34847486 0.104011856 0.057580475 0.20161632 0.3091664 0.3018962 0.5524567 -0.020520274 -0.096275344 0.05330132 -0.17641366 -0.30554408 -0.51162577 0.031245796 -0.15547597 0.16983795 0.048732456 0.26560578 0.01947519 -0.15569712 -0.5514151 0.10991889 0.26575628 0.09040875 0.3241307 0.04375669 0.024571791 -0.03841508 -0.66123927 -0.17055443 -0.46219668 -0.10200424 0.0069794822 -0.0005778706 0.03600256 0.19859666 0.3326217 -0.053531304 0.037919156 -0.14555156 0.31335744 0.009239517 -0.29358068 0.1373052 0.065678746 0.031321444 -0.13442697 0.25714618 0.26568916 0.019631496 -0.06722331 0.23292029 -0.023583403 0.009867037 0.1286151 0.29331684 0.2726268 0.015349068 0.22566105 -0.17800963 -0.13894853 0.038755145 -0.27510408 -0.15369764 0.046308674 0.1389681 0.015925767 0.056321684 -0.17337258 -0.2836334 -0.14602603 -0.11265239 0.1266759 0.3913312 -0.04847544 0.24917871 0.0014433668 -0.14668831 0.15194342 -0.038360737 -0.21624143 0.22995529 -0.24546577 -0.06609241 -0.13221188 -0.14677905 -0.0076262224 0.0707854 0.067026414 0.0806168 -0.028942125 0.01696951 0.032231405 -0.06928504
http://www.semanticweb.org/jake/ontologies/2021/2/jbrown/Country 0.059083927 -0.04471139 -0.09061252 0.13306382 -0.27483726 -0.033029173 0.40433267 0.096199274 0.031784687 0.20546147 0.31780836 0.32738966 0.5698938 -0.010608975 -0.09498153 0.06864189 -0.19461729 -0.3378928 -0.5353829 0.012879582 -0.16398941 0.15869403 0.07223572 0.28154522 0.0037688857 -0.18175215 -0.6093002 0.1250787 0.26336083 0.08114301 0.34572107 0.06443322 0.04918472 -0.027558262 -0.6994341 -0.16849296 -0.4975537 -0.113420606 0.008199137 0.013751352 0.037422903 0.2112865 0.34776077 -0.063495345 0.038720373 -0.1690218 0.3236728 0.007803779 -0.3025215 0.13410136 0.09471834 0.03809223 -0.14856812 0.2493557 0.29313943 0.026581444 -0.088441856 0.23146583 -0.012035141 -0.011871858 0.11026262 0.29133484 0.28730872 0.013538877 0.22617798 -0.1868619 -0.154323 0.027869472 -0.32218608 -0.15036319 0.064183496 0.12411691 0.03474212 0.06380241 -0.17550714 -0.29878786 -0.19377536 -0.10241584 0.15560488 0.42142773 -0.07997032 0.26906586 -0.02586293 -0.14938672 0.16975948 -0.014378541 -0.23454565 0.25356448 -0.27317724 -0.08254089 -0.13169551 -0.13881773 -0.019683655 0.07058958 0.09521163 0.08615824 -0.036194254 0.019965881 0.039134104 -0.057570077
http://www.semanticweb.org/jake/ontologies/2021/2/jbrown/Dessert_pizza 0.06273348 -0.02401685 -0.1164244 0.11010303 -0.28985754 -0.021427473 0.3366201 0.096320905 0.06281755 0.19041647 0.3020825 0.30570093 0.55952877 -0.026255775 -0.09193811 0.04355251 -0.18221521 -0.2992646 -0.5090009 0.028664652 -0.16391133 0.1741191 0.053368833 0.26270992 0.029315623 -0.16056566 -0.55234045 0.10661003 0.26144123 0.088675745 0.3222799 0.041775867 0.02834389 -0.0345215 -0.6675773 -0.17578109 -0.45931548 -0.09938603 0.00081360637 0.003495518 0.035955545 0.20067325 0.33159563 -0.05297564 0.037316572 -0.14724852 0.3133837 0.010109694 -0.29792416 0.13929047 0.06484599 0.03200064 -0.1390785 0.2606031 0.26590142 0.018272234 -0.07896374 0.23158349 -0.027140832 0.0044727367 0.12692818 0.29409266 0.27048618 0.009286566 0.22411801 -0.17973241 -0.13678314 0.036383096 -0.28409293 -0.14865892 0.04232188 0.13358784 0.02239421 0.0588723 -0.1670817 -0.2841499 -0.14504322 -0.11169393 0.1259715 0.39584255 -0.04820672 0.24864462 -0.004947711 -0.15060064 0.15864651 -0.031479374 -0.21517128 0.22683643 -0.25747275 -0.07039733 -0.1387373 -0.14630412 -0.00047854605 0.0723661 0.06333072 0.07934444 -0.032242753 0.020319574 0.038665313 -0.07270377
http://www.semanticweb.org/jake/ontologies/2021/2/jbrown/State 0.06755245 -0.0415514 -0.09482823 0.1237906 -0.27826333 -0.0319604 0.39226672 0.096590556 0.040772155 0.20551096 0.31979334 0.3278488 0.5716594 -0.0114260055 -0.100954115 0.057222962 -0.19354565 -0.33632842 -0.5334568 0.014030806 -0.15977912 0.15863377 0.06295413 0.28064796 0.0085084895 -0.17406112 -0.598914 0.12131378 0.26509395 0.08139777 0.33740368 0.06227549 0.039262827 -0.034757648 -0.70155984 -0.16511595 -0.4907536 -0.11033098 0.00948241 0.013906517 0.034507375 0.21265285 0.33807233 -0.055772174 0.03804186 -0.16115317 0.31803405 0.010737129 -0.29694802 0.13502702 0.09860218 0.04347965 -0.15481596 0.25291377 0.2933941 0.02478691 -0.08774271 0.230846 -0.015291496 -0.0015280787 0.11333186 0.2972609 0.28444207 0.009679591 0.22924855 -0.1874009 -0.14718416 0.031708155 -0.3207983 -0.15234703 0.057906944 0.13174407 0.028454533 0.06656477 -0.17574969 -0.30022 -0.18750313 -0.107267395 0.14419149 0.41588336 -0.07401795 0.26806182 -0.018069848 -0.14677607 0.16328911 -0.019371033 -0.22862291 0.2491893 -0.2707416 -0.07765268 -0.1395721 -0.1338216 -0.008035788 0.07382496 0.0903989 0.08037512 -0.027879663 0.027005 0.039881453 -0.056098048
http://www.semanticweb.org/jake/ontologies/2021/2/jbrown/Margherita 0.057748552 -0.024449153 -0.11557571 0.10915954 -0.28345522 -0.017473392 0.3463042 0.104100645 0.06103758 0.2017714 0.30667493 0.30549392 0.560569 -0.022406517 -0.09262926 0.048867118 -0.18180344 -0.31000707 -0.5174103 0.026537877 -0.15767266 0.17426434 0.053356003 0.26371244 0.021696545 -0.157273 -0.5553274 0.10438292 0.2597103 0.08729562 0.32398105 0.042210504 0.022479061 -0.03240688 -0.6656755 -0.1738397 -0.46741346 -0.10206254 0.0058062007 -0.0047846995 0.044510834 0.19899131 0.3325474 -0.058549277 0.04214485 -0.148742 0.3145751 0.0059621152 -0.29663172 0.14702418 0.06545648 0.03465961 -0.1350136 0.266292 0.2655033 0.014446692 -0.07320853 0.2274525 -0.023663394 0.012026848 0.1283575 0.29624328 0.27648753 0.010343763 0.23046996 -0.17865846 -0.13650641 0.037727784 -0.2842382 -0.14391948 0.046655856 0.13254337 0.020828528 0.0618253 -0.16831087 -0.29283702 -0.14355104 -0.110887885 0.12620428 0.39514878 -0.051428083 0.25594166 -0.009493869 -0.15297164 0.15625903 -0.03354123 -0.22171243 0.22980374 -0.25608313 -0.06949647 -0.13973261 -0.15049903 -0.005952262 0.07223771 0.0668517 0.07898502 -0.038662486 0.023216074 0.03571032 -0.07345688
http://www.semanticweb.org/jake/ontologies/2021/2/jbrown/Beef 0.061314996 -0.024716122 -0.11250949 0.11908439 -0.28345004 -0.02329219 0.34758407 0.102766156 0.055349432 0.19897929 0.3109075 0.30725065 0.5643534 -0.02059523 -0.10051839 0.046283346 -0.18037638 -0.30134967 -0.5228693 0.03259175 -0.16539496 0.16780496 0.058794364 0.2712387 0.02361663 -0.16441202 -0.5526308 0.10316911 0.26572117 0.082392216 0.32855707 0.03758518 0.03296199 -0.03709509 -0.67657095 -0.18139702 -0.46537924 -0.09991362 0.011763544 -0.0068938215 0.04860014 0.20316213 0.33305278 -0.059819747 0.039283838 -0.14428139 0.31852388 0.002524266 -0.2981996 0.14167447 0.074272275 0.033327334 -0.13564959 0.26050934 0.27481696 0.011609983 -0.06923373 0.23327917 -0.024916584 0.008759393 0.12816887 0.29889148 0.27147177 0.010419124 0.22887552 -0.19117028 -0.1352987 0.038572345 -0.28974843 -0.15485136 0.038725108 0.14165469 0.018794904 0.06722516 -0.17415224 -0.2968369 -0.1456394 -0.10400055 0.13298012 0.39995012 -0.049669303 0.2548688 -0.002170594 -0.15352033 0.1569791 -0.03983942 -0.21616386 0.2319642 -0.25688294 -0.06305843 -0.13912956 -0.15044394 -0.0061335205 0.07182042 0.062269196 0.0751104 -0.03259832 0.020680679 0.038733296 -0.074318714
http://www.semanticweb.org/jake/ontologies/2021/2/jbrown/Has_location 0.067727156 -0.03644195 -0.11083274 0.13819261 -0.29020092 -0.03385439 0.388455 0.10740698 0.030362524 0.20022634 0.31437105 0.32702452 0.56476426 -0.025482794 -0.107398644 0.058707397 -0.19635585 -0.32622856 -0.5202173 0.015612407 -0.16753632 0.15908147 0.07994761 0.28430614 0.00859353 -0.17562124 -0.58068204 0.12061904 0.25284594 0.076687336 0.3476239 0.041816097 0.035447285 -0.043174632 -0.69953847 -0.18585323 -0.50151145 -0.12667578 0.009017942 0.009249376 0.048102602 0.21635021 0.3577886 -0.053239655 0.046369094 -0.16304667 0.3289895 0.022112085 -0.31438184 0.13204482 0.09494791 0.025635336 -0.15235233 0.27350858 0.30714783 0.01221848 -0.08665402 0.22942631 -0.018602459 -0.0058406414 0.122422144 0.29438975 0.2853404 0.01294388 0.23390745 -0.17763092 -0.15167995 0.030608485 -0.32402438 -0.1475542 0.06322893 0.14221424 0.04466366 0.049562607 -0.17199372 -0.2864719 -0.19025372 -0.118109144 0.13565381 0.4044652 -0.053421468 0.27500468 -0.029529653 -0.15297922 0.15439881 -0.018543897 -0.23436746 0.24488279 -0.2713781 -0.07234283 -0.12426771 -0.15329598 -0.011871604 0.07599537 0.099260755 0.08090813 -0.043148853 0.024057588 0.03441072 -0.06342593
dessert 0.06372542 -0.026387887 -0.113962196 0.10721142 -0.28216666 -0.029266797 0.35217395 0.09500652 0.040763848 0.19868895 0.30022794 0.30379638 0.5450663 -0.024078581 -0.095053 0.05416569 -0.17334668 -0.3013896 -0.51037776 0.046959672 -0.1636867 0.16274662 0.0661602 0.26322424 0.02694414 -0.15039316 -0.5627208 0.0983265 0.2581892 0.080360316 0.3280423 0.02732498 0.018679075 -0.032305278 -0.65335584 -0.1785592 -0.45416757 -0.1179038 0.0094743725 -0.0022516176 0.052814852 0.20705739 0.30640092 -0.057648398 0.030097907 -0.15758039 0.29988205 0.011820381 -0.29895064 0.1511908 0.06611834 0.020873921 -0.13890423 0.2665682 0.26816162 0.015327708 -0.07171879 0.238476 -0.03650346 -0.005670589 0.11849591 0.28314546 0.26851043 0.015151316 0.23117352 -0.19661759 -0.1412409 0.039939612 -0.27669254 -0.15088327 0.047569845 0.12728843 0.020314658 0.06779019 -0.18726085 -0.29329225 -0.15821068 -0.10937938 0.13075191 0.38247922 -0.054764036 0.24505562 -0.0060608382 -0.15364671 0.15033211 -0.02901683 -0.23213218 0.23921959 -0.26326862 -0.07731715 -0.1451376 -0.14913951 -0.008747042 0.08080622 0.07584659 0.07471316 -0.02675826 0.022367405 0.044714637 -0.058632094
http://www.semanticweb.org/jake/ontologies/2021/2/jbrown/City 0.06307391 -0.04134968 -0.093134575 0.1297555 -0.27354926 -0.03985059 0.40360498 0.10649006 0.029391589 0.20784284 0.3127817 0.32603827 0.57011765 -0.013898196 -0.10069539 0.060148597 -0.1897498 -0.33547184 -0.5334367 0.0030368948 -0.16598542 0.16451602 0.068393394 0.27296853 0.0025311478 -0.17848867 -0.5971364 0.13240574 0.25188577 0.0854419 0.34447953 0.059605144 0.044089783 -0.024614474 -0.7037797 -0.16325095 -0.49145916 -0.11449171 0.01285451 0.017221486 0.042293847 0.21914148 0.34197077 -0.060937017 0.03979695 -0.15998083 0.3223485 0.011227032 -0.2947061 0.13113263 0.10427078 0.0411046 -0.15301156 0.25193453 0.2960546 0.018012462 -0.08769691 0.2319526 -0.023444982 -0.0012710887 0.11639906 0.3004013 0.28715995 0.013775049 0.23228467 -0.17683259 -0.15051171 0.041471504 -0.32452744 -0.1572909 0.06235489 0.13072817 0.04214224 0.051776957 -0.1780364 -0.29466644 -0.19289675 -0.10507736 0.14961249 0.4134119 -0.08242054 0.26569474 -0.018865654 -0.14563875 0.17003009 -0.019037783 -0.23250772 0.24534087 -0.27507848 -0.078253485 -0.1334159 -0.13881713 -0.015228889 0.075438514 0.082904235 0.08517529 -0.029552242 0.017940016 0.041488126 -0.058551036
b'\x1f\x9fa\x16_\xf2\\\x01\xed\xe4\xed\xe0\x07\xb3?\x86' 0.06103448 -0.029619873 -0.114970855 0.10410833 -0.28443214 -0.022516126 0.33007875 0.1035087 0.05914903 0.19628312 0.29795682 0.29677296 0.5450476 -0.020350885 -0.09613858 0.039613426 -0.17099456 -0.29427707 -0.504085 0.025769087 -0.1617597 0.16060084 0.05037198 0.2581315 0.014602381 -0.14988112 -0.5376527 0.10513217 0.26350096 0.08345389 0.3219345 0.035442337 0.031371724 -0.03080155 -0.6446291 -0.17701957 -0.454453 -0.10577097 0.0059489724 -0.007356015 0.036667246 0.19598193 0.31824118 -0.057926778 0.032752033 -0.14631854 0.31230128 0.004663034 -0.28937036 0.14482035 0.07200948 0.027813617 -0.12832695 0.2617796 0.26669645 0.007948009 -0.07396561 0.22518395 -0.035630044 0.0093396995 0.1249283 0.28772387 0.26495358 0.014150816 0.21711054 -0.18012196 -0.1287108 0.04706974 -0.27579138 -0.14835286 0.035711154 0.13475531 0.018117767 0.053693004 -0.17295912 -0.28866592 -0.14365177 -0.10869677 0.12042562 0.37902144 -0.05408037 0.24473 -0.006432591 -0.14563465 0.15624371 -0.03378299 -0.21485198 0.23295872 -0.2523394 -0.06636751 -0.14249079 -0.14535202 -0.008888418 0.066316925 0.065992795 0.07582091 -0.038205143 0.020152044 0.039252765 -0.06686621
b'\xd0\xb4&\\\xc9\xe6\xde\x8e\x10\xb032\x14\xef\xaeq' 0.06291134 -0.029461542 -0.108966306 0.11163745 -0.27662793 -0.021350825 0.3318755 0.10527621 0.057276845 0.19182763 0.29704726 0.29025602 0.53550076 -0.022272648 -0.093139775 0.039856736 -0.16692573 -0.291149 -0.50628513 0.03157229 -0.16293041 0.16516401 0.04619992 0.25733447 0.019952165 -0.14664817 -0.53041923 0.108683646 0.2615564 0.084295414 0.31812495 0.03327484 0.02619665 -0.03261503 -0.6426912 -0.1671015 -0.45434365 -0.102932505 0.0017607203 -0.007074831 0.03415664 0.19054013 0.32202998 -0.05574788 0.03890922 -0.14994933 0.3072364 0.010573791 -0.29103443 0.13941354 0.067212544 0.025827516 -0.12789948 0.2562329 0.25666395 0.008460012 -0.0711907 0.2262156 -0.033015806 0.0131055815 0.12766752 0.28667834 0.26653337 0.01040047 0.22293161 -0.17781822 -0.12732938 0.04632573 -0.2670216 -0.14542195 0.036878727 0.1371064 0.019368442 0.05713054 -0.1729007 -0.28519645 -0.13798858 -0.10914757 0.12066386 0.38052154 -0.047440078 0.24999082 0.0012902969 -0.1399614 0.14825444 -0.032310873 -0.21910007 0.23149744 -0.2523467 -0.064270355 -0.14151171 -0.1454071 -0.000431579 0.07372504 0.05962907 0.07912057 -0.033461835 0.017792532 0.031214861 -0.063514635
http://www.semanticweb.org/jake/ontologies/2021/2/jbrown/Dessert_topping 0.057737555 -0.023089865 -0.11374704 0.116033025 -0.2883264 -0.026730632 0.3478207 0.09666027 0.05828918 0.19782646 0.30938724 0.30911103 0.55734754 -0.032407094 -0.098741524 0.048111495 -0.17927004 -0.30411005 -0.5146055 0.029216923 -0.1617981 0.17375861 0.06251307 0.27222815 0.027322836 -0.1559853 -0.54998267 0.11163608 0.26374015 0.08107366 0.3322924 0.042208113 0.029019458 -0.036667828 -0.66420156 -0.1731207 -0.46319824 -0.10016379 0.010683159 0.0016667178 0.04709985 0.20339167 0.325524 -0.051960833 0.03424833 -0.14630885 0.32292563 0.0025260174 -0.29025316 0.1498401 0.06990648 0.036911577 -0.14385512 0.26618102 0.2668116 0.014175499 -0.0738667 0.23069108 -0.025010696 0.010178302 0.13293974 0.29189909 0.27413136 0.01054744 0.22765173 -0.18957856 -0.13432533 0.046233337 -0.28876534 -0.15268302 0.043993946 0.1306085 0.016669344 0.06755442 -0.1782994 -0.29155695 -0.14464572 -0.10443618 0.13611281 0.39709094 -0.050019134 0.25264686 -0.0052225622 -0.15042284 0.16263624 -0.039927904 -0.21558227 0.22790532 -0.25902417 -0.059909098 -0.13910955 -0.1458229 -0.0043065413 0.07113847 0.06340581 0.07630519 -0.027772706 0.016319966 0.034760367 -0.0714409
mozzarella 0.06641798 -0.030934513 -0.11123543 0.112433456 -0.282331 -0.026328208 0.34431115 0.10284782 0.04881272 0.19637814 0.30356964 0.30590633 0.54446083 -0.019943807 -0.09085974 0.05581217 -0.17169866 -0.299133 -0.51061434 0.032967463 -0.15353692 0.16985223 0.05570323 0.26578325 0.0153982425 -0.15757549 -0.55011284 0.107248954 0.25115013 0.08719638 0.32008606 0.03585171 0.02548291 -0.035309102 -0.6549679 -0.17156297 -0.45720425 -0.11386442 0.0004499424 -0.0031011584 0.04939498 0.20406796 0.31937504 -0.05129367 0.03726915 -0.15481128 0.3051904 0.01610075 -0.29528958 0.14457154 0.06780077 0.032638505 -0.14216526 0.25782168 0.27027088 0.008763557 -0.06969657 0.23119415 -0.02856713 0.0008849065 0.12160778 0.2892538 0.26542392 0.00998837 0.22446729 -0.19017465 -0.14349353 0.04015211 -0.27709702 -0.14455839 0.045619924 0.12342986 0.01720651 0.06509554 -0.18339285 -0.28135774 -0.15811148 -0.10673359 0.13061653 0.39209715 -0.061855152 0.25350872 -0.0062650675 -0.15049557 0.1574184 -0.037127607 -0.22650242 0.23458198 -0.2558706 -0.06310777 -0.1411488 -0.13870156 -0.013965679 0.07817511 0.06989297 0.074034534 -0.02670745 0.0231226 0.039667252 -0.066382706
http://www.semanticweb.org/jake/ontologies/2021/2/jbrown/Seafood_pizza 0.06370281 -0.030639587 -0.110959254 0.11053353 -0.28246948 -0.018163145 0.34496513 0.10021731 0.053254474 0.1945705 0.30303127 0.3119157 0.5620363 -0.029241644 -0.09757316 0.04500485 -0.18151785 -0.30980322 -0.51855063 0.026342757 -0.1623943 0.16796541 0.059418216 0.2706991 0.028455378 -0.15892683 -0.5610599 0.10966352 0.26345882 0.08908942 0.3304141 0.04461198 0.031360593 -0.034121767 -0.67212594 -0.17332022 -0.4676915 -0.10196044 0.0045575337 0.0017256682 0.04420725 0.19976033 0.32942927 -0.054027118 0.034809135 -0.15233225 0.32365853 0.0039831027 -0.29822963 0.1474368 0.06944453 0.023871273 -0.1401789 0.2600539 0.26733136 0.01870223 -0.07377707 0.22791302 -0.035755623 0.010698899 0.13198122 0.29470277 0.26999128 0.008691 0.23148964 -0.18269083 -0.14346342 0.040330168 -0.2895603 -0.14455144 0.04161532 0.13194567 0.015955651 0.06593401 -0.17101257 -0.29317665 -0.15683971 -0.10444692 0.13503152 0.3943663 -0.05354747 0.26098686 -0.0036648398 -0.15197 0.16032231 -0.040164594 -0.22195686 0.23368433 -0.26053444 -0.06521227 -0.13805628 -0.14261977 -0.00012047383 0.067028746 0.06929667 0.08129556 -0.037289884 0.019046417 0.032959078 -0.07442697
ham 0.060965806 -0.029732266 -0.11255995 0.11666536 -0.2792732 -0.023577904 0.35887292 0.102193356 0.048151758 0.19912732 0.30046546 0.3046092 0.5485008 -0.019448934 -0.0916136 0.05422337 -0.17622444 -0.3016013 -0.510542 0.03319018 -0.15632412 0.17136565 0.061231323 0.26852894 0.021600112 -0.15959923 -0.56001717 0.10756512 0.26017788 0.08245644 0.32465953 0.03372079 0.022758162 -0.031360384 -0.6626672 -0.1807919 -0.4563909 -0.108966455 0.008578506 -0.00013999088 0.047961906 0.20633335 0.31376874 -0.050194222 0.031367954 -0.16010107 0.3172628 0.0076856534 -0.29639602 0.14803196 0.07479553 0.02394128 -0.13707235 0.25626585 0.264912 0.01715915 -0.06969492 0.22760007 -0.03678111 0.0027316916 0.12414019 0.2933449 0.26766986 0.019717038 0.22998875 -0.18544272 -0.13728902 0.042706672 -0.2903133 -0.14542574 0.054449055 0.13218054 0.028943367 0.063078396 -0.17808165 -0.2843196 -0.15685557 -0.11188736 0.13172692 0.38411957 -0.054806404 0.25164405 -0.007188067 -0.14522928 0.15073203 -0.03632241 -0.21737783 0.23404934 -0.2635325 -0.07075501 -0.14183158 -0.14403814 -0.0040795105 0.07750148 0.07227198 0.07134666 -0.029094202 0.019796062 0.03728345 -0.06064807
miscellaneous 0.025730234 0.009180591 -0.12849627 0.07653519 -0.30180535 -0.048172455 0.30813017 0.10587159 0.028259918 0.19398558 0.32218605 0.32138008 0.60953265 -0.010426424 -0.0974942 0.012615968 -0.19234146 -0.34996432 -0.56346375 0.057251863 -0.14488104 0.17085378 0.094440445 0.2831998 0.032663863 -0.12803848 -0.5820202 0.095095016 0.28785133 0.09469896 0.38123706 -0.00048006052 0.0077632316 -0.040728055 -0.67706555 -0.23430207 -0.4669073 -0.14453179 -0.0069165383 -0.03244986 0.034264784 0.18892998 0.29151598 -0.072559714 -0.0077559273 -0.13613439 0.32117343 0.00066289806 -0.33627245 0.1486441 0.01773665 0.040103015 -0.1248809 0.31126073 0.2556685 0.021580527 -0.10901227 0.27791208 -0.06369858 -0.005396108 0.10925136 0.30561 0.2955723 0.05515068 0.22646329 -0.24434039 -0.15124172 0.07779589 -0.25083604 -0.14947806 0.007220306 0.10903272 -0.005497702 0.065798335 -0.22559468 -0.3270156 -0.18784623 -0.1396245 0.14074947 0.43636602 -0.042745106 0.2432963 -0.022713063 -0.16956902 0.13209732 -0.07179701 -0.26464218 0.28949463 -0.311221 -0.11517858 -0.18993483 -0.1961511 0.0035441793 0.090148814 0.06848423 0.09612548 -0.009355367 0.02146211 0.06869537 -0.089424275
vegetarian 0.053506397 -0.0039965753 -0.13534422 0.055057243 -0.33801758 -0.03371864 0.3118567 0.12266566 0.054240417 0.19163425 0.29975522 0.3254653 0.581046 -0.05393312 -0.0865469 0.020923806 -0.2110048 -0.30594346 -0.5646678 0.10512685 -0.17035177 0.19680236 0.061001536 0.2612026 0.058549218 -0.15522416 -0.5845155 0.06222126 0.29940102 0.057099003 0.3435928 -0.024980363 0.025157494 -0.076585814 -0.7004087 -0.20316747 -0.4287729 -0.11120602 -0.0128251 -0.036185455 0.07722887 0.21440257 0.29869977 -0.036327485 0.041299894 -0.17139183 0.31081212 0.0042295824 -0.31260124 0.18416396 0.041311175 -0.0029749433 -0.16485791 0.31879213 0.2946927 0.00525114 -0.0892611 0.28973746 -0.062303822 -0.037538256 0.09360092 0.32146746 0.2872695 0.018708875 0.2545463 -0.24304 -0.1268401 0.09571991 -0.25344113 -0.18026453 0.034417626 0.12434326 -0.019772714 0.06461098 -0.23326847 -0.3439162 -0.152801 -0.079199195 0.13494863 0.37307775 -0.04905496 0.27202666 0.039407372 -0.15029784 0.11107369 -0.070883006 -0.2675884 0.29398182 -0.31926203 -0.06329013 -0.17719597 -0.15637209 0.0016805907 0.06785317 0.0406203 0.07333268 -0.045868266 0.07565067 0.061423894 -0.07930358
http://www.semanticweb.org/jake/ontologies/2021/2/jbrown/Deep_dish 0.063346654 -0.03147093 -0.11148284 0.109406106 -0.29394025 -0.022170616 0.35433972 0.09867884 0.06166534 0.19221553 0.30682445 0.30585778 0.56329495 -0.023962848 -0.094662935 0.048067026 -0.18096241 -0.31082952 -0.52249295 0.031038022 -0.16394474 0.16229935 0.04924677 0.27190953 0.030144714 -0.15319696 -0.55694234 0.116516694 0.2640607 0.09054226 0.33444935 0.04732972 0.029614808 -0.043070596 -0.68187404 -0.17368557 -0.47408134 -0.10323483 0.009757951 0.00018749402 0.043170266 0.19831397 0.33461392 -0.0510184 0.03890052 -0.15214868 0.32713512 0.0023878335 -0.30446938 0.14693287 0.07094719 0.031139294 -0.13923734 0.25894925 0.27595115 0.017702859 -0.08284432 0.2376513 -0.029254017 0.006294891 0.13833897 0.29702753 0.27617612 0.005534587 0.22764103 -0.18327074 -0.13835815 0.04573341 -0.28663477 -0.15209052 0.042616 0.1365209 0.012330713 0.057481453 -0.18039206 -0.29167998 -0.15360412 -0.1076888 0.13091604 0.40051517 -0.05017947 0.26024386 -0.009533584 -0.14606516 0.16265225 -0.031282708 -0.21586154 0.23822908 -0.25403327 -0.06983247 -0.13337097 -0.14751756 0.003116431 0.06931321 0.06345187 0.073487535 -0.03178177 0.024988588 0.038924403 -0.07668795
pepperoni 0.06052322 -0.022010213 -0.118149556 0.115865655 -0.28919408 -0.029526511 0.35201377 0.09819591 0.05192047 0.19519933 0.3080288 0.3106272 0.545595 -0.027694471 -0.09800219 0.054266635 -0.17740439 -0.30884454 -0.51599604 0.03534853 -0.1526213 0.16936058 0.0615492 0.264344 0.025179438 -0.16319548 -0.55359054 0.10790274 0.25239938 0.082479745 0.32733324 0.03637509 0.029668486 -0.03469291 -0.66694343 -0.17065103 -0.45494762 -0.10462212 0.0058163377 -0.0021596833 0.040382434 0.20034955 0.320968 -0.052929062 0.03645844 -0.15052098 0.31213853 0.0049342844 -0.30158192 0.14800362 0.07173048 0.02680701 -0.14058656 0.25816137 0.2669326 0.016606072 -0.06837093 0.23111571 -0.034735817 0.00022380304 0.122405045 0.28929737 0.26731956 0.013542435 0.23351331 -0.18187939 -0.14438727 0.04162824 -0.28621557 -0.14892322 0.0451905 0.12464135 0.019982355 0.064782165 -0.18167435 -0.2844003 -0.15736286 -0.10992201 0.13474771 0.3894104 -0.054268137 0.24870272 -0.01013476 -0.15134299 0.15724798 -0.034454774 -0.21800162 0.2359577 -0.26441792 -0.06278784 -0.14478402 -0.14520682 -0.0025861668 0.072963335 0.07503162 0.075130165 -0.03235706 0.01806844 0.04073568 -0.07154862
http://www.semanticweb.org/jake/ontologies/2021/2/jbrown/Pineapple 0.05691508 -0.031118494 -0.11541499 0.10565023 -0.2936796 -0.026128016 0.34956232 0.10491378 0.05124659 0.19344538 0.30760607 0.30980545 0.5617781 -0.024539292 -0.101546526 0.045251947 -0.18421797 -0.30563062 -0.5263162 0.04124829 -0.16022663 0.17825335 0.05560053 0.27208024 0.024386832 -0.15857953 -0.5698836 0.10741035 0.26674974 0.08589155 0.33273327 0.03833927 0.02320144 -0.043667357 -0.6723166 -0.18768887 -0.46950772 -0.11160025 0.005950418 0.0032134787 0.04319755 0.20534727 0.32074785 -0.049720638 0.03548791 -0.14971834 0.31929523 0.00070632045 -0.2988128 0.15369782 0.06611068 0.036343917 -0.1377915 0.27500176 0.27659294 0.015183894 -0.070717596 0.23988523 -0.031235475 0.0027652197 0.1255423 0.30074772 0.2805994 0.02082508 0.22877857 -0.19272304 -0.1341196 0.044506285 -0.2877665 -0.14681928 0.04283265 0.13664705 0.016657682 0.066760875 -0.18954985 -0.299023 -0.1533364 -0.11312812 0.13439053 0.39428633 -0.056985073 0.25971156 -0.010826974 -0.15164758 0.15299763 -0.041798726 -0.22583048 0.24156034 -0.26186633 -0.065169364 -0.13927387 -0.15402776 -0.0026936315 0.07945529 0.06461645 0.08207596 -0.023346376 0.025762405 0.044155512 -0.07664791
http://www.semanticweb.org/jake/ontologies/2021/2/jbrown/Thin_crust 0.06804619 -0.03589016 -0.11855282 0.11101076 -0.2941009 -0.02695391 0.3635224 0.099501 0.056067783 0.20355783 0.31334198 0.3176919 0.57014173 -0.025557641 -0.09915835 0.055631373 -0.18896703 -0.31993702 -0.5302896 0.03118387 -0.16381681 0.17102577 0.053794123 0.27639526 0.031221041 -0.16030455 -0.56875056 0.11906147 0.26953635 0.08673772 0.34259793 0.048776906 0.027795149 -0.044203646 -0.6921161 -0.1856288 -0.48543695 -0.10564033 0.007717415 0.0051708356 0.040299244 0.20533356 0.34055617 -0.053797953 0.03330223 -0.15157267 0.33549613 0.008713206 -0.3077349 0.1440461 0.07772915 0.035835117 -0.13783437 0.2619051 0.28080505 0.021205738 -0.07980345 0.23346415 -0.02822115 0.008697501 0.13077031 0.29979745 0.2764062 0.0043965355 0.23191653 -0.18423077 -0.1453012 0.040039584 -0.29569864 -0.15315102 0.04601347 0.134335 0.017607737 0.059036985 -0.17496926 -0.2895195 -0.16140659 -0.106198564 0.13156983 0.41152576 -0.058811527 0.2553731 -0.010903442 -0.1451189 0.1653318 -0.03001232 -0.2275681 0.24370027 -0.26360536 -0.06679058 -0.1451872 -0.14709376 -0.0041510556 0.07160509 0.0721756 0.07794102 -0.037637137 0.023151927 0.039830975 -0.07430916
lamb 0.059566278 -0.024868729 -0.10653244 0.11432751 -0.28641865 -0.025534503 0.34508672 0.09866675 0.060547847 0.19480878 0.30435666 0.2985071 0.5576805 -0.031287175 -0.09596408 0.04479235 -0.17665043 -0.30315682 -0.51553583 0.025848275 -0.16146366 0.16149686 0.053366568 0.2631133 0.028157849 -0.15653372 -0.5494814 0.11184043 0.2647938 0.08168648 0.32345277 0.038714644 0.031197939 -0.031998314 -0.66475326 -0.16885357 -0.46229193 -0.10691409 0.010440073 -0.0036491188 0.045389216 0.19231026 0.33009472 -0.051827434 0.03786904 -0.14390506 0.31681892 0.008474404 -0.2897632 0.1375745 0.07355967 0.024281712 -0.13985188 0.25889468 0.2624124 0.020558288 -0.077924974 0.22558972 -0.031914078 0.011702428 0.13385671 0.29748207 0.27015555 0.009799269 0.22977835 -0.17836969 -0.14207058 0.038788654 -0.28494602 -0.14986198 0.048778307 0.1326299 0.01630188 0.057719126 -0.17411363 -0.2894333 -0.15057087 -0.10088224 0.12418668 0.38521096 -0.052239772 0.2488052 -0.0076919054 -0.14034267 0.15646932 -0.03447379 -0.21407768 0.23271666 -0.2538673 -0.06831102 -0.13172674 -0.15019718 -0.0062136697 0.06606398 0.06314071 0.0758156 -0.03320823 0.02335275 0.03226555 -0.06500258
chicken 0.06886715 -0.03402861 -0.10614986 0.111940004 -0.28784376 -0.022799099 0.34481066 0.104072444 0.061279256 0.20121264 0.30606732 0.30689308 0.55826086 -0.023041995 -0.09671168 0.04723251 -0.17455463 -0.30360904 -0.5110892 0.029951982 -0.15751165 0.16978744 0.054375436 0.26729262 0.025808142 -0.16335762 -0.55601776 0.112799615 0.25742936 0.08302534 0.32639378 0.036172476 0.023835251 -0.03957363 -0.6643999 -0.17929758 -0.46468285 -0.09929665 0.0031743292 0.001260607 0.037804034 0.1989858 0.3258325 -0.048566412 0.03667798 -0.15369582 0.31543502 0.00937004 -0.29544377 0.14706989 0.06915021 0.02585869 -0.13240479 0.25818014 0.26843852 0.0113706775 -0.07865479 0.22784936 -0.029420903 0.013397917 0.13138469 0.2955193 0.27286413 0.018015912 0.22377868 -0.1785805 -0.13887459 0.04394667 -0.27944648 -0.14966916 0.0438041 0.13486353 0.021955188 0.06096864 -0.17523515 -0.29163834 -0.15151262 -0.106045775 0.12478143 0.3901658 -0.05683262 0.25474453 -0.0075590666 -0.15055196 0.15582828 -0.032194793 -0.21823561 0.23050344 -0.25528353 -0.07025981 -0.13498011 -0.14783187 -0.003926775 0.072647825 0.068925865 0.07520158 -0.03401403 0.019389054 0.0391584 -0.07258138
base 0.061587144 -0.03697464 -0.1143934 0.1204129 -0.28655007 -0.02935936 0.3710918 0.10877785 0.045130737 0.19510199 0.31437746 0.32255715 0.5744824 -0.016076507 -0.088667884 0.05743756 -0.185554 -0.31602332 -0.541357 0.035086304 -0.15598764 0.17616408 0.06359352 0.27559504 0.0258081 -0.15805058 -0.5719926 0.11381266 0.26980904 0.0850849 0.33110175 0.04466215 0.038601965 -0.042583384 -0.69961065 -0.17751184 -0.47733837 -0.106344275 -0.0014303684 0.013346455 0.0422982 0.2009734 0.3423303 -0.063367195 0.04034283 -0.16366273 0.33627516 0.012004116 -0.3126323 0.14078909 0.07619852 0.029271187 -0.1412651 0.27137744 0.28249648 0.01059341 -0.07774848 0.22955267 -0.03660887 0.011176699 0.124642886 0.30262664 0.27252674 0.0036267508 0.2401138 -0.19293083 -0.14573231 0.03512096 -0.30583063 -0.15329845 0.041767426 0.124343395 0.016503502 0.064651154 -0.1904362 -0.29620668 -0.16947095 -0.10256498 0.13717857 0.40462157 -0.0628585 0.26681557 -0.015846299 -0.15222447 0.16200034 -0.03328437 -0.22737937 0.24201456 -0.26321146 -0.065125465 -0.14523563 -0.14154986 -0.0015514143 0.07047526 0.07827627 0.085931614 -0.034537982 0.025032485 0.035542503 -0.07387773
bianca 0.063437715 -0.02935269 -0.11564898 0.1082556 -0.29106954 -0.018228484 0.3389252 0.10574636 0.05965054 0.20150514 0.29921106 0.30932745 0.5556794 -0.021136256 -0.0964183 0.05026583 -0.17569606 -0.30284163 -0.5150138 0.033083655 -0.15814604 0.1668245 0.06100365 0.26214945 0.024327826 -0.15789144 -0.55052286 0.10230882 0.25652096 0.08779625 0.32688445 0.037485775 0.027412692 -0.039059967 -0.65734977 -0.17032222 -0.46421334 -0.106838875 0.0070233885 -0.0035620106 0.038892254 0.20199062 0.32156727 -0.0560426 0.037404783 -0.15114693 0.3135143 0.012222737 -0.29725537 0.14637573 0.06397783 0.026806353 -0.1326934 0.2650691 0.26377594 0.010593887 -0.075751595 0.23187593 -0.02694629 0.007476066 0.12524273 0.2992092 0.26570702 0.008917506 0.2262252 -0.1787396 -0.13909209 0.03996409 -0.27833942 -0.14851756 0.047996078 0.12977159 0.019207979 0.05879237 -0.17313594 -0.2920628 -0.1463994 -0.10493444 0.12509562 0.3864339 -0.057002783 0.25683364 -0.0029578847 -0.15020826 0.15995272 -0.03711211 -0.21637836 0.23202707 -0.25721878 -0.061541155 -0.14083818 -0.14858016 -0.005708317 0.0735557 0.068250865 0.07604504 -0.031461228 0.024160583 0.037335597 -0.063927725
http://www.semanticweb.org/jake/ontologies/2021/2/jbrown/Pepperoni 0.05566112 -0.033008773 -0.11817348 0.11503477 -0.28580418 -0.022903841 0.34108678 0.09874505 0.053329326 0.19366716 0.30625367 0.29988056 0.55714744 -0.021510528 -0.09386563 0.049911067 -0.17151782 -0.3013395 -0.5120826 0.0344777 -0.15420224 0.16944343 0.05716355 0.26781675 0.020394458 -0.1539981 -0.55197006 0.11074251 0.26356786 0.07934168 0.33176666 0.034591146 0.031291936 -0.034913845 -0.6630241 -0.17549631 -0.46361467 -0.10470944 0.0027524761 -0.0030907216 0.03784047 0.2050347 0.32443702 -0.054360207 0.03542692 -0.15194108 0.31580737 0.004939994 -0.2941598 0.15120989 0.072498746 0.024002854 -0.13659172 0.26184464 0.27152494 0.010116566 -0.07563891 0.23460838 -0.026011106 0.0014141109 0.12878586 0.28882405 0.27027756 0.016877618 0.23123781 -0.18229465 -0.13566273 0.037059497 -0.28146785 -0.14422147 0.049434416 0.12758595 0.018968774 0.065932855 -0.176633 -0.28181243 -0.15104482 -0.11247635 0.13567431 0.3858337 -0.053364795 0.2493393 -0.010217696 -0.14326915 0.15376358 -0.032205332 -0.21404554 0.2305309 -0.25600135 -0.0604066 -0.14148383 -0.14319713 -0.0013856072 0.07247383 0.06732329 0.07001099 -0.027259868 0.017920576 0.03450208 -0.068102874
pineapple 0.05187163 -0.020532204 -0.1127678 0.108861335 -0.29098666 -0.02672239 0.35726282 0.107720934 0.041759152 0.1982485 0.30396995 0.31760284 0.56058043 -0.018611042 -0.100918084 0.05097467 -0.18593223 -0.3111897 -0.5319584 0.04319254 -0.16324024 0.17423508 0.05953518 0.2702291 0.029540738 -0.15390506 -0.56999 0.10488759 0.2657534 0.08705505 0.33682317 0.02967082 0.025126114 -0.039045732 -0.6703055 -0.18942302 -0.4560004 -0.110344075 -0.0013097412 1.9091647e-05 0.048390623 0.20663022 0.31270546 -0.050902758 0.03253638 -0.16143356 0.3159529 0.0071207397 -0.30386287 0.14793299 0.07115347 0.02534137 -0.13768019 0.2713215 0.27722153 0.011182946 -0.077985264 0.23808745 -0.037371423 -0.005790794 0.11452963 0.29684466 0.28006396 0.017408507 0.23407687 -0.19930694 -0.14277253 0.054762047 -0.290617 -0.1533998 0.051052917 0.123835705 0.015390691 0.067080826 -0.1878568 -0.29582432 -0.16754209 -0.11146377 0.13393195 0.39189035 -0.054187182 0.25348848 -0.0065992405 -0.15434502 0.1473156 -0.036239095 -0.2308339 0.25368088 -0.27092317 -0.07370259 -0.14529857 -0.14763442 -0.0034529811 0.077395104 0.07128136 0.07681412 -0.025656195 0.026878066 0.046912365 -0.064864255
b'\x90\x1f\r\t\xad#\xd3\xd22k/\xfe(\xcar\xd7' 0.058584176 -0.028924966 -0.11371511 0.10919194 -0.28348777 -0.025007682 0.34499457 0.09755096 0.062119473 0.20380299 0.30317163 0.2999437 0.54792786 -0.026573285 -0.098570295 0.044932805 -0.17308824 -0.3062799 -0.51979786 0.030055344 -0.16417228 0.16758223 0.055484507 0.26575947 0.026945626 -0.15177132 -0.5483808 0.11156319 0.25589237 0.088632725 0.33245564 0.037373874 0.028202752 -0.03729205 -0.6656365 -0.17488284 -0.45295396 -0.1045973 0.0068911677 -0.006276582 0.043359898 0.19366376 0.31880754 -0.052289054 0.036022577 -0.15296742 0.31414926 0.014934744 -0.28855717 0.14361049 0.067098 0.03027488 -0.1426343 0.26386297 0.26232928 0.016237484 -0.07867327 0.23030648 -0.026525961 0.007840275 0.13322209 0.28847003 0.27444255 0.016192751 0.22625881 -0.18068519 -0.14027812 0.04639747 -0.28281897 -0.14883699 0.044011857 0.13607576 0.02578267 0.06277976 -0.17041808 -0.2828138 -0.14846656 -0.107727714 0.13137132 0.39285508 -0.05760281 0.25541735 -0.0030107268 -0.14497992 0.1575273 -0.03185568 -0.21445704 0.22774409 -0.25061437 -0.064005874 -0.14221652 -0.14439993 -0.0025763088 0.070123866 0.07251587 0.07175833 -0.039046925 0.022813993 0.03356699 -0.07205554
http://www.semanticweb.org/jake/ontologies/2021/2/jbrown/Ham 0.05952349 -0.03253633 -0.11352393 0.11892176 -0.28924203 -0.02115852 0.348636 0.0976456 0.054033924 0.19971628 0.30686203 0.30833533 0.55860806 -0.026774848 -0.094057485 0.05674479 -0.17617135 -0.30638093 -0.51707155 0.02730629 -0.162742 0.16527326 0.055306077 0.27074015 0.025043912 -0.1595444 -0.5557129 0.10597221 0.2595327 0.08294172 0.32974234 0.044911288 0.032612067 -0.034282975 -0.6676993 -0.17841484 -0.46158734 -0.09885601 0.003468458 0.0025552104 0.03728659 0.20452358 0.32294887 -0.055209618 0.038663518 -0.14648946 0.3229639 0.0018264805 -0.2918253 0.15133874 0.07425895 0.027397325 -0.14064027 0.2618841 0.2668307 0.012341593 -0.07177236 0.23306704 -0.03225209 0.0018460933 0.12445914 0.29062334 0.26677576 0.008241881 0.2299913 -0.17837228 -0.13422966 0.042652138 -0.28765142 -0.1473347 0.050512202 0.13894218 0.023521025 0.06328979 -0.17344064 -0.2855271 -0.14986904 -0.11211824 0.13065587 0.38709453 -0.053849123 0.24715212 -0.01234362 -0.14757745 0.16009042 -0.03422426 -0.21475412 0.23163839 -0.24853723 -0.060417708 -0.13831036 -0.1459705 -0.00089597073 0.07479674 0.06377994 0.07646005 -0.026579369 0.013912834 0.03545654 -0.07015056
http://www.semanticweb.org/jake/ontologies/2021/2/jbrown/Miscellaneous_vegetarian_topping 0.06293257 -0.026922766 -0.10958354 0.11423962 -0.29156303 -0.020995688 0.3485366 0.10633604 0.060358208 0.19705482 0.3044653 0.31014276 0.560324 -0.025759272 -0.09242538 0.051433496 -0.17420097 -0.30815324 -0.5267373 0.03179553 -0.15982431 0.1694544 0.054193415 0.26872545 0.02756522 -0.16207556 -0.5516539 0.11151099 0.26004475 0.08423986 0.33631942 0.033559475 0.027895315 -0.032154936 -0.6759558 -0.17868763 -0.46133715 -0.10304617 0.011460713 -0.0009374069 0.0470137 0.20523918 0.32648984 -0.051177233 0.032563444 -0.14873601 0.32449818 0.0107741235 -0.29680273 0.14239134 0.073385015 0.03356815 -0.14497782 0.26065785 0.26807758 0.011184258 -0.07113509 0.24034756 -0.027451651 0.013004539 0.13205878 0.29311448 0.2782642 0.01148477 0.23091328 -0.18856896 -0.13746563 0.047212284 -0.28520557 -0.1531989 0.04184699 0.13777082 0.013804243 0.05639705 -0.18365394 -0.29289767 -0.15105177 -0.10326835 0.13737945 0.4018448 -0.047334187 0.25690445 -0.0029807645 -0.15165922 0.15152551 -0.032299526 -0.22751884 0.23130393 -0.25907302 -0.06751175 -0.14634058 -0.15074436 -0.0026550638 0.07264949 0.066033244 0.08105681 -0.032524083 0.023490055 0.033605367 -0.06792387
b"\xb6\xef\xac\x958'\xe4\xe9\xb9\x07\xb3\xd0\xf2\x08\xb4\xbb" 0.058395423 -0.026306069 -0.10564924 0.11246896 -0.27203143 -0.02108001 0.333028 0.09556572 0.04950263 0.19483058 0.2960654 0.29525828 0.53851265 -0.029397735 -0.08876801 0.053197265 -0.17368126 -0.2909792 -0.49589905 0.035374906 -0.15486023 0.16771519 0.049873985 0.2618701 0.018318377 -0.14865527 -0.53954476 0.1022265 0.25012428 0.07704055 0.31581917 0.031124434 0.03199495 -0.034059506 -0.64578325 -0.16493686 -0.4479901 -0.10071781 0.006154485 -0.0025531258 0.04499765 0.19029623 0.31381753 -0.05543249 0.034449007 -0.15108499 0.307593 0.0043377047 -0.2818429 0.14043929 0.06921134 0.03261446 -0.13684365 0.25218987 0.2584449 0.014139021 -0.0692091 0.21787956 -0.032703422 0.013079943 0.12077208 0.28671947 0.26652604 0.016438795 0.22476467 -0.1740472 -0.14093313 0.033726554 -0.26959902 -0.14861414 0.037902515 0.12945959 0.019084696 0.060514573 -0.1689807 -0.27770868 -0.14997725 -0.10340626 0.12375211 0.3748774 -0.044648033 0.24587783 -0.009754205 -0.1454158 0.14794001 -0.03778696 -0.21522251 0.22228235 -0.24283399 -0.062990375 -0.12990978 -0.14382146 -0.0020950232 0.0713229 0.06175142 0.0680314 -0.036102712 0.02156738 0.034759242 -0.06188252
b'\xf7\xa5em\x9e\xa6xs\xf9>!\x8d\x8f\x0b\xe2\x01' 0.06801231 -0.025598848 -0.11881349 0.107557945 -0.28578547 -0.022772742 0.3418647 0.104739055 0.057576127 0.19784082 0.30361927 0.3065891 0.5508184 -0.028249273 -0.09616534 0.051593766 -0.16915232 -0.30870917 -0.5167621 0.030188335 -0.15889548 0.16723566 0.05406764 0.26062763 0.023744866 -0.15011656 -0.5429407 0.10304594 0.2632634 0.0830922 0.3206581 0.03350656 0.026127415 -0.03588975 -0.6579988 -0.17312095 -0.45178404 -0.10598991 0.0014090975 -0.0034921959 0.040363837 0.1970891 0.3257804 -0.055935718 0.036258597 -0.15119632 0.3136661 0.014317584 -0.29273272 0.14339317 0.06871397 0.0267331 -0.13729145 0.2612398 0.26622364 0.012329852 -0.07656731 0.23146813 -0.036052562 0.0031836827 0.12684122 0.28731155 0.26731336 0.009702014 0.22332487 -0.18301758 -0.13810202 0.042854577 -0.27702144 -0.14479955 0.046079583 0.12791163 0.025106587 0.05947608 -0.17112428 -0.28901085 -0.14998661 -0.11310237 0.12433664 0.38689834 -0.055322155 0.2513727 -0.0062991194 -0.14305161 0.15125242 -0.032104276 -0.22038695 0.23624057 -0.2531111 -0.06504214 -0.13477172 -0.14290844 -0.0018292924 0.07492884 0.06804504 0.071185954 -0.038974173 0.021022374 0.032816645 -0.06639564
b'.\x04\xba\x91\xde~\xa5\xf0~\x99x\xb5;\xb7`\t' 0.05684744 -0.0327595 -0.10888747 0.1106915 -0.27600947 -0.018213453 0.33083552 0.10055001 0.053231455 0.19677843 0.2978823 0.2926876 0.5357704 -0.023189534 -0.09270064 0.047131605 -0.17491047 -0.29849344 -0.50870895 0.026457148 -0.16066793 0.16520503 0.059505895 0.25947353 0.016179463 -0.15210573 -0.5390018 0.10791906 0.25503424 0.081777744 0.32285428 0.04196584 0.028609747 -0.032655627 -0.64673424 -0.1754911 -0.44611737 -0.100538194 0.0012534752 -0.0047678654 0.042415727 0.19676983 0.3196963 -0.05981355 0.032274283 -0.15132187 0.30947134 0.014042513 -0.2935092 0.13811179 0.07380681 0.02750692 -0.13316846 0.25425392 0.26707757 0.008844875 -0.06962768 0.22380076 -0.029554043 0.011444964 0.12863636 0.2829205 0.26417726 0.0076953913 0.22202379 -0.17615667 -0.13716187 0.039926887 -0.2754375 -0.14438294 0.041102484 0.13060352 0.012655819 0.056673072 -0.16998476 -0.28587592 -0.14838833 -0.1068406 0.12125579 0.38406473 -0.056892086 0.24775404 -0.008136811 -0.14348103 0.15526366 -0.030902142 -0.22042799 0.23488328 -0.24950668 -0.061325118 -0.13593897 -0.14526024 -0.005880399 0.0685497 0.06529103 0.07830778 -0.03700051 0.025977744 0.03912931 -0.07067495
http://www.semanticweb.org/jake/ontologies/2021/2/jbrown/Bianca 0.06489979 -0.031621814 -0.11197966 0.11045648 -0.28369105 -0.017610671 0.35151738 0.10755146 0.05697474 0.1984979 0.31125516 0.30436245 0.56307536 -0.022911254 -0.090732604 0.052268106 -0.18109071 -0.30331907 -0.5234734 0.02622866 -0.15625863 0.16786844 0.05406332 0.2693463 0.018189393 -0.15713316 -0.56008065 0.104214735 0.26322785 0.086424224 0.32519177 0.035291493 0.025139133 -0.03461863 -0.6726106 -0.17704621 -0.46848965 -0.10425993 0.0023918406 -0.003783555 0.0428601 0.2034354 0.33015072 -0.060023315 0.03330779 -0.14896978 0.31461164 0.0043666363 -0.29745117 0.14107315 0.07078449 0.03535251 -0.13680594 0.26401156 0.27203757 0.018996991 -0.07253004 0.23603451 -0.02950532 0.013984364 0.13230228 0.29248363 0.27041525 0.009339614 0.22915488 -0.1815801 -0.13695145 0.04407656 -0.28158757 -0.14538565 0.047554474 0.12911715 0.01751549 0.06374707 -0.17007825 -0.28589353 -0.15212138 -0.110537805 0.1287068 0.39093867 -0.049745444 0.2595294 -0.0025910605 -0.15011325 0.15568288 -0.028747147 -0.2242137 0.23778203 -0.2565158 -0.069019884 -0.13903093 -0.15183653 -0.0044697695 0.06963751 0.06350718 0.0785174 -0.03027809 0.024117367 0.034743164 -0.07401289
http://www.semanticweb.org/jake/ontologies/2021/2/jbrown/Chicken 0.06801624 -0.026806945 -0.10829362 0.11394589 -0.28274927 -0.018252417 0.342817 0.10747904 0.060108855 0.19325589 0.31087542 0.30381766 0.56121916 -0.02749132 -0.09506933 0.047021855 -0.1726378 -0.3058845 -0.5195908 0.03545738 -0.1633501 0.16400202 0.058422737 0.26671177 0.029181696 -0.16057245 -0.56114763 0.105646364 0.26671776 0.08064001 0.32923076 0.03729053 0.024257215 -0.03416896 -0.6714302 -0.18025956 -0.47238266 -0.09930953 0.0048087514 -0.0020800855 0.041152894 0.19963516 0.33132282 -0.0585526 0.037873253 -0.1427777 0.31540084 0.0039404077 -0.30099484 0.14379716 0.0716727 0.03523734 -0.13485873 0.2646954 0.275276 0.014791506 -0.075287715 0.23547344 -0.026487906 0.0104192095 0.12872969 0.30060995 0.27793074 0.017232204 0.23111771 -0.18245518 -0.13566214 0.036958236 -0.2805498 -0.14885639 0.042835336 0.13634616 0.013697204 0.058884073 -0.16825312 -0.2840007 -0.14811842 -0.10511184 0.13190717 0.39818823 -0.052179024 0.25744852 -0.009707372 -0.14602211 0.15737414 -0.03818966 -0.21507132 0.23511712 -0.25914788 -0.07128833 -0.13885677 -0.15072052 -0.0017070845 0.07743307 0.069599405 0.07120242 -0.03259934 0.02691054 0.03132209 -0.067255564
b'b\xec\x886\t\xef\xb6b\xd3\xf3y1\xbd\xf8(\xae' 0.06659674 -0.027623322 -0.112538055 0.107425444 -0.27908882 -0.024593135 0.34419522 0.100775965 0.061031897 0.2012462 0.30449829 0.30140415 0.5473256 -0.025927624 -0.098066375 0.043505672 -0.16837446 -0.30813494 -0.5163474 0.037206177 -0.16009927 0.16382077 0.059249338 0.26796567 0.027301926 -0.15124707 -0.543364 0.103733264 0.26147997 0.0882424 0.3245607 0.033124626 0.032278247 -0.03291136 -0.664218 -0.1723327 -0.45860058 -0.09801554 0.0016096259 -0.0057485644 0.04700406 0.19268313 0.32304087 -0.05019152 0.036973875 -0.14883193 0.3108301 0.007947473 -0.2928724 0.14623639 0.07136937 0.03137936 -0.13665836 0.25581977 0.26917112 0.015795587 -0.07547449 0.23055719 -0.03327388 0.0041270633 0.13153708 0.29010606 0.27392972 0.014260349 0.22015512 -0.1874572 -0.13887435 0.036856316 -0.28403682 -0.15045726 0.040118586 0.13561119 0.024229676 0.058128715 -0.17153245 -0.2849027 -0.15142597 -0.11012712 0.13410099 0.38911 -0.05255493 0.24785754 0.00019670557 -0.14976813 0.15368931 -0.03379571 -0.21660341 0.22794862 -0.25639045 -0.064188 -0.13912931 -0.14343445 -0.008702826 0.07460254 0.070760824 0.07862184 -0.040471543 0.023539877 0.036987476 -0.06408544
http://www.semanticweb.org/jake/ontologies/2021/2/jbrown/Mozzarella 0.06354958 -0.029168371 -0.11622758 0.12022298 -0.2904685 -0.019142268 0.34853163 0.10061109 0.061248023 0.19528663 0.30669627 0.31123227 0.55919075 -0.030769488 -0.098917104 0.052661784 -0.18206133 -0.31180477 -0.5142329 0.034633268 -0.1556051 0.16441856 0.05127448 0.26759443 0.026299778 -0.16350414 -0.5600063 0.1124184 0.26484096 0.08889155 0.33379987 0.04167276 0.028772948 -0.038339626 -0.6691181 -0.17785598 -0.4692633 -0.10620145 0.011428269 -0.0013120909 0.039022908 0.19546103 0.32657853 -0.060275435 0.03846098 -0.15102525 0.32158542 0.012729419 -0.30169392 0.15005755 0.07377922 0.03557971 -0.13735119 0.26437914 0.27694756 0.010093573 -0.07491421 0.22642903 -0.028435849 0.004354088 0.12566833 0.29304898 0.27050892 0.012696795 0.23014657 -0.18110093 -0.13514385 0.03817516 -0.28267744 -0.14648098 0.044494044 0.13397832 0.021849584 0.060859773 -0.17442192 -0.2943539 -0.15518816 -0.10381552 0.1304651 0.39499483 -0.052407987 0.25423187 -0.0071053584 -0.14575729 0.15289094 -0.033548266 -0.22406971 0.23862721 -0.25302446 -0.05925075 -0.13693683 -0.15123388 -0.008069748 0.074100256 0.06802225 0.074806 -0.029933043 0.015256576 0.03844 -0.07101803
b'\x832(\x85\x1b\xa1\x9c\xd1q\xa5o\xa2\x1e\xe4\xf4r' 0.06456665 -0.028738901 -0.107291676 0.10486025 -0.28038895 -0.027254835 0.3342931 0.10383038 0.05492361 0.19587764 0.29401612 0.29399422 0.543888 -0.027853157 -0.09562156 0.0470965 -0.16928329 -0.2964163 -0.50989676 0.03441858 -0.16120769 0.15982117 0.04944312 0.25967583 0.015811114 -0.15186429 -0.5398604 0.10369958 0.2614171 0.07875729 0.31550428 0.03824245 0.022298088 -0.036188424 -0.6448674 -0.17011946 -0.45517927 -0.10357133 0.0038803965 -0.0008349604 0.04096841 0.1932907 0.31725508 -0.056125443 0.03171665 -0.15233536 0.31332564 0.0146425245 -0.29172546 0.13639301 0.07115158 0.023816006 -0.13151571 0.2598265 0.25865465 0.013107025 -0.07543689 0.22215824 -0.031606067 0.012086103 0.12912376 0.28771025 0.25985515 0.011115708 0.22005537 -0.17816392 -0.12921423 0.040311195 -0.27725297 -0.14484416 0.036491595 0.12817799 0.014681748 0.05965295 -0.171671 -0.2850245 -0.1452786 -0.1042121 0.13002792 0.37849814 -0.052289046 0.24676439 0.0005801086 -0.1451168 0.15099497 -0.034566104 -0.21676257 0.23465046 -0.2462794 -0.06080504 -0.13798095 -0.1477168 -0.00245525 0.073785454 0.06915678 0.08165119 -0.031870898 0.017906986 0.037570175 -0.06186556
http://www.semanticweb.org/jake/ontologies/2021/2/jbrown/Lamb 0.058140963 -0.035119016 -0.1096641 0.11304344 -0.28409144 -0.022676196 0.3506027 0.1041829 0.05638856 0.19670506 0.3059269 0.30862716 0.56671864 -0.02403858 -0.094773464 0.050537918 -0.17853133 -0.30988896 -0.5254958 0.03331914 -0.16260633 0.16834903 0.05585364 0.27070406 0.024831638 -0.15845306 -0.5638976 0.106599905 0.26436397 0.08153338 0.33110982 0.043108076 0.030493764 -0.032818906 -0.67298305 -0.1760961 -0.47206244 -0.10436081 0.008184831 -0.0021473537 0.04271636 0.20243776 0.33299065 -0.059486926 0.037579555 -0.14665844 0.32492778 0.0059585366 -0.29993612 0.14259171 0.06721874 0.033460993 -0.13637273 0.2592427 0.27734515 0.016957456 -0.07204132 0.23524556 -0.024810556 0.0053320443 0.13576505 0.30151635 0.27451304 0.0068352176 0.22615826 -0.18600072 -0.1420064 0.03774982 -0.29262188 -0.15625171 0.046066005 0.12979771 0.016348679 0.06193236 -0.17033641 -0.2891744 -0.14737514 -0.10561378 0.13219447 0.3988121 -0.053815506 0.25094306 -0.006189812 -0.1485388 0.16326033 -0.034744225 -0.21827191 0.23272248 -0.26203185 -0.07244955 -0.13836442 -0.1498034 0.0005402571 0.07099343 0.062010802 0.07515301 -0.03107346 0.023792988 0.032841433 -0.07107038
